{"learner":{"attributes":{"scikit_learn":"{\"_estimator_type\": \"classifier\"}"},"feature_names":[],"feature_types":[],"gradient_booster":{"model":{"cats":{"enc":[],"feature_segments":[],"sorted_idx":[]},"gbtree_model_param":{"num_parallel_tree":"1","num_trees":"100"},"iteration_indptr":[0,1,2,3,4,5,6,7,8,9,10,11,12,13,14,15,16,17,18,19,20,21,22,23,24,25,26,27,28,29,30,31,32,33,34,35,36,37,38,39,40,41,42,43,44,45,46,47,48,49,50,51,52,53,54,55,56,57,58,59,60,61,62,63,64,65,66,67,68,69,70,71,72,73,74,75,76,77,78,79,80,81,82,83,84,85,86,87,88,89,90,91,92,93,94,95,96,97,98,99,100],"tree_info":[0,0,0,0,0,0,0,0,0,0,0,0,0,0,0,0,0,0,0,0,0,0,0,0,0,0,0,0,0,0,0,0,0,0,0,0,0,0,0,0,0,0,0,0,0,0,0,0,0,0,0,0,0,0,0,0,0,0,0,0,0,0,0,0,0,0,0,0,0,0,0,0,0,0,0,0,0,0,0,0,0,0,0,0,0,0,0,0,0,0,0,0,0,0,0,0,0,0,0,0],"trees":[{"base_weights":[7.540914E-8,-4.055335E-1,7.096664E-1,1.2754275E-1,-9.0177834E-1,8.773774E-1,4.7197303E-1,3.6010154E-2,2.1439135E-1,-9.6477884E-1,5.33808E-2,4.509851E-1,1.0878732E0,7.874016E-1,-6.675561E-2,2.707482E-1,-3.570774E-1,-1.0769157E0,-6.166245E-1,2.6270825E-1,-6.0072027E-2,5.2770454E-1,3.88362E-1,4.9346328E-1,3.2608697E-1,1.2198129E-1,-4.592054E-1,8.652744E-2,2.8430328E-1,-3.7475976E-1,6.5861485E-8,-4.296533E-1,-3.8264325E-1,-3.364116E-1,-6.408196E-2,-1.3452914E-1,1.0570149E-1,1.8419649E-1,5.33808E-2,4.2158574E-2,3.4593213E-1,-2.5464445E-1,5.33808E-2,-8.287291E-2,1.4803898E-1,-2.1352312E-1,8.010683E-2,-2.7459952E-1,8.408971E-2,1.2198129E-1,-1.7909142E-1,1.8683276E-1,-1.0297481E-1],"categories":[],"categories_nodes":[],"categories_segments":[],"categories_sizes":[],"default_left":[0,0,0,0,0,0,0,0,0,0,0,0,0,0,0,0,0,0,0,0,0,0,0,0,0,0,0,0,0,0,0,0,0,0,0,0,0,0,0,0,0,0,0,0,0,0,0,0,0,0,0,0,0],"id":0,"left_children":[1,3,5,7,9,11,13,15,-1,17,-1,19,21,23,25,27,29,31,33,-1,35,37,-1,39,-1,-1,41,43,-1,-1,45,47,-1,-1,49,-1,-1,-1,-1,51,-1,-1,-1,-1,-1,-1,-1,-1,-1,-1,-1,-1,-1],"loss_changes":[2.2125565E1,1.3056979E1,7.00366E-1,1.2888345E0,1.9035778E0,8.760834E-1,2.3856401E0,2.1466064E0,0E0,2.8124046E-1,0E0,1.5156993E0,4.1509056E-1,2.3297834E-1,1.2998488E0,1.7235206E0,2.7834198E0,1.6335583E0,2.2257848E0,0E0,7.9788244E-1,1.8854737E-2,0E0,1.8095127E0,0E0,0E0,1.0808284E0,1.9789032E0,0E0,0E0,1.5660262E0,2.150531E0,0E0,0E0,1.4952444E0,0E0,0E0,0E0,0E0,1.2753537E0,0E0,0E0,0E0,0E0,0E0,0E0,0E0,0E0,0E0,0E0,0E0,0E0,0E0],"parents":[2147483647,0,0,1,1,2,2,3,3,4,4,5,5,6,6,7,7,9,9,11,11,12,12,13,13,14,14,15,15,16,16,17,17,18,18,20,20,21,21,23,23,26,26,27,27,30,30,31,31,34,34,39,39],"right_children":[2,4,6,8,10,12,14,16,-1,18,-1,20,22,24,26,28,30,32,34,-1,36,38,-1,40,-1,-1,42,44,-1,-1,46,48,-1,-1,50,-1,-1,-1,-1,52,-1,-1,-1,-1,-1,-1,-1,-1,-1,-1,-1,-1,-1],"split_conditions":[4.2E1,4.2211056E-1,6E2,3.919598E-1,9.447236E-1,4.7E1,4.8E1,1.959799E-1,2.1439135E-1,3.4E1,5.33808E-2,4.5E1,1.557789E-1,4.6E1,3.6683416E-1,1.5075377E-1,2.2613065E-1,5.477387E-1,5.5778897E-1,2.6270825E-1,4.6E1,1.0050251E-1,3.88362E-1,6.281407E-1,3.2608697E-1,1.2198129E-1,5.2E1,2.2E1,2.8430328E-1,-3.7475976E-1,2.8E1,5.0753766E-1,-3.8264325E-1,-3.364116E-1,7.9396987E-1,-1.3452914E-1,1.0570149E-1,1.8419649E-1,5.33808E-2,4.3E1,3.4593213E-1,-2.5464445E-1,5.33808E-2,-8.287291E-2,1.4803898E-1,-2.1352312E-1,8.010683E-2,-2.7459952E-1,8.408971E-2,1.2198129E-1,-1.7909142E-1,1.8683276E-1,-1.0297481E-1],"split_indices":[2,4,1,4,4,2,2,4,0,2,0,2,4,2,4,4,4,4,4,0,2,4,0,4,0,0,2,2,0,0,2,4,0,0,4,0,0,0,0,2,0,0,0,0,0,0,0,0,0,0,0,0,0],"split_type":[0,0,0,0,0,0,0,0,0,0,0,0,0,0,0,0,0,0,0,0,0,0,0,0,0,0,0,0,0,0,0,0,0,0,0,0,0,0,0,0,0,0,0,0,0,0,0,0,0,0,0,0,0],"sum_hessian":[7.4880005E1,4.7923203E1,2.69568E1,2.34624E1,2.44608E1,1.42272005E1,1.27296E1,2.1216002E1,2.2464E0,2.3212801E1,1.248E0,5.7408004E0,8.486401E0,7.7376003E0,4.992E0,1.34784E1,7.7376003E0,1.59744005E1,7.2384005E0,2.7456E0,2.9952002E0,3.2448E0,5.2416E0,5.2416E0,2.496E0,2.2464E0,2.7456E0,1.1481601E1,1.9968001E0,1.4976001E0,6.2400002E0,4.4928E0,1.1481601E1,3.2448E0,3.9936001E0,1.4976001E0,1.4976001E0,1.9968001E0,1.248E0,3.7440002E0,1.4976001E0,1.4976001E0,1.248E0,6.2400002E0,5.2416E0,1.248E0,4.992E0,2.496E0,1.9968001E0,2.2464E0,1.7472E0,1.248E0,2.496E0],"tree_param":{"num_deleted":"0","num_feature":"8","num_nodes":"53","size_leaf_vector":"1"}},{"base_weights":[9.987508E-3,-3.050223E-1,5.664967E-1,1.09395385E-1,-6.62877E-1,6.916477E-1,3.8725653E-1,1.8648373E-2,2.8803098E-1,-7.389251E-1,4.56666E-2,3.5609344E-1,8.595896E-1,6.53478E-1,-6.011589E-2,2.160931E-1,-3.1029987E-1,-2.6391217E-1,-8.0675286E-1,-4.5907427E-2,6.693835E-2,2.0975508E-1,-4.9198933E-2,7.347239E-2,2.8361115E-1,3.2518217E-1,4.1128865E-1,9.7327694E-2,-3.7644342E-1,6.6393584E-2,2.3296878E-1,-3.1132984E-1,-1.8362E-2,-1.7799906E-1,9.8621674E-2,-2.7196792E-1,-8.6554444E-1,-1.1024391E-1,8.711009E-2,-8.1735E-2,2.3344998E-1,-2.0960493E-1,4.4572227E-2,7.66727E-2,-1.6522335E-1,1.1611062E-1,-1.4997871E-1,-9.82546E-2,-2.845317E-2,-3.2471204E-1,-1.6733925E-1],"categories":[],"categories_nodes":[],"categories_segments":[],"categories_sizes":[],"default_left":[0,0,0,0,0,0,0,0,0,0,0,0,0,0,0,0,0,0,0,0,0,0,0,0,0,0,0,0,0,0,0,0,0,0,0,0,0,0,0,0,0,0,0,0,0,0,0,0,0,0,0],"id":1,"left_children":[1,3,5,7,9,11,13,15,-1,17,19,21,23,25,27,29,31,33,35,-1,-1,-1,37,-1,-1,-1,39,-1,41,43,-1,-1,45,-1,-1,47,49,-1,-1,-1,-1,-1,-1,-1,-1,-1,-1,-1,-1,-1,-1],"loss_changes":[1.3273165E1,7.2455616E0,3.4591007E-1,1.7786043E0,1.4399366E0,5.3013706E-1,1.6497083E0,1.4990371E0,0E0,5.4828453E-1,1.5654193E-1,9.600409E-1,2.5262976E-1,4.4673467E-1,8.471423E-1,1.1538919E0,1.8244476E0,1.0615182E0,3.9931107E-1,0E0,0E0,0E0,5.375025E-1,0E0,0E0,0E0,1.9905896E0,0E0,7.35374E-1,1.5922458E0,0E0,0E0,1.6015631E0,0E0,0E0,2.9565692E-3,5.79339E-1,0E0,0E0,0E0,0E0,0E0,0E0,0E0,0E0,0E0,0E0,0E0,0E0,0E0,0E0],"parents":[2147483647,0,0,1,1,2,2,3,3,4,4,5,5,6,6,7,7,9,9,10,10,11,11,12,12,13,13,14,14,15,15,16,16,17,17,18,18,22,22,26,26,28,28,29,29,32,32,35,35,36,36],"right_children":[2,4,6,8,10,12,14,16,-1,18,20,22,24,26,28,30,32,34,36,-1,-1,-1,38,-1,-1,-1,40,-1,42,44,-1,-1,46,-1,-1,48,50,-1,-1,-1,-1,-1,-1,-1,-1,-1,-1,-1,-1,-1,-1],"split_conditions":[4.2E1,4.0703517E-1,6E2,3.919598E-1,8.894472E-1,4.7E1,4.8E1,1.959799E-1,2.8803098E-1,2.2E1,2.1E1,4.5E1,8.5427135E-2,3.115578E-1,3.6683416E-1,1.5075377E-1,2.2613065E-1,2.1E1,4.6733668E-1,-4.5907427E-2,6.693835E-2,2.0975508E-1,4.6E1,7.347239E-2,2.8361115E-1,3.2518217E-1,5.1758796E-1,9.7327694E-2,5.2E1,1.10552765E-1,2.3296878E-1,-3.1132984E-1,3.0653265E-1,-1.7799906E-1,9.8621674E-2,4.4221106E-1,3.1E1,-1.1024391E-1,8.711009E-2,-8.1735E-2,2.3344998E-1,-2.0960493E-1,4.4572227E-2,7.66727E-2,-1.6522335E-1,1.1611062E-1,-1.4997871E-1,-9.82546E-2,-2.845317E-2,-3.2471204E-1,-1.6733925E-1],"split_indices":[2,4,1,4,4,2,2,4,0,2,2,2,4,4,4,4,4,2,4,0,0,0,2,0,0,0,4,0,2,4,0,0,4,0,0,4,2,0,0,0,0,0,0,0,0,0,0,0,0,0,0],"split_type":[0,0,0,0,0,0,0,0,0,0,0,0,0,0,0,0,0,0,0,0,0,0,0,0,0,0,0,0,0,0,0,0,0,0,0,0,0,0,0,0,0,0,0,0,0,0,0,0,0,0,0],"sum_hessian":[7.3728645E1,4.736805E1,2.6360596E1,2.227108E1,2.5096972E1,1.3839003E1,1.2521594E1,2.1047783E1,1.2232957E0,2.2625677E1,2.4712944E0,5.6568127E0,8.18219E0,7.5613174E0,4.9602766E0,1.3367365E1,7.6804194E0,3.4381895E0,1.9187489E1,1.2308712E0,1.2404232E0,2.6707892E0,2.9860234E0,1.4741182E0,6.7080717E0,1.4710722E0,6.0902452E0,2.2271976E0,2.733079E0,1.1432297E1,1.9350674E0,1.467894E0,6.2125254E0,2.2091267E0,1.2290627E0,2.4576817E0,1.6729807E1,1.4988873E0,1.4871362E0,2.2166073E0,3.8736377E0,1.4886255E0,1.2444534E0,9.198416E0,2.2338812E0,3.4795973E0,2.732928E0,1.2245733E0,1.2331084E0,8.338011E0,8.391795E0],"tree_param":{"num_deleted":"0","num_feature":"8","num_nodes":"51","size_leaf_vector":"1"}},{"base_weights":[1.2614564E-2,-2.5425953E-1,4.2223197E-1,1.91558E-2,-5.0262654E-1,5.456399E-1,1.9603464E-1,1.5838708E-1,-2.615159E-1,-5.99125E-1,-2.1806484E-1,6.842564E-1,2.1317488E-1,-2.4983297E-1,4.6358827E-1,-9.2973895E-2,5.265763E-1,-6.809238E-1,-7.229022E-2,2.4475133E-1,-5.461559E-1,3.6299887E-1,4.2023566E-1,-1.8079421E-1,5.4778284E-1,-1.864424E-1,5.7541452E-2,1.4822301E-1,5.9530914E-1,4.146632E-1,-3.919536E-1,8.787281E-1,-7.7689946E-2,-8.130798E-2,-7.311039E-1,-1.284699E-1,9.192998E-2,-2.9725817E-1,-2.1119623E-1,-1.0626189E-1,6.2593466E-1,4.573666E-2,2.2751318E-1,1.0079118E-1,-8.4393844E-2,1.3577716E-1,-5.552788E-2,2.6765272E-1,2.5311556E-1,2.5886086E-1,-1.7710632E-2,-1.8299797E-1,1.5693676E-1,3.1120265E-1,1.011312E-1,-6.836277E-2,2.2485333E-2,-7.1509704E-2,-2.3272398E-1,-4.991048E-3,-1.1750653E-1,2.5219512E-1,4.044503E-2,1.3006625E-1,3.0473657E-3],"categories":[],"categories_nodes":[],"categories_segments":[],"categories_sizes":[],"default_left":[0,0,0,0,0,0,0,0,0,0,0,0,0,0,0,0,0,0,0,0,0,0,0,0,0,0,0,0,0,0,0,0,0,0,0,0,0,0,0,0,0,0,0,0,0,0,0,0,0,0,0,0,0,0,0,0,0,0,0,0,0,0,0,0,0],"id":2,"left_children":[1,3,5,7,9,11,13,15,-1,17,19,21,23,25,27,29,31,33,35,-1,37,-1,39,-1,41,-1,43,45,47,49,51,53,55,-1,57,-1,-1,-1,59,-1,61,-1,-1,-1,-1,-1,-1,-1,63,-1,-1,-1,-1,-1,-1,-1,-1,-1,-1,-1,-1,-1,-1,-1,-1],"loss_changes":[8.061738E0,3.043964E0,7.0482874E-1,2.8957372E0,5.1330996E-1,6.954255E-1,1.5266125E0,1.9067513E0,0E0,6.8079853E-1,2.9933805E0,1.2170196E0,2.1929753E0,6.166351E-1,2.3333406E-1,2.1021075E0,1.83324E0,1.01014614E-1,5.88948E-1,0E0,7.2925997E-1,0E0,1.784044E0,0E0,3.3088326E-1,0E0,4.4344482E-1,4.5023724E-1,2.9520833E-1,1.1598047E0,2.0263617E0,1.0747957E-1,1.0815227E-1,0E0,8.717394E-2,0E0,0E0,0E0,1.6431162E-1,0E0,7.4192643E-1,0E0,0E0,0E0,0E0,0E0,0E0,0E0,1.6124901E-1,0E0,0E0,0E0,0E0,0E0,0E0,0E0,0E0,0E0,0E0,0E0,0E0,0E0,0E0,0E0,0E0],"parents":[2147483647,0,0,1,1,2,2,3,3,4,4,5,5,6,6,7,7,9,9,10,10,11,11,12,12,13,13,14,14,15,15,16,16,17,17,18,18,20,20,22,22,24,24,26,26,27,27,28,28,29,29,30,30,31,31,32,32,34,34,38,38,40,40,48,48],"right_children":[2,4,6,8,10,12,14,16,-1,18,20,22,24,26,28,30,32,34,36,-1,38,-1,40,-1,42,-1,44,46,48,50,52,54,56,-1,58,-1,-1,-1,60,-1,62,-1,-1,-1,-1,-1,-1,-1,64,-1,-1,-1,-1,-1,-1,-1,-1,-1,-1,-1,-1,-1,-1,-1,-1],"split_conditions":[4.1E1,4.2211056E-1,4.2713568E-1,3.9E1,7.889447E-1,5.1E1,5.929648E-1,3.2E1,-2.615159E-1,6E2,7.9899496E-1,1.0552764E-1,8.5427135E-2,6E2,7.085427E-1,1E1,3.0653265E-1,2.2E1,3.3E1,2.4475133E-1,8.5427135E-1,3.6299887E-1,1.4572865E-1,-1.8079421E-1,5.4E1,-1.864424E-1,4.924623E-1,4.4E1,6E2,3.0150754E-2,3.2663316E-1,3.6E1,3.7688443E-1,-8.130798E-2,4.6733668E-1,-1.284699E-1,9.192998E-2,-2.9725817E-1,9.296482E-1,-1.0626189E-1,3.1658292E-1,4.573666E-2,2.2751318E-1,1.0079118E-1,-8.4393844E-2,1.3577716E-1,-5.552788E-2,2.6765272E-1,4.6E1,2.5886086E-1,-1.7710632E-2,-1.8299797E-1,1.5693676E-1,3.1120265E-1,1.011312E-1,-6.836277E-2,2.2485333E-2,-7.1509704E-2,-2.3272398E-1,-4.991048E-3,-1.1750653E-1,2.5219512E-1,4.044503E-2,1.3006625E-1,3.0473657E-3],"split_indices":[2,4,4,2,4,2,4,2,0,1,4,4,4,1,4,2,4,2,2,0,4,0,4,0,2,0,4,2,1,4,4,2,4,0,4,0,0,0,4,0,4,0,0,0,0,0,0,0,2,0,0,0,0,0,0,0,0,0,0,0,0,0,0,0,0],"split_type":[0,0,0,0,0,0,0,0,0,0,0,0,0,0,0,0,0,0,0,0,0,0,0,0,0,0,0,0,0,0,0,0,0,0,0,0,0,0,0,0,0,0,0,0,0,0,0,0,0,0,0,0,0,0,0,0,0,0,0,0,0,0,0,0,0],"sum_hessian":[7.176485E1,4.368346E1,2.8081388E1,2.1232498E1,2.2450962E1,1.7255156E1,1.0826234E1,1.9073751E1,2.1587472E0,1.5940057E1,6.5109053E0,1.1431024E1,5.824131E0,4.08499E0,6.7412434E0,1.1779456E1,7.2942944E0,1.3544582E1,2.395475E0,1.2103018E0,5.3006034E0,2.623645E0,8.807379E0,1.460985E0,4.3631463E0,1.3865962E0,2.698394E0,2.6122625E0,4.128981E0,4.222742E0,7.556714E0,4.3215766E0,2.9727178E0,2.1754494E0,1.1369133E1,1.1674868E0,1.2279881E0,1.435987E0,3.8646164E0,1.6968597E0,7.110519E0,2.1156268E0,2.2475195E0,1.4859397E0,1.2124543E0,1.1783812E0,1.4338813E0,1.3503089E0,2.778672E0,1.7476165E0,2.4751253E0,6.3718567E0,1.1848572E0,2.6347497E0,1.6868271E0,1.2499677E0,1.7227502E0,1.4711292E0,9.898004E0,2.3854375E0,1.479179E0,4.452283E0,2.658236E0,1.1443259E0,1.6343462E0],"tree_param":{"num_deleted":"0","num_feature":"8","num_nodes":"65","size_leaf_vector":"1"}},{"base_weights":[1.958534E-2,-1.799628E-1,3.7887532E-1,6.73065E-2,-4.1915938E-1,2.961816E-1,6.6672105E-1,-3.5219768E-4,1.5350886E-1,-4.7909412E-1,7.0808984E-2,3.914738E-1,-1.729488E-1,2.5108454E-1,3.6333393E-2,1.6022424E-1,-2.666244E-1,-1.6514714E-1,-5.282138E-1,-2.2832561E-2,5.5481452E-2,9.5316514E-2,4.8344794E-1,-1.3558748E-1,3.686403E-2,-6.1079603E-2,3.8185683E-1,-2.6430473E-1,-2.7960537E-2,-1.289253E-1,8.198594E-2,-5.5764693E-1,-3.1672526E-2,3.6505505E-1,-1.4914206E-1,6.343137E-1,2.3897688E-1,1.1182793E-1,-1.5894559E-1,1.9855398E-1,-9.373273E-3,-1.8062904E-1,5.877288E-2,-1.3806288E-1,-2.820133E-1,2.5723642E-1,-5.126333E-2,2.3946275E-1,-6.566351E-2,-1.3756668E-2,2.5002685E-1],"categories":[],"categories_nodes":[],"categories_segments":[],"categories_sizes":[],"default_left":[0,0,0,0,0,0,0,0,0,0,0,0,0,0,0,0,0,0,0,0,0,0,0,0,0,0,0,0,0,0,0,0,0,0,0,0,0,0,0,0,0,0,0,0,0,0,0,0,0,0,0],"id":3,"left_children":[1,3,5,7,9,11,13,15,-1,17,19,21,23,-1,-1,25,27,29,31,-1,-1,33,35,-1,-1,37,39,-1,41,-1,-1,43,-1,45,-1,47,49,-1,-1,-1,-1,-1,-1,-1,-1,-1,-1,-1,-1,-1,-1],"loss_changes":[5.149639E0,2.763441E0,4.12601E-1,7.097762E-1,7.282796E-1,1.0382137E0,3.556459E-1,9.6120524E-1,0E0,2.3963642E-1,7.18952E-2,4.5376873E-1,4.153093E-1,0E0,0E0,7.1122396E-1,1.2153695E0,6.1891025E-1,1.6347075E-1,0E0,0E0,1.0754611E0,3.5578752E-1,0E0,0E0,1.7999123E0,8.47121E-1,0E0,1.0335361E0,0E0,0E0,1.8129873E-1,0E0,1.3130727E0,0E0,1.2797346E0,1.1987486E0,0E0,0E0,0E0,0E0,0E0,0E0,0E0,0E0,0E0,0E0,0E0,0E0,0E0,0E0],"parents":[2147483647,0,0,1,1,2,2,3,3,4,4,5,5,6,6,7,7,9,9,10,10,11,11,12,12,15,15,16,16,17,17,18,18,21,21,22,22,25,25,26,26,28,28,31,31,33,33,35,35,36,36],"right_children":[2,4,6,8,10,12,14,16,-1,18,20,22,24,-1,-1,26,28,30,32,-1,-1,34,36,-1,-1,38,40,-1,42,-1,-1,44,-1,46,-1,48,50,-1,-1,-1,-1,-1,-1,-1,-1,-1,-1,-1,-1,-1,-1],"split_conditions":[4.2E1,4.2211056E-1,6.683417E-1,3.919598E-1,8.894472E-1,4.924623E-1,8.994975E-1,1.959799E-1,1.5350886E-1,2.2E1,2.1E1,1.1557789E-1,5.929648E-1,2.5108454E-1,3.6333393E-2,2.2E1,2.2613065E-1,2.1E1,8.3919597E-1,-2.2832561E-2,5.5481452E-2,1.0050251E-1,3.4170854E-1,-1.3558748E-1,3.686403E-2,1E1,3.6E1,-2.6430473E-1,2.8E1,-1.289253E-1,8.198594E-2,7.9396987E-1,-3.1672526E-2,5.1E1,-1.4914206E-1,5.3E1,5.4E1,1.1182793E-1,-1.5894559E-1,1.9855398E-1,-9.373273E-3,-1.8062904E-1,5.877288E-2,-1.3806288E-1,-2.820133E-1,2.5723642E-1,-5.126333E-2,2.3946275E-1,-6.566351E-2,-1.3756668E-2,2.5002685E-1],"split_indices":[2,4,4,4,4,4,4,4,0,2,2,4,4,0,0,2,4,2,4,0,0,4,4,0,0,2,2,0,2,0,0,4,0,2,0,2,2,0,0,0,0,0,0,0,0,0,0,0,0,0,0],"split_type":[0,0,0,0,0,0,0,0,0,0,0,0,0,0,0,0,0,0,0,0,0,0,0,0,0,0,0,0,0,0,0,0,0,0,0,0,0,0,0,0,0,0,0,0,0,0,0,0,0,0,0],"sum_hessian":[6.987538E1,4.5245396E1,2.4629984E1,2.2600628E1,2.2644766E1,2.0709435E1,3.9205496E0,2.0481508E1,2.1191196E0,2.0196455E1,2.448311E0,1.7350618E1,3.358816E0,2.5812452E0,1.3393043E0,1.3025002E1,7.4565067E0,3.3225572E0,1.68739E1,1.2160443E0,1.2322667E0,4.594059E0,1.2756559E1,1.4569407E0,1.9018753E0,6.8798084E0,6.1451926E0,1.3331454E0,6.123361E0,2.0843887E0,1.2381684E0,1.5476643E1,1.3972558E0,3.420551E0,1.1735082E0,6.9023848E0,5.8541746E0,3.6792524E0,3.2005558E0,3.3038096E0,2.841383E0,1.2438633E0,4.8794975E0,1.4089924E1,1.3867191E0,1.4700146E0,1.9505364E0,5.8441806E0,1.0582042E0,4.58169E0,1.2724849E0],"tree_param":{"num_deleted":"0","num_feature":"8","num_nodes":"51","size_leaf_vector":"1"}},{"base_weights":[1.6432859E-2,-1.4292894E-1,3.057787E-1,5.9533395E-2,-3.249059E-1,2.2861119E-1,6.517574E-1,-1.2057626E-2,2.2790436E-1,-3.7140778E-1,5.9164245E-2,3.2579672E-1,-1.4888379E-1,3.3757016E-2,2.679542E-1,6.8990335E-2,-1.22033834E-1,-2.9124674E-1,-2.8455862E-1,-1.9111974E-2,4.6370063E-2,2.5148025E-1,2.244432E-1,-1.1129943E-1,4.1688345E-2,-1.00926526E-1,2.894781E-1,-3.4809014E-1,8.318502E-2,-1.1354085E-1,2.987914E-1,8.451226E-2,-1.1009684E-1,2.0699431E-1,-7.5112045E-2,-1.2236296E-2,-1.5386924E-1,1.8454367E-1,4.583411E-2],"categories":[],"categories_nodes":[],"categories_segments":[],"categories_sizes":[],"default_left":[0,0,0,0,0,0,0,0,0,0,0,0,0,0,0,0,0,0,0,0,0,0,0,0,0,0,0,0,0,0,0,0,0,0,0,0,0,0,0],"id":4,"left_children":[1,3,5,7,9,11,13,15,-1,17,19,21,23,-1,-1,25,-1,27,-1,-1,-1,-1,29,-1,-1,31,33,35,-1,-1,37,-1,-1,-1,-1,-1,-1,-1,-1],"loss_changes":[3.2160082E0,1.6789606E0,5.1185083E-1,1.1202923E0,4.4842649E-1,8.475039E-1,4.1681373E-1,7.029393E-1,0E0,7.154379E-1,5.018737E-2,7.277503E-1,3.805167E-1,0E0,0E0,7.169486E-1,0E0,7.514262E-1,0E0,0E0,0E0,0E0,8.3421266E-1,0E0,0E0,1.2343166E0,1.9560766E0,9.345796E-1,0E0,0E0,5.933552E-1,0E0,0E0,0E0,0E0,0E0,0E0,0E0,0E0],"parents":[2147483647,0,0,1,1,2,2,3,3,4,4,5,5,6,6,7,7,9,9,10,10,11,11,12,12,15,15,17,17,22,22,25,25,26,26,27,27,30,30],"right_children":[2,4,6,8,10,12,14,16,-1,18,20,22,24,-1,-1,26,-1,28,-1,-1,-1,-1,30,-1,-1,32,34,36,-1,-1,38,-1,-1,-1,-1,-1,-1,-1,-1],"split_conditions":[4.2E1,4.0703517E-1,5.4E1,3.919598E-1,8.894472E-1,5.1E1,2.6633167E-1,3.0653265E-1,2.2790436E-1,4E1,2.1E1,1.0552764E-1,1.557789E-1,3.3757016E-2,2.679542E-1,3.2E1,-1.22033834E-1,3.9E1,-2.8455862E-1,-1.9111974E-2,4.6370063E-2,2.5148025E-1,1.4572865E-1,-1.1129943E-1,4.1688345E-2,1E1,3.9E1,5.477387E-1,8.318502E-2,-1.1354085E-1,3.1658292E-1,8.451226E-2,-1.1009684E-1,2.0699431E-1,-7.5112045E-2,-1.2236296E-2,-1.5386924E-1,1.8454367E-1,4.583411E-2],"split_indices":[2,4,2,4,4,2,4,4,0,2,2,4,4,0,0,2,0,2,0,0,0,0,4,0,0,2,2,4,0,0,4,0,0,0,0,0,0,0,0],"split_type":[0,0,0,0,0,0,0,0,0,0,0,0,0,0,0,0,0,0,0,0,0,0,0,0,0,0,0,0,0,0,0,0,0,0,0,0,0,0,0],"sum_hessian":[6.779759E1,4.404509E1,2.37525E1,2.1167543E1,2.2877548E1,2.077875E1,2.973752E0,2.0095528E1,1.0720154E0,2.0436176E1,2.4413724E0,1.6633444E1,4.145305E0,1.3730476E0,1.6007044E0,1.735687E1,2.7386568E0,1.9264963E1,1.1712133E0,1.2122837E0,1.2290885E0,1.5459541E0,1.508749E1,2.1767464E0,1.9685587E0,1.0108843E1,7.2480283E0,1.7866364E1,1.3985981E0,1.2072251E0,1.3880265E1,4.122023E0,5.98682E0,4.0013957E0,3.2466326E0,6.672392E0,1.1193973E1,3.3686302E0,1.0511635E1],"tree_param":{"num_deleted":"0","num_feature":"8","num_nodes":"39","size_leaf_vector":"1"}},{"base_weights":[1.9731995E-2,-1.23377055E-1,2.4183892E-1,1.1821597E-1,-1.4818704E-1,3.6290172E-1,8.739805E-2,-1.4945456E-1,-1.10854596E-1,4.9149045E-1,-7.660407E-2,2.8967762E-1,-2.2934256E-1,1.7270026E-1,-1.8873852E-1,2.6320457E-1,2.6252154E-1,-1.7762053E-1,2.1279655E-1,5.9731133E-2,2.0064688E-1,-4.270772E-1,3.20644E-2,3.2412782E-1,-1.275733E-1,-3.138529E-1,-5.2823126E-2,2.0977579E-1,-8.808273E-2,-1.9009426E-1,1.6281885E-1,-4.1378304E-2,-1.5086213E-1,-3.0365326E-3,1.7659664E-2,1.2314873E-2,2.6876792E-1,-6.4426765E-2,-2.551701E-1,8.536324E-2,-6.955856E-2,-1.1516868E-1,5.8484167E-2,1.3828717E-1,-1.5713708E-1],"categories":[],"categories_nodes":[],"categories_segments":[],"categories_sizes":[],"default_left":[0,0,0,0,0,0,0,0,0,0,0,0,0,0,0,0,0,0,0,0,0,0,0,0,0,0,0,0,0,0,0,0,0,0,0,0,0,0,0,0,0,0,0,0,0],"id":5,"left_children":[1,3,5,-1,7,9,11,-1,13,15,17,19,21,23,25,27,-1,-1,-1,29,-1,31,33,35,-1,37,39,-1,41,43,-1,-1,-1,-1,-1,-1,-1,-1,-1,-1,-1,-1,-1,-1,-1],"loss_changes":[2.1578083E0,5.895639E-1,4.6508574E-1,0E0,4.7016734E-1,8.6152995E-1,8.9891374E-1,0E0,8.634256E-1,7.690749E-1,2.107233E0,6.898786E-1,3.0429184E-1,9.191325E-1,4.9343312E-1,1.3766332E0,0E0,0E0,0E0,8.6444044E-1,0E0,2.3214817E-3,4.384991E-3,1.1694658E0,0E0,6.3716245E-1,1.0069033E0,0E0,5.472732E-1,1.3057202E0,0E0,0E0,0E0,0E0,0E0,0E0,0E0,0E0,0E0,0E0,0E0,0E0,0E0,0E0,0E0],"parents":[2147483647,0,0,1,1,2,2,4,4,5,5,6,6,8,8,9,9,10,10,11,11,12,12,13,13,14,14,15,15,19,19,21,21,22,22,23,23,25,25,26,26,28,28,29,29],"right_children":[2,4,6,-1,8,10,12,-1,14,16,18,20,22,24,26,28,-1,-1,-1,30,-1,32,34,36,-1,38,40,-1,42,44,-1,-1,-1,-1,-1,-1,-1,-1,-1,-1,-1,-1,-1,-1,-1],"split_conditions":[4.1E1,2E2,6E2,1.1821597E-1,3.517588E-2,4.3718594E-1,4.8E1,-1.4945456E-1,1.959799E-1,2.6633167E-1,7.085427E-1,4.6E1,5.2E1,3.8E1,3.1E1,1.0050251E-1,2.6252154E-1,-1.7762053E-1,2.1279655E-1,6.281407E-1,2.0064688E-1,3.919598E-1,3.6683416E-1,1.5075377E-1,-1.275733E-1,3E1,3.5E1,2.0977579E-1,4.7E1,3.115578E-1,1.6281885E-1,-4.1378304E-2,-1.5086213E-1,-3.0365326E-3,1.7659664E-2,1.2314873E-2,2.6876792E-1,-6.4426765E-2,-2.551701E-1,8.536324E-2,-6.955856E-2,-1.1516868E-1,5.8484167E-2,1.3828717E-1,-1.5713708E-1],"split_indices":[2,1,1,0,4,4,2,0,4,4,4,2,2,2,2,4,0,0,0,4,0,4,4,4,0,2,2,0,2,4,0,0,0,0,0,0,0,0,0,0,0,0,0,0,0],"split_type":[0,0,0,0,0,0,0,0,0,0,0,0,0,0,0,0,0,0,0,0,0,0,0,0,0,0,0,0,0,0,0,0,0,0,0,0,0,0,0,0,0,0,0,0,0],"sum_hessian":[6.594783E1,4.0376656E1,2.5571177E1,1.1664593E0,3.9210197E1,1.3577945E1,1.1993231E1,2.5894465E0,3.662075E1,1.0413057E1,3.1648881E0,7.371209E0,4.6220217E0,7.62882E0,2.899193E1,7.5850444E0,2.8280127E0,2.0602775E0,1.1046107E0,5.3089466E0,2.0622628E0,2.2706687E0,2.3513532E0,6.4526396E0,1.1761806E0,1.4414111E1,1.457782E1,2.9422843E0,4.64276E0,3.8987772E0,1.4101694E0,1.057233E0,1.2134356E0,1.1552604E0,1.1960927E0,5.0327454E0,1.419894E0,1.3349447E1,1.0646646E0,4.849845E0,9.727974E0,2.0958617E0,2.5468984E0,1.1919249E0,2.7068524E0],"tree_param":{"num_deleted":"0","num_feature":"8","num_nodes":"45","size_leaf_vector":"1"}},{"base_weights":[2.2249369E-2,-9.192578E-2,2.0307814E-1,2.5147293E-2,-1.9347055E-1,1.5183751E-1,1.7697218E-1,-4.8110224E-2,2.1045741E-1,-5.078546E-1,-1.0308132E-1,4.7489008E-1,7.703809E-2,5.1636826E-2,-2.0861939E-1,8.5501615E-3,-2.3809521E-1,-2.6149854E-1,3.336105E-1,2.6097113E-1,-5.531851E-2,-2.8105912E-1,1.4479198E-1,-9.062504E-2,2.9143527E-1,3.5898772E-1,-4.13511E-1,-7.01647E-2,5.2535594E-1,-2.2460984E-2,-1.16338074E-1,-9.442388E-2,1.9956128E-1,1.172957E-2,-1.7875125E-1,1.6857772E-1,-6.8993725E-2,-9.87102E-2,2.557071E-1,-5.0980125E-2,-2.5552964E-1,2.4724635E-1,-2.3391275E-2,1.5706496E-1,3.661625E-2],"categories":[],"categories_nodes":[],"categories_segments":[],"categories_sizes":[],"default_left":[0,0,0,0,0,0,0,0,0,0,0,0,0,0,0,0,0,0,0,0,0,0,0,0,0,0,0,0,0,0,0,0,0,0,0,0,0,0,0,0,0,0,0,0,0],"id":6,"left_children":[1,3,5,7,9,11,-1,13,-1,15,17,19,21,23,-1,-1,-1,25,27,-1,-1,29,31,33,35,37,39,-1,41,-1,-1,-1,43,-1,-1,-1,-1,-1,-1,-1,-1,-1,-1,-1,-1],"loss_changes":[1.3713918E0,4.9049506E-1,4.1923523E-1,1.0177655E0,5.725588E-1,5.436836E-1,0E0,1.2532328E0,0E0,7.3633707E-1,1.3556232E0,1.2857401E0,5.4274595E-1,6.1548215E-1,0E0,0E0,0E0,1.470326E0,7.017716E-1,0E0,0E0,5.090213E-2,5.1736236E-1,7.8358597E-1,1.0695114E0,1.3982888E0,1.1065145E0,0E0,8.366487E-1,0E0,0E0,0E0,3.5668916E-1,0E0,0E0,0E0,0E0,0E0,0E0,0E0,0E0,0E0,0E0,0E0,0E0],"parents":[2147483647,0,0,1,1,2,2,3,3,4,4,5,5,7,7,9,9,10,10,11,11,12,12,13,13,17,17,18,18,21,21,22,22,23,23,24,24,25,25,26,26,28,28,32,32],"right_children":[2,4,6,8,10,12,-1,14,-1,16,18,20,22,24,-1,-1,-1,26,28,-1,-1,30,32,34,36,38,40,-1,42,-1,-1,-1,44,-1,-1,-1,-1,-1,-1,-1,-1,-1,-1,-1,-1],"split_conditions":[4.1E1,4.0703517E-1,5.5E1,3.919598E-1,4.8241207E-1,1.0552764E-1,1.7697218E-1,3.9E1,2.1045741E-1,3.4E1,3.4E1,5.1E1,1.557789E-1,3.2E1,-2.0861939E-1,8.5501615E-3,-2.3809521E-1,5.3266335E-1,5.5778897E-1,2.6097113E-1,-5.531851E-2,1.2060302E-1,4.2E1,2.4623115E-1,3.0653265E-1,5.0753766E-1,2.9E1,-7.01647E-2,7.9396987E-1,-2.2460984E-2,-1.16338074E-1,-9.442388E-2,2.1105528E-1,1.172957E-2,-1.7875125E-1,1.6857772E-1,-6.8993725E-2,-9.87102E-2,2.557071E-1,-5.0980125E-2,-2.5552964E-1,2.4724635E-1,-2.3391275E-2,1.5706496E-1,3.661625E-2],"split_indices":[2,4,2,4,4,4,0,2,0,2,2,2,4,2,0,0,0,4,4,0,0,4,2,4,4,4,2,0,4,0,0,0,4,0,0,0,0,0,0,0,0,0,0,0,0],"split_type":[0,0,0,0,0,0,0,0,0,0,0,0,0,0,0,0,0,0,0,0,0,0,0,0,0,0,0,0,0,0,0,0,0,0,0,0,0,0,0,0,0,0,0,0,0],"sum_hessian":[6.451942E1,3.9849876E1,2.466954E1,1.8859138E1,2.0990738E1,2.3013603E1,1.6559372E0,1.785424E1,1.0048978E0,3.65605E0,1.7334688E1,3.3211184E0,1.9692484E1,1.6267626E1,1.5866158E0,1.5838696E0,2.0721803E0,1.30146055E1,4.3200817E0,1.877025E0,1.4440935E0,2.6322277E0,1.7060257E1,1.0600747E1,5.6668787E0,2.2930872E0,1.07215185E1,1.0355366E0,3.284545E0,1.4781681E0,1.1540594E0,1.3112808E0,1.5748976E1,9.169023E0,1.4317242E0,3.6800895E0,1.9867892E0,1.096736E0,1.1963513E0,7.7833595E0,2.938159E0,1.9518646E0,1.3326803E0,1.9293231E0,1.3819653E1],"tree_param":{"num_deleted":"0","num_feature":"8","num_nodes":"45","size_leaf_vector":"1"}},{"base_weights":[1.6885517E-2,-7.471724E-2,1.6166888E-1,9.957423E-2,-9.5126756E-2,3.9099485E-1,8.6974226E-2,-1.259235E-1,-6.036101E-2,2.4989477E-1,1.01462215E-1,-1.7594056E-1,1.975127E-1,1.06832996E-1,-9.77003E-2,-1.198663E-1,1.422829E-1,-3.373212E-1,9.635384E-2,-6.954796E-2,2.8260338E-1,-1.837588E-1,-5.9766576E-2,2.5211504E-2,-1.9271325E-1,4.4726822E-1,3.7239347E-2,1.0504468E-1,-2.9676009E-2,-2.8670866E-2,3.6216985E-2,5.6154154E-2,2.0278051E-1,1.19189225E-1,-4.5066386E-2],"categories":[],"categories_nodes":[],"categories_segments":[],"categories_sizes":[],"default_left":[0,0,0,0,0,0,0,0,0,0,0,0,0,0,0,0,0,0,0,0,0,0,0,0,0,0,0,0,0,0,0,0,0,0,0],"id":7,"left_children":[1,3,5,-1,7,9,11,-1,13,-1,15,17,19,-1,21,-1,-1,23,-1,-1,25,-1,27,29,-1,31,33,-1,-1,-1,-1,-1,-1,-1,-1],"loss_changes":[8.5846215E-1,3.6164165E-1,3.9502037E-1,0E0,4.1082633E-1,6.6634774E-1,6.211876E-1,0E0,5.958161E-1,0E0,1.0643812E0,6.29933E-1,6.017105E-1,0E0,6.2530684E-1,0E0,0E0,6.1294985E-1,0E0,0E0,4.96462E-1,0E0,5.590656E-1,5.108212E-2,0E0,3.2006276E-1,4.7755983E-1,0E0,0E0,0E0,0E0,0E0,0E0,0E0,0E0],"parents":[2147483647,0,0,1,1,2,2,4,4,5,5,6,6,8,8,10,10,11,11,12,12,14,14,17,17,20,20,22,22,23,23,25,25,26,26],"right_children":[2,4,6,-1,8,10,12,-1,14,-1,16,18,20,-1,22,-1,-1,24,-1,-1,26,-1,28,30,-1,32,34,-1,-1,-1,-1,-1,-1,-1,-1],"split_conditions":[4.1E1,2E2,4.3E1,9.957423E-2,3.517588E-2,1.2060302E-1,4.6E1,-1.259235E-1,8.040201E-2,2.4989477E-1,4.2E1,6.281407E-1,8.5427135E-2,1.06832996E-1,9.547739E-2,-1.198663E-1,1.422829E-1,4.2713568E-1,9.635384E-2,-6.954796E-2,6E2,-1.837588E-1,1.4070351E-1,2.3115578E-1,-1.9271325E-1,2.6633167E-1,4.8E1,1.0504468E-1,-2.9676009E-2,-2.8670866E-2,3.6216985E-2,5.6154154E-2,2.0278051E-1,1.19189225E-1,-4.5066386E-2],"split_indices":[2,1,2,0,4,4,2,0,4,0,2,4,4,0,4,0,0,4,0,0,3,0,4,4,0,4,2,0,0,0,0,0,0,0,0],"split_type":[0,0,0,0,0,0,0,0,0,0,0,0,0,0,0,0,0,0,0,0,0,0,0,0,0,0,0,0,0,0,0,0,0,0,0],"sum_hessian":[6.2817467E1,3.877127E1,2.4046196E1,1.1235421E0,3.7647728E1,4.8675065E0,1.9178688E1,2.5707102E0,3.507702E1,1.1836334E0,3.6838732E0,5.501575E0,1.3677114E1,2.1836886E0,3.289333E1,1.5410992E0,2.1427739E0,4.395959E0,1.105616E0,1.9770604E0,1.1700053E1,1.2178301E0,3.16755E1,2.4279304E0,1.9680285E0,6.5089765E0,5.1910768E0,2.0691915E0,2.960631E1,1.0718718E0,1.3560586E0,3.8960955E0,2.612881E0,1.3940817E0,3.7969952E0],"tree_param":{"num_deleted":"0","num_feature":"8","num_nodes":"35","size_leaf_vector":"1"}},{"base_weights":[1.9540206E-2,-2.86829E-4,1.4848994E-1,2.674708E-1,-3.3038273E-2,-8.192851E-2,2.879845E-1,-5.5877167E-1,8.112137E-3,1.3236684E-1,-3.5912833E-1,-5.9396263E-2,-2.0557715E-1,2.161877E-1,-2.8273901E-2,-2.0424493E-1,3.7870765E-2,-1.4300773E-1,3.951193E-2,2.5093025E-2,-8.486647E-2,-1.5093292E-2,1.1592117E-1],"categories":[],"categories_nodes":[],"categories_segments":[],"categories_sizes":[],"default_left":[0,0,0,0,0,0,0,0,0,0,0,0,0,0,0,0,0,0,0,0,0,0,0],"id":8,"left_children":[1,3,-1,5,7,9,-1,11,13,-1,15,-1,-1,-1,17,-1,-1,19,21,-1,-1,-1,-1],"loss_changes":[5.9253544E-1,5.466521E-1,0E0,1.7224386E0,1.2059718E0,9.468996E-1,0E0,4.894352E-2,1.3811759E0,0E0,7.269004E-1,0E0,0E0,0E0,4.0152302E-1,0E0,0E0,6.2985975E-1,1.0408378E0,0E0,0E0,0E0,0E0],"parents":[2147483647,0,0,1,1,3,3,4,4,5,5,7,7,8,8,10,10,14,14,17,17,18,18],"right_children":[2,4,-1,6,8,10,-1,12,14,-1,16,-1,-1,-1,18,-1,-1,20,22,-1,-1,-1,-1],"split_conditions":[5.5E1,5.0251257E-2,1.4848994E-1,3.517588E-2,9.045226E-2,4E0,2.879845E-1,2.4E1,1.0552764E-1,1.3236684E-1,2.2E1,-5.9396263E-2,-2.0557715E-1,2.161877E-1,3.3E1,-2.0424493E-1,3.7870765E-2,2.2E1,6.683417E-1,2.5093025E-2,-8.486647E-2,-1.5093292E-2,1.1592117E-1],"split_indices":[2,4,0,4,4,2,0,2,4,0,2,0,0,0,2,0,0,2,4,0,0,0,0],"split_type":[0,0,0,0,0,0,0,0,0,0,0,0,0,0,0,0,0,0,0,0,0,0,0],"sum_hessian":[6.184481E1,6.0328293E1,1.5165167E0,5.793899E0,5.4534393E1,4.4368906E0,1.3570083E0,3.0455823E0,5.148881E1,1.3317685E0,3.1051223E0,1.4564725E0,1.5891097E0,1.5879757E0,4.9900837E1,1.6252514E0,1.4798708E0,1.81205E1,3.1780334E1,7.0688086E0,1.1051692E1,2.5922916E1,5.8574166E0],"tree_param":{"num_deleted":"0","num_feature":"8","num_nodes":"23","size_leaf_vector":"1"}},{"base_weights":[2.0571219E-2,4.347858E-3,1.3366471E-1,-1.2860037E-2,1.2688996E-1,2.3607403E-1,-4.278788E-2,-6.611877E-2,2.529329E-1,-4.5508653E-1,-8.972334E-3,9.695657E-2,-3.5427395E-1,-5.0853234E-2,-1.8559948E-1,1.6689357E-1,-3.5337437E-2,-2.1964337E-1,3.1378508E-2,-9.509872E-2,2.458924E-4],"categories":[],"categories_nodes":[],"categories_segments":[],"categories_sizes":[],"default_left":[0,0,0,0,0,0,0,0,0,0,0,0,0,0,0,0,0,0,0,0,0],"id":9,"left_children":[1,3,-1,5,-1,7,9,11,-1,13,15,-1,17,-1,-1,-1,19,-1,-1,-1,-1],"loss_changes":[4.256228E-1,4.4300842E-1,0E0,4.520066E-1,0E0,1.2516537E0,7.459521E-1,7.067902E-1,0E0,8.4679544E-2,7.758577E-1,0E0,6.85383E-1,0E0,0E0,0E0,5.035298E-1,0E0,0E0,0E0,0E0],"parents":[2147483647,0,0,1,1,3,3,5,5,6,6,7,7,9,9,10,10,12,12,16,16],"right_children":[2,4,-1,6,-1,8,10,12,-1,14,16,-1,18,-1,-1,-1,20,-1,-1,-1,-1],"split_conditions":[8E2,5.5E1,1.3366471E-1,5.0251257E-2,1.2688996E-1,3.517588E-2,9.045226E-2,1E1,2.529329E-1,8.040201E-2,1.0552764E-1,9.695657E-2,2.2E1,-5.0853234E-2,-1.8559948E-1,1.6689357E-1,1.557789E-1,-2.1964337E-1,3.1378508E-2,-9.509872E-2,2.458924E-4],"split_indices":[1,2,0,4,0,4,4,2,0,4,4,0,2,0,0,0,4,0,0,0,0],"split_type":[0,0,0,0,0,0,0,0,0,0,0,0,0,0,0,0,0,0,0,0,0],"sum_hessian":[6.1014023E1,5.9743565E1,1.2704563E0,5.83157E1,1.4278672E0,5.51928E0,5.279642E1,4.279801E0,1.2394792E0,3.0576673E0,4.973875E1,1.7686784E0,2.5111222E0,1.8551702E0,1.2024971E0,1.3207493E0,4.8418003E1,1.0505066E0,1.4606158E0,4.624745E0,4.379326E1],"tree_param":{"num_deleted":"0","num_feature":"8","num_nodes":"21","size_leaf_vector":"1"}},{"base_weights":[1.9020928E-2,9.219168E-2,-6.518503E-2,2.2533339E-2,5.884781E-1,-1.5012126E-1,-6.785579E-3,7.7975914E-2,-2.1804537E-1,2.6887953E-1,2.641979E-2,-1.7373046E-1,1.519227E-1,2.6707634E-2,1.3854127E-1,1.5184894E-1,-2.9321134E-1,-9.33049E-3,3.2356557E-1,-1.7880011E-2,1.2403077E-1,-1.2049443E-1,2.3646966E-1,-2.0981245E-3,-2.2474965E-1,4.3154356E-1,-2.5123987E-1,2.0792411E-1,-1.1251155E-1,1.2036416E-2,-1.9282092E-1,-4.9865093E-2,1.3563746E-1,1.5658724E-1,4.1139062E-2,-2.4924769E-1,5.6187637E-2,3.787773E-2,-1.0231337E-1],"categories":[],"categories_nodes":[],"categories_segments":[],"categories_sizes":[],"default_left":[0,0,0,0,0,0,0,0,0,0,0,0,0,0,0,0,0,0,0,0,0,0,0,0,0,0,0,0,0,0,0,0,0,0,0,0,0,0,0],"id":10,"left_children":[1,3,5,7,9,-1,11,13,-1,-1,-1,15,17,19,-1,21,23,25,27,29,-1,-1,-1,31,-1,33,35,-1,37,-1,-1,-1,-1,-1,-1,-1,-1,-1,-1],"loss_changes":[3.8520762E-1,1.1394556E0,7.387702E-1,1.3146719E0,5.4704905E-1,0E0,7.35393E-1,5.602393E-1,0E0,0E0,0E0,5.6998086E-1,3.9747113E-1,4.6829963E-1,0E0,1.8259573E0,1.3553203E0,9.957738E-1,1.1948807E0,9.291326E-1,0E0,0E0,0E0,6.1501193E-1,0E0,1.668644E-2,1.6817114E0,0E0,2.6349264E-1,0E0,0E0,0E0,0E0,0E0,0E0,0E0,0E0,0E0,0E0],"parents":[2147483647,0,0,1,1,2,2,3,3,4,4,6,6,7,7,11,11,12,12,13,13,15,15,16,16,17,17,18,18,19,19,23,23,25,25,26,26,28,28],"right_children":[2,4,6,8,10,-1,12,14,-1,-1,-1,16,18,20,-1,22,24,26,28,30,-1,-1,-1,32,-1,34,36,-1,38,-1,-1,-1,-1,-1,-1,-1,-1,-1,-1],"split_conditions":[4.2713568E-1,3.919598E-1,4.6231157E-1,3.8190955E-1,4.0703517E-1,-1.5012126E-1,3.4E1,6E2,-2.1804537E-1,2.6887953E-1,2.641979E-2,5.477387E-1,6.683417E-1,3.517588E-1,1.3854127E-1,2.7E1,2.8E1,4.924623E-1,6E2,3.1658292E-1,1.2403077E-1,-1.2049443E-1,2.3646966E-1,9.1457283E-1,-2.2474965E-1,6E2,6E2,2.0792411E-1,4.6E1,1.2036416E-2,-1.9282092E-1,-4.9865093E-2,1.3563746E-1,1.5658724E-1,4.1139062E-2,-2.4924769E-1,5.6187637E-2,3.787773E-2,-1.0231337E-1],"split_indices":[4,4,4,4,4,0,2,3,0,0,0,4,4,4,0,2,2,4,1,4,0,0,0,4,0,1,1,0,2,0,0,0,0,0,0,0,0,0,0],"split_type":[0,0,0,0,0,0,0,0,0,0,0,0,0,0,0,0,0,0,0,0,0,0,0,0,0,0,0,0,0,0,0,0,0,0,0,0,0,0,0],"sum_hessian":[6.0544014E1,3.234393E1,2.8200085E1,2.9279663E1,3.0642648E0,2.440882E0,2.5759203E1,2.8096796E1,1.1828679E0,1.4075024E0,1.6567624E0,1.2507714E1,1.3251489E1,2.5729647E1,2.367149E0,3.2850935E0,9.22262E0,7.3201103E0,5.9313784E0,2.3924992E1,1.8046542E0,1.9542416E0,1.3308519E0,6.241933E0,2.9806876E0,2.3157694E0,5.0043406E0,2.891706E0,3.0396724E0,2.2749128E1,1.1758641E0,5.050985E0,1.1909478E0,1.1803983E0,1.1353712E0,1.770198E0,3.2341428E0,1.7053993E0,1.334273E0],"tree_param":{"num_deleted":"0","num_feature":"8","num_nodes":"39","size_leaf_vector":"1"}},{"base_weights":[1.5149266E-2,-1.6012871E-1,4.701759E-2,1.1967829E-2,-2.3704511E-1,1.9398457E-1,1.7874457E-2,-1.7091933E-1,1.8289989E-1,-1.380976E-1,4.288781E-2,1.01127945E-1,-2.1382706E-1,1.3381134E-2,2.0888825E-1,1.433514E-1,-1.4097248E-1,-6.7785536E-3,9.766704E-2,-1.5965456E-1,5.7742357E-2,1.1311126E-2,-1.10584155E-1],"categories":[],"categories_nodes":[],"categories_segments":[],"categories_sizes":[],"default_left":[0,0,0,0,0,0,0,0,0,0,0,0,0,0,0,0,0,0,0,0,0,0,0],"id":11,"left_children":[1,3,5,7,-1,-1,9,11,-1,-1,13,15,-1,17,-1,-1,19,21,-1,-1,-1,-1,-1],"loss_changes":[3.4593797E-1,1.0446334E0,8.977309E-1,1.0316114E0,0E0,0E0,6.2561834E-1,1.1448004E0,0E0,0E0,9.3635255E-1,5.8908904E-1,0E0,3.039733E-1,0E0,0E0,6.5744424E-1,7.5461656E-1,0E0,0E0,0E0,0E0,0E0],"parents":[2147483647,0,0,1,1,2,2,3,3,6,6,7,7,10,10,11,11,13,13,16,16,17,17],"right_children":[2,4,6,8,-1,-1,10,12,-1,-1,14,16,-1,18,-1,-1,20,22,-1,-1,-1,-1,-1],"split_conditions":[1.9E1,1.7E1,4E2,1.4E1,-2.3704511E-1,1.9398457E-1,3.517588E-2,1.1E1,1.8289989E-1,-1.380976E-1,5.5E1,3.0150754E-2,-2.1382706E-1,9.045226E-1,2.0888825E-1,1.433514E-1,6E0,7.9396987E-1,9.766704E-2,-1.5965456E-1,5.7742357E-2,1.1311126E-2,-1.10584155E-1],"split_indices":[2,2,1,2,0,0,4,2,0,0,2,4,0,4,0,0,2,4,0,0,0,0,0],"split_type":[0,0,0,0,0,0,0,0,0,0,0,0,0,0,0,0,0,0,0,0,0,0,0],"sum_hessian":[5.958366E1,8.5474415E0,5.103622E1,7.4840927E0,1.0633488E0,1.3835324E0,4.9652687E1,6.277351E0,1.2067419E0,1.6030351E0,4.8049652E1,4.7205863E0,1.5567642E0,4.6949955E1,1.099698E0,1.4659067E0,3.2546797E0,4.502088E1,1.9290736E0,1.2233775E0,2.0313022E0,4.0889874E1,4.131007E0],"tree_param":{"num_deleted":"0","num_feature":"8","num_nodes":"23","size_leaf_vector":"1"}},{"base_weights":[1.1347521E-2,-1.4959073E-3,1.05167344E-1,2.5712214E-2,-1.7447706E-1,-7.3337713E-3,2.414948E-1,-2.0115755E-1,7.079662E-2,4.566744E-2,-1.4343648E-1,-1.5605132E-1,1.1116866E-1,2.1169437E-3,2.241807E-1,-2.973043E-1,1.10809E-1,5.852323E-3,-8.569244E-2,1.7593443E-2,-1.0279805E-1,2.2343839E-2,-1.413006E-1,-1.52218E-1,9.9315576E-2],"categories":[],"categories_nodes":[],"categories_segments":[],"categories_sizes":[],"default_left":[0,0,0,0,0,0,0,0,0,0,0,0,0,0,0,0,0,0,0,0,0,0,0,0,0],"id":12,"left_children":[1,3,-1,5,7,9,-1,-1,11,13,15,17,-1,19,-1,21,23,-1,-1,-1,-1,-1,-1,-1,-1],"loss_changes":[2.6237923E-1,2.817363E-1,0E0,1.3391566E0,1.0372053E0,3.7197775E-1,0E0,0E0,4.8948365E-1,1.1356281E0,5.9782827E-1,1.037879E-1,0E0,7.226133E-1,0E0,6.335327E-1,1.0083988E0,0E0,0E0,0E0,0E0,0E0,0E0,0E0,0E0],"parents":[2147483647,0,0,1,1,3,3,4,4,5,5,8,8,9,9,10,10,11,11,13,13,15,15,16,16],"right_children":[2,4,-1,6,8,10,-1,-1,12,14,16,18,-1,20,-1,22,24,-1,-1,-1,-1,-1,-1,-1,-1],"split_conditions":[8E2,7.9899496E-1,1.05167344E-1,7.889447E-1,8.5427135E-1,4.924623E-1,2.414948E-1,-2.0115755E-1,3.8E1,4.8241207E-1,3.8E1,2.3E1,1.1116866E-1,4.2713568E-1,2.241807E-1,5.477387E-1,5.728643E-1,5.852323E-3,-8.569244E-2,1.7593443E-2,-1.0279805E-1,2.2343839E-2,-1.413006E-1,-1.52218E-1,9.9315576E-2],"split_indices":[1,4,0,4,4,4,0,0,2,4,2,2,0,4,0,4,4,0,0,0,0,0,0,0,0],"split_type":[0,0,0,0,0,0,0,0,0,0,0,0,0,0,0,0,0,0,0,0,0,0,0,0,0],"sum_hessian":[5.910499E1,5.7908024E1,1.1969659E0,5.0773277E1,7.134746E0,4.965805E1,1.1152259E0,1.7869622E0,5.347784E0,3.621834E1,1.3439709E1,3.3170357E0,2.0307484E0,3.504595E1,1.1723893E0,8.267132E0,5.172577E0,1.7694213E0,1.5476143E0,3.082238E1,4.2235727E0,2.8143945E0,5.4527373E0,1.0162537E0,4.1563234E0],"tree_param":{"num_deleted":"0","num_feature":"8","num_nodes":"25","size_leaf_vector":"1"}},{"base_weights":[9.859354E-3,-1.4808203E-1,3.800265E-2,6.846579E-2,-3.803166E-1,1.6100629E-1,1.3792692E-2,-7.474115E-2,2.9377878E-1,-1.7987582E-1,-1.794252E-2,-1.12980425E-1,3.5132725E-2,8.32345E-3,1.23293154E-1,8.14986E-3,1.3935384E-1,2.9409232E-2,-1.2940706E-1,2.2540358E-3,1.3639784E-1],"categories":[],"categories_nodes":[],"categories_segments":[],"categories_sizes":[],"default_left":[0,0,0,0,0,0,0,0,0,0,0,0,0,0,0,0,0,0,0,0,0],"id":13,"left_children":[1,3,5,7,9,-1,11,-1,13,-1,-1,-1,15,-1,-1,17,-1,19,-1,-1,-1],"loss_changes":[2.6856726E-1,4.8622394E-1,6.0837036E-1,4.7268906E-1,2.8516525E-1,0E0,4.2701995E-1,0E0,1.0473004E-1,0E0,0E0,0E0,5.524399E-1,0E0,0E0,4.4425076E-1,0E0,4.1552398E-1,0E0,0E0,0E0],"parents":[2147483647,0,0,1,1,2,2,3,3,4,4,6,6,8,8,12,12,15,15,17,17],"right_children":[2,4,6,8,10,-1,12,-1,14,-1,-1,-1,16,-1,-1,18,-1,20,-1,-1,-1],"split_conditions":[1.9E1,1.1E1,4E2,5E0,1.3065326E-1,1.6100629E-1,3.517588E-2,-7.474115E-2,8.040201E-2,-1.7987582E-1,-1.794252E-2,-1.12980425E-1,5.4E1,8.32345E-3,1.23293154E-1,5.3E1,1.3935384E-1,5.2E1,-1.2940706E-1,2.2540358E-3,1.3639784E-1],"split_indices":[2,2,1,2,4,0,4,0,4,0,0,0,2,0,0,2,0,2,0,0,0],"split_type":[0,0,0,0,0,0,0,0,0,0,0,0,0,0,0,0,0,0,0,0,0],"sum_hessian":[5.8154175E1,8.150652E0,5.000352E1,4.5826926E0,3.5679588E0,1.335078E0,4.8668446E1,1.85796E0,2.7247329E0,1.6015521E0,1.9664066E0,1.6596267E0,4.7008816E1,1.2114778E0,1.513255E0,4.518811E1,1.8207058E0,4.3993202E1,1.1949086E0,4.2806786E1,1.1864173E0],"tree_param":{"num_deleted":"0","num_feature":"8","num_nodes":"21","size_leaf_vector":"1"}},{"base_weights":[8.0853505E-3,-1.476595E-1,3.012388E-2,5.751243E-2,-1.5082571E-1,2.716633E-3,4.3841326E-1,1.283756E-1,-1.6818343E-1,3.453299E-2,-2.8419307E-1,2.4417241E-1,-3.3569805E-2,-1.4632754E-1,5.277151E-2,1.354085E-1,-2.0934729E-2,-1.6830333E-1,6.4206995E-2,-5.8718068E-3,4.8956212E-1,-6.855624E-2,1.6066167E-1,7.9132184E-2,-5.295584E-2,3.2867853E-2,-1.6045238E-1,2.5698695E-1,1.3787933E-2,-8.1034735E-2,1.227681E-2],"categories":[],"categories_nodes":[],"categories_segments":[],"categories_sizes":[],"default_left":[0,0,0,0,0,0,0,0,0,0,0,0,0,0,0,0,0,0,0,0,0,0,0,0,0,0,0,0,0,0,0],"id":14,"left_children":[1,3,5,7,-1,9,11,-1,13,15,17,-1,-1,-1,-1,19,21,-1,23,25,27,29,-1,-1,-1,-1,-1,-1,-1,-1,-1],"loss_changes":[2.0671733E-1,5.734715E-1,5.8578604E-1,5.430217E-1,0E0,4.6771085E-1,7.7162683E-1,0E0,5.497434E-1,2.6047754E-1,5.293927E-1,0E0,0E0,0E0,0E0,8.269591E-1,8.469772E-1,0E0,1.9848076E-1,8.378165E-1,7.2732174E-1,6.5213066E-1,0E0,0E0,0E0,0E0,0E0,0E0,0E0,0E0,0E0],"parents":[2147483647,0,0,1,1,2,2,3,3,5,5,6,6,8,8,9,9,10,10,15,15,16,16,18,18,19,19,20,20,21,21],"right_children":[2,4,6,8,-1,10,12,-1,14,16,18,-1,-1,-1,-1,20,22,-1,24,26,28,30,-1,-1,-1,-1,-1,-1,-1,-1,-1],"split_conditions":[1.5E1,1.1E1,9.045226E-1,3.0150754E-2,-1.5082571E-1,7.9396987E-1,9.798995E-1,1.283756E-1,9.045226E-2,3.5E1,3.8E1,2.4417241E-1,-3.3569805E-2,-1.4632754E-1,5.277151E-2,3.2E1,6.683417E-1,-1.6830333E-1,4.6E1,3E1,4.2211056E-1,4.1E1,1.6066167E-1,7.9132184E-2,-5.295584E-2,3.2867853E-2,-1.6045238E-1,2.5698695E-1,1.3787933E-2,-8.1034735E-2,1.227681E-2],"split_indices":[2,2,4,4,0,4,4,0,4,2,2,0,0,0,0,2,4,0,2,2,4,2,0,0,0,0,0,0,0,0,0],"split_type":[0,0,0,0,0,0,0,0,0,0,0,0,0,0,0,0,0,0,0,0,0,0,0,0,0,0,0,0,0,0,0],"sum_hessian":[5.792961E1,6.4745226E0,5.145509E1,4.6346607E0,1.8398619E0,4.9161667E1,2.2934222E0,1.4155308E0,3.2191298E0,4.5046005E1,4.1156607E0,1.0785222E0,1.2149E0,1.4525362E0,1.7665935E0,1.5470182E1,2.9575823E1,1.9533752E0,2.1622856E0,1.1761615E1,3.7085679E0,2.805201E1,1.5238131E0,1.1298645E0,1.0324212E0,1.0305613E1,1.4560019E0,1.5198772E0,2.1886907E0,9.357259E0,1.869475E1],"tree_param":{"num_deleted":"0","num_feature":"8","num_nodes":"31","size_leaf_vector":"1"}},{"base_weights":[9.258083E-3,3.531884E-2,-1.215072E-1,-1.8770008E-3,2.2520089E-1,1.2525174E-1,-3.6324173E-1,2.9577743E-2,-2.603718E-1,-2.7142042E-2,8.752289E-2,-9.158603E-3,-4.5446795E-1,-1.1484851E-2,2.821811E-1,-1.2426413E-2,-1.5432471E-1,-2.4363722E-1,3.4800608E-2,2.2926057E-2,-2.1199805E-1,-5.711069E-2,4.9955618E-1,-1.3264674E-1,9.986087E-2,-5.5403453E-3,1.9674748E-1,-2.0921725E-1,1.7898744E-2,9.997709E-2,-1.2594317E-1,4.5661587E-2,1.781764E-1],"categories":[],"categories_nodes":[],"categories_segments":[],"categories_sizes":[],"default_left":[0,0,0,0,0,0,0,0,0,0,0,0,0,0,0,0,0,0,0,0,0,0,0,0,0,0,0,0,0,0,0,0,0],"id":15,"left_children":[1,3,5,7,-1,9,11,13,15,-1,-1,-1,17,19,21,23,-1,-1,-1,25,27,29,31,-1,-1,-1,-1,-1,-1,-1,-1,-1,-1],"loss_changes":[2.0248947E-1,1.3123742E0,6.3543165E-1,3.9661568E-1,0E0,2.2888032E-1,1.4554197E-1,4.5486963E-1,3.2688028E-1,0E0,0E0,0E0,9.205378E-1,2.6990703E-1,4.8044094E-1,6.965528E-1,0E0,0E0,0E0,8.947058E-1,7.9642165E-1,6.057354E-1,3.537792E-2,0E0,0E0,0E0,0E0,0E0,0E0,0E0,0E0,0E0,0E0],"parents":[2147483647,0,0,1,1,2,2,3,3,5,5,6,6,7,7,8,8,12,12,13,13,14,14,15,15,19,19,20,20,21,21,22,22],"right_children":[2,4,6,8,-1,10,12,14,16,-1,-1,-1,18,20,22,24,-1,-1,-1,26,28,30,32,-1,-1,-1,-1,-1,-1,-1,-1,-1,-1],"split_conditions":[4.8E1,4.7E1,6E2,4.5E1,2.2520089E-1,1.557789E-1,1.9095477E-1,4.2E1,4.723618E-1,-2.7142042E-2,8.752289E-2,-9.158603E-3,5.2E1,7.9899496E-1,4.3718594E-1,1.9095477E-1,-1.5432471E-1,-2.4363722E-1,3.4800608E-2,7.889447E-1,8.5427135E-1,6E2,5.728643E-1,-1.3264674E-1,9.986087E-2,-5.5403453E-3,1.9674748E-1,-2.0921725E-1,1.7898744E-2,9.997709E-2,-1.2594317E-1,4.5661587E-2,1.781764E-1],"split_indices":[2,2,1,2,0,4,4,2,4,0,0,0,2,4,4,4,0,0,0,4,4,1,4,0,0,0,0,0,0,0,0,0,0],"split_type":[0,0,0,0,0,0,0,0,0,0,0,0,0,0,0,0,0,0,0,0,0,0,0,0,0,0,0,0,0,0,0,0,0],"sum_hessian":[5.7159367E1,4.826945E1,8.889914E0,4.6831734E1,1.4377173E0,4.6376915E0,4.252222E0,4.254077E1,4.2909646E0,2.2190375E0,2.418654E0,1.2022218E0,3.0500004E0,3.7413464E1,5.1273084E0,2.7023754E0,1.588589E0,1.6143062E0,1.4356942E0,3.2689198E1,4.7242665E0,2.290083E0,2.8372252E0,1.0790093E0,1.6233662E0,3.1593676E1,1.0955205E0,1.132901E0,3.5913656E0,1.1420699E0,1.1480131E0,1.1643355E0,1.6728898E0],"tree_param":{"num_deleted":"0","num_feature":"8","num_nodes":"33","size_leaf_vector":"1"}},{"base_weights":[8.423976E-3,2.773441E-2,-1.4602157E-1,1.13801576E-1,-5.5956047E-2,-1.6031224E-1,6.417913E-2,4.5376115E-2,2.4887124E-1,-1.5476358E-1,-9.603949E-3,1.06720194E-1,-1.1363498E-1,1.0131199E-1,-1.7748256E-1,-6.8976134E-2,1.5314764E-1,-1.0384922E-1,5.2410483E-2,2.3000337E-2,4.7818732E-1,-2.5019843E-2,-1.4206378E-1,-1.7769411E-2,7.665953E-2,2.0084266E-1,4.0233515E-2,-2.0153496E-2,1.07737415E-1],"categories":[],"categories_nodes":[],"categories_segments":[],"categories_sizes":[],"default_left":[0,0,0,0,0,0,0,0,0,0,0,0,0,0,0,0,0,0,0,0,0,0,0,0,0,0,0,0,0],"id":16,"left_children":[1,3,5,7,9,-1,11,13,-1,-1,15,-1,17,19,-1,21,-1,-1,-1,23,25,27,-1,-1,-1,-1,-1,-1,-1],"loss_changes":[1.7560977E-1,3.8071758E-1,5.6919396E-1,1.2333789E0,5.710652E-1,0E0,3.0711228E-1,9.416062E-1,0E0,0E0,8.2464033E-1,0E0,3.2552996E-1,6.855608E-1,0E0,4.1186967E-1,0E0,0E0,0E0,4.0887126E-1,1.741364E-1,3.8927844E-1,0E0,0E0,0E0,0E0,0E0,0E0,0E0],"parents":[2147483647,0,0,1,1,2,2,3,3,4,4,6,6,7,7,10,10,12,12,13,13,15,15,19,19,20,20,21,21],"right_children":[2,4,6,8,10,-1,12,14,-1,-1,16,-1,18,20,-1,22,-1,-1,-1,24,26,28,-1,-1,-1,-1,-1,-1,-1],"split_conditions":[5.1E1,4.0703517E-1,8.5427135E-2,3.919598E-1,1.5E1,-1.6031224E-1,1.4572865E-1,3.8190955E-1,2.4887124E-1,-1.5476358E-1,9.045226E-1,1.06720194E-1,3.7185928E-1,6E2,-1.7748256E-1,4.8E1,1.5314764E-1,-1.0384922E-1,5.2410483E-2,4.1E1,4.3E1,4.6E1,-1.4206378E-1,-1.7769411E-2,7.665953E-2,2.0084266E-1,4.0233515E-2,-2.0153496E-2,1.07737415E-1],"split_indices":[2,4,4,4,2,0,4,4,0,0,4,0,4,1,0,2,0,0,0,2,2,2,0,0,0,0,0,0,0],"split_type":[0,0,0,0,0,0,0,0,0,0,0,0,0,0,0,0,0,0,0,0,0,0,0,0,0,0,0,0,0],"sum_hessian":[5.6523914E1,5.0971355E1,5.5525584E0,2.4951487E1,2.6019869E1,1.4083595E0,4.144199E0,2.3744934E1,1.2065519E0,1.4548411E0,2.4565027E1,1.1909122E0,2.9532866E0,2.2601194E1,1.1437399E0,2.2826607E1,1.7384206E0,1.5238347E0,1.429452E0,1.9591307E1,3.0098863E0,2.1547342E1,1.2792642E0,1.5023662E1,4.567646E0,1.326628E0,1.6832584E0,2.015998E1,1.3873627E0],"tree_param":{"num_deleted":"0","num_feature":"8","num_nodes":"29","size_leaf_vector":"1"}},{"base_weights":[1.0229657E-2,2.4822926E-2,-8.159542E-2,9.154687E-3,2.627498E-1,3.025579E-2,-9.708818E-2,1.3024747E-1,-4.528197E-3,6.2855184E-3,1.7555988E-1,2.4615869E-2,-2.5834104E-1,4.0559188E-2,-1.5853135E-2,-2.0070973E-1,9.295149E-2],"categories":[],"categories_nodes":[],"categories_segments":[],"categories_sizes":[],"default_left":[0,0,0,0,0,0,0,0,0,0,0,0,0,0,0,0,0],"id":17,"left_children":[1,3,-1,5,7,9,-1,-1,-1,11,-1,13,15,-1,-1,-1,-1],"loss_changes":[2.4110442E-1,2.0271102E-1,0E0,3.7956402E-1,1.667347E-1,6.671925E-1,0E0,0E0,0E0,2.4576975E-1,0E0,4.1034022E-1,9.736803E-1,0E0,0E0,0E0,0E0],"parents":[2147483647,0,0,1,1,3,3,4,4,5,5,9,9,11,11,12,12],"right_children":[2,4,-1,6,8,10,-1,-1,-1,12,-1,14,16,-1,-1,-1,-1],"split_conditions":[9.296482E-1,8.6934674E-1,-8.159542E-2,7.9899496E-1,6E2,7.889447E-1,-9.708818E-2,1.3024747E-1,-4.528197E-3,6.8844223E-1,1.7555988E-1,3.5E1,3.1E1,4.0559188E-2,-1.5853135E-2,-2.0070973E-1,9.295149E-2],"split_indices":[4,4,0,4,1,4,0,0,0,4,0,2,2,0,0,0,0],"split_type":[0,0,0,0,0,0,0,0,0,0,0,0,0,0,0,0,0],"sum_hessian":[5.590347E1,5.402204E1,1.8814304E0,5.165863E1,2.363408E0,4.9433243E1,2.2253907E0,1.1137259E0,1.2496822E0,4.835588E1,1.0773602E0,4.607154E1,2.284339E0,1.8671177E1,2.7400366E1,1.2229002E0,1.0614388E0],"tree_param":{"num_deleted":"0","num_feature":"8","num_nodes":"17","size_leaf_vector":"1"}},{"base_weights":[7.539949E-3,-7.4051544E-2,2.0355565E-2,2.672939E-1,2.4996444E-3,1.9240968E-2,1.0246987E-1,-1.5977508E-1,2.607794E-2,1.7285663E-1,1.5978776E-3,-9.207996E-2,2.043241E-2,1.3177092E-1,-1.4101932E-4],"categories":[],"categories_nodes":[],"categories_segments":[],"categories_sizes":[],"default_left":[0,0,0,0,0,0,0,0,0,0,0,0,0,0,0],"id":18,"left_children":[1,-1,3,5,7,-1,-1,-1,9,-1,11,-1,13,-1,-1],"loss_changes":[1.9020645E-1,0E0,2.4185842E-1,3.3916354E-2,6.7377E-1,0E0,0E0,0E0,6.865502E-1,0E0,2.961107E-1,0E0,4.1992173E-1,0E0,0E0],"parents":[2147483647,0,0,2,2,3,3,4,4,8,8,10,10,12,12],"right_children":[2,-1,4,6,8,-1,-1,-1,10,-1,12,-1,14,-1,-1],"split_conditions":[5E0,-7.4051544E-2,1.1E1,8.040201E-2,1.4E1,1.9240968E-2,1.0246987E-1,-1.5977508E-1,1.7E1,1.7285663E-1,2.1E1,-9.207996E-2,4E2,1.3177092E-1,-1.4101932E-4],"split_indices":[2,0,2,4,2,0,0,0,2,0,2,0,1,0,0],"split_type":[0,0,0,0,0,0,0,0,0,0,0,0,0,0,0],"sum_hessian":[5.5803986E1,1.8007125E0,5.4003273E1,2.6996062E0,5.130367E1,1.2216245E0,1.4779817E0,1.2541543E0,5.0049515E1,1.1721498E0,4.8877365E1,1.9320406E0,4.6945324E1,1.2802622E0,4.5665062E1],"tree_param":{"num_deleted":"0","num_feature":"8","num_nodes":"15","size_leaf_vector":"1"}},{"base_weights":[6.99962E-3,2.0263135E-2,-7.401391E-2,6.4069433E-3,2.2846583E-1,2.3359872E-2,-7.910816E-2,1.1273706E-1,-3.7448683E-3,3.434697E-3,1.4657852E-1,2.177813E-2,-2.0054682E-1,1.3714209E-3,1.06505595E-1,-1.2090224E-1,3.670607E-2],"categories":[],"categories_nodes":[],"categories_segments":[],"categories_sizes":[],"default_left":[0,0,0,0,0,0,0,0,0,0,0,0,0,0,0,0,0],"id":19,"left_children":[1,3,-1,5,7,9,-1,-1,-1,11,-1,13,15,-1,-1,-1,-1],"loss_changes":[1.9547082E-1,1.5637991E-1,0E0,2.4577247E-1,1.2485817E-1,4.6326968E-1,0E0,0E0,0E0,1.8810083E-1,0E0,2.6187953E-1,3.2057422E-1,0E0,0E0,0E0,0E0],"parents":[2147483647,0,0,1,1,3,3,4,4,5,5,9,9,11,11,12,12],"right_children":[2,4,-1,6,8,10,-1,-1,-1,12,-1,14,16,-1,-1,-1,-1],"split_conditions":[9.296482E-1,8.6934674E-1,-7.401391E-2,7.9899496E-1,6E2,7.889447E-1,-7.910816E-2,1.1273706E-1,-3.7448683E-3,6.633166E-1,1.4657852E-1,6.281407E-1,3.3E1,1.3714209E-3,1.06505595E-1,-1.2090224E-1,3.670607E-2],"split_indices":[4,4,0,4,1,4,0,0,0,4,0,4,2,0,0,0,0],"split_type":[0,0,0,0,0,0,0,0,0,0,0,0,0,0,0,0,0],"sum_hessian":[5.560171E1,5.371381E1,1.8879013E0,5.132859E1,2.3852198E0,4.9156773E1,2.1718197E0,1.132899E0,1.2523208E0,4.810395E1,1.0528218E0,4.495456E1,3.1493912E0,4.3711266E1,1.243294E0,1.7832167E0,1.3661743E0],"tree_param":{"num_deleted":"0","num_feature":"8","num_nodes":"17","size_leaf_vector":"1"}},{"base_weights":[6.912857E-3,-3.8838775E-3,8.558562E-2,3.740713E-2,-7.486422E-2,-2.1194683E-3,1.9552475E-1,-1.6064835E-1,-9.540184E-3,-4.7815107E-2,2.7358705E-1,9.673638E-2,-2.2629917E-1,2.0236759E-2,-1.6183022E-1,2.9128313E-2,1.7156887E-1,-1.1601313E-1,1.730144E-1,-2.1933913E-1,2.253082E-2,-2.2443958E-2,1.728056E-1,7.788277E-2,-7.919622E-2,1.1126275E-2,1.7924196E-1,1.1828816E-1,-9.050108E-2],"categories":[],"categories_nodes":[],"categories_segments":[],"categories_sizes":[],"default_left":[0,0,0,0,0,0,0,0,0,0,0,0,0,0,0,0,0,0,0,0,0,0,0,0,0,0,0,0,0],"id":20,"left_children":[1,3,-1,5,7,9,-1,-1,11,13,15,17,19,21,-1,23,-1,-1,25,-1,27,-1,-1,-1,-1,-1,-1,-1,-1],"loss_changes":[1.7075115E-1,1.649441E-1,0E0,8.66901E-1,6.1715215E-1,4.4754833E-1,0E0,0E0,4.6256652E-1,1.0290904E0,3.517373E-1,5.66086E-1,8.4466004E-1,1.5062411E0,0E0,3.272891E-1,0E0,0E0,6.922668E-1,0E0,7.6813734E-1,0E0,0E0,0E0,0E0,0E0,0E0,0E0,0E0],"parents":[2147483647,0,0,1,1,3,3,4,4,5,5,8,8,9,9,10,10,11,11,12,12,13,13,15,15,18,18,20,20],"right_children":[2,4,-1,6,8,10,-1,-1,12,14,16,18,20,22,-1,24,-1,-1,26,-1,28,-1,-1,-1,-1,-1,-1,-1,-1],"split_conditions":[8E2,4.924623E-1,8.558562E-2,4.8241207E-1,5.1758796E-1,6E2,1.9552475E-1,-1.6064835E-1,6E2,4.3718594E-1,4.9E1,1.5E1,3.8E1,3.7688443E-1,-1.6183022E-1,4.3E1,1.7156887E-1,-1.1601313E-1,8.6934674E-1,-2.1933913E-1,4.5E1,-2.2443958E-2,1.728056E-1,7.788277E-2,-7.919622E-2,1.1126275E-2,1.7924196E-1,1.1828816E-1,-9.050108E-2],"split_indices":[1,4,0,4,4,3,0,0,3,4,2,2,2,4,0,2,0,0,4,0,2,0,0,0,0,0,0,0,0],"split_type":[0,0,0,0,0,0,0,0,0,0,0,0,0,0,0,0,0,0,0,0,0,0,0,0,0,0,0,0,0],"sum_hessian":[5.5443966E1,5.4323082E1,1.1208838E0,3.464325E1,1.9679834E1,3.348536E1,1.1578889E0,1.5503169E0,1.8129517E1,2.9433601E1,4.051757E0,1.25365715E1,5.5929456E0,2.6696941E1,2.7366614E0,2.8301485E0,1.2216085E0,1.1538391E0,1.1382732E1,1.2066324E0,4.386313E0,2.3537025E1,3.159916E0,1.6483443E0,1.1818043E0,9.445366E0,1.9373666E0,1.9425637E0,2.4437492E0],"tree_param":{"num_deleted":"0","num_feature":"8","num_nodes":"29","size_leaf_vector":"1"}},{"base_weights":[7.5453264E-3,1.6594644E-1,-1.1564996E-2,-9.926538E-2,2.1927463E-1,-3.1466004E-2,1.1094476E-1,6.5910846E-2,-3.1516936E-1,-3.5303745E-1,-3.2229365E-3,-3.082504E-2,-1.12552166E-1,-2.0800222E-2,-1.4732184E-1,1.3525686E-1,-2.60228E-2,-1.829589E-1,1.6940463E-2,1.2186819E-1,-9.238815E-2,2.364995E-1,-8.781175E-3],"categories":[],"categories_nodes":[],"categories_segments":[],"categories_sizes":[],"default_left":[0,0,0,0,0,0,0,0,0,0,0,0,0,0,0,0,0,0,0,0,0,0,0],"id":21,"left_children":[1,3,5,7,-1,9,-1,-1,11,13,15,-1,-1,-1,-1,-1,17,19,21,-1,-1,-1,-1],"loss_changes":[1.7091271E-1,9.8285663E-1,3.968347E-1,4.146023E-1,0E0,4.4530755E-1,0E0,0E0,4.8050582E-3,1.21011496E-1,4.9000478E-1,0E0,0E0,0E0,0E0,0E0,3.0606288E-1,8.425964E-1,1.3131834E0,0E0,0E0,0E0,0E0],"parents":[2147483647,0,0,1,1,2,2,3,3,5,5,8,8,9,9,10,10,16,16,17,17,18,18],"right_children":[2,4,6,8,-1,10,-1,-1,12,14,16,-1,-1,-1,-1,-1,18,20,22,-1,-1,-1,-1],"split_conditions":[5.0251257E-2,3.517588E-2,5.4E1,1E1,2.1927463E-1,9.045226E-2,1.1094476E-1,6.5910846E-2,3.5E1,2.4E1,1.0552764E-1,-3.082504E-2,-1.12552166E-1,-2.0800222E-2,-1.4732184E-1,1.3525686E-1,2.2613065E-1,1.7E1,2.4623115E-1,1.2186819E-1,-9.238815E-2,2.364995E-1,-8.781175E-3],"split_indices":[4,4,2,2,0,4,0,0,2,2,4,0,0,0,0,0,4,2,4,0,0,0,0],"split_type":[0,0,0,0,0,0,0,0,0,0,0,0,0,0,0,0,0,0,0,0,0,0,0],"sum_hessian":[5.4826954E1,5.075305E0,4.9751648E1,4.0149007E0,1.0604043E0,4.8156277E1,1.5953703E0,1.6135336E0,2.401367E0,2.9595306E0,4.5196747E1,1.1263609E0,1.2750062E0,1.4603573E0,1.4991732E0,1.2632626E0,4.3933483E1,8.74205E0,3.5191433E1,1.1363182E0,7.605732E0,1.081348E0,3.4110085E1],"tree_param":{"num_deleted":"0","num_feature":"8","num_nodes":"23","size_leaf_vector":"1"}},{"base_weights":[1.4662346E-2,2.6519896E-2,-6.518142E-2,-6.4388715E-2,3.9033778E-2,3.405952E-1,1.733119E-2,2.0244239E-2,1.3829117E-1,-1.4402121E-1,3.905753E-2,1.7641176E-2,2.7238485E-1,1.3204433E-2,-1.3709809E-1,5.5493084E-3,1.2678927E-1],"categories":[],"categories_nodes":[],"categories_segments":[],"categories_sizes":[],"default_left":[0,0,0,0,0,0,0,0,0,0,0,0,0,0,0,0,0],"id":22,"left_children":[1,3,-1,-1,5,7,9,-1,-1,-1,11,13,15,-1,-1,-1,-1],"loss_changes":[1.583342E-1,1.7033927E-1,0E0,0E0,3.3356065E-1,8.161405E-2,5.5303603E-1,0E0,0E0,0E0,2.3652959E-1,5.872315E-1,1.444205E-1,0E0,0E0,0E0,0E0],"parents":[2147483647,0,0,1,1,4,4,5,5,6,6,10,10,11,11,12,12],"right_children":[2,4,-1,-1,6,8,10,-1,-1,-1,12,14,16,-1,-1,-1,-1],"split_conditions":[9.296482E-1,5E0,-6.518142E-2,-6.4388715E-2,1.1E1,8.040201E-2,1.4E1,2.0244239E-2,1.3829117E-1,-1.4402121E-1,8.3919597E-1,7.9396987E-1,3.8E1,1.3204433E-2,-1.3709809E-1,5.5493084E-3,1.2678927E-1],"split_indices":[4,2,0,0,2,4,2,0,0,0,4,4,2,0,0,0,0],"split_type":[0,0,0,0,0,0,0,0,0,0,0,0,0,0,0,0,0],"sum_hessian":[5.4477444E1,5.267034E1,1.8070997E0,1.8015854E0,5.0868755E1,2.4286377E0,4.844012E1,1.220373E0,1.2082647E0,1.1443841E0,4.7295734E1,4.4304752E1,2.9909816E0,4.2832012E1,1.4727412E0,1.5295128E0,1.4614688E0],"tree_param":{"num_deleted":"0","num_feature":"8","num_nodes":"17","size_leaf_vector":"1"}},{"base_weights":[8.323612E-3,1.6091326E-1,-9.874967E-3,8.484402E-3,8.427889E-2,-2.5619887E-2,9.199867E-2,8.020113E-2,-6.5249085E-2,-2.9973155E-1,-1.6195537E-3,-1.8188147E-2,-1.2478688E-1,1.1485714E-1,-2.0408442E-2,-1.3762775E-3,-2.5832137E-1,-8.627313E-3,6.5753125E-2,-4.813707E-3,-1.1819085E-1],"categories":[],"categories_nodes":[],"categories_segments":[],"categories_sizes":[],"default_left":[0,0,0,0,0,0,0,0,0,0,0,0,0,0,0,0,0,0,0,0,0],"id":23,"left_children":[1,3,5,7,-1,9,-1,-1,-1,11,13,-1,-1,-1,15,17,19,-1,-1,-1,-1],"loss_changes":[1.5498613E-1,1.06355906E-1,2.5852504E-1,2.7162978E-1,0E0,3.2079396E-1,0E0,0E0,0E0,8.3890945E-2,3.3945897E-1,0E0,0E0,0E0,2.0213622E-1,2.624369E-1,1.0236353E-1,0E0,0E0,0E0,0E0],"parents":[2147483647,0,0,1,1,2,2,3,3,5,5,9,9,10,10,14,14,15,15,16,16],"right_children":[2,4,6,8,-1,10,-1,-1,-1,12,14,-1,-1,-1,16,18,20,-1,-1,-1,-1],"split_conditions":[5.0251257E-2,1.5075377E-2,5.4E1,1E1,8.427889E-2,9.045226E-2,9.199867E-2,8.020113E-2,-6.5249085E-2,2.4E1,1.0552764E-1,-1.8188147E-2,-1.2478688E-1,1.1485714E-1,5.1E1,4.7E1,3.4170854E-1,-8.627313E-3,6.5753125E-2,-4.813707E-3,-1.1819085E-1],"split_indices":[4,4,2,2,0,4,0,0,0,2,4,0,0,0,2,2,4,0,0,0,0],"split_type":[0,0,0,0,0,0,0,0,0,0,0,0,0,0,0,0,0,0,0,0,0],"sum_hessian":[5.424012E1,4.9440084E0,4.9296112E1,2.64957E0,2.2944384E0,4.783577E1,1.4603437E0,1.149667E0,1.499903E0,2.9262264E0,4.4909542E1,1.4548533E0,1.4713731E0,1.1896186E0,4.3719925E1,4.1412834E1,2.3070905E0,3.7612854E1,3.7999792E0,1.2294707E0,1.0776198E0],"tree_param":{"num_deleted":"0","num_feature":"8","num_nodes":"21","size_leaf_vector":"1"}},{"base_weights":[7.857764E-3,-6.353323E-2,1.9219141E-2,7.7790834E-2,-2.5161266E-2,-4.9145157E-3,3.820001E-1,-1.7918074E-1,2.0915935E-2,9.682298E-2,-3.7897754E-1,5.1592164E-2,2.5126624E-1,3.3665243E-1,-2.2536753E-2,2.2884773E-2,3.5382137E-1,-1.8068579E-1,-5.604895E-3,9.420473E-2,-7.7104874E-2,2.6513368E-1,-1.3593847E-1,-1.2959805E-1,1.4921123E-2,2.9854022E-2,-1.091549E-1,2.0140138E-1,-1.658305E-2,1.3586797E-1,-1.487719E-2],"categories":[],"categories_nodes":[],"categories_segments":[],"categories_sizes":[],"default_left":[0,0,0,0,0,0,0,0,0,0,0,0,0,0,0,0,0,0,0,0,0,0,0,0,0,0,0,0,0,0,0],"id":24,"left_children":[1,-1,3,5,7,9,11,-1,13,15,17,19,-1,21,23,25,27,-1,-1,-1,-1,-1,-1,-1,29,-1,-1,-1,-1,-1,-1],"loss_changes":[1.41025E-1,0E0,1.399905E-1,5.839521E-1,8.287921E-1,7.6650524E-1,7.0305806E-1,0E0,4.1401798E-1,2.9352456E-1,3.350364E-1,3.997404E-1,0E0,1.9761548E0,4.2021164E-1,4.3319476E-1,4.8878768E-1,0E0,0E0,0E0,0E0,0E0,0E0,0E0,7.481188E-1,0E0,0E0,0E0,0E0,0E0,0E0],"parents":[2147483647,0,0,2,2,3,3,4,4,5,5,6,6,8,8,9,9,10,10,11,11,13,13,14,14,15,15,16,16,24,24],"right_children":[2,-1,4,6,8,10,12,-1,14,16,18,20,-1,22,24,26,28,-1,-1,-1,-1,-1,-1,-1,30,-1,-1,-1,-1,-1,-1],"split_conditions":[5E0,-6.353323E-2,3.5678393E-1,2.6633167E-1,3.7688443E-1,1.959799E-1,6E2,-1.7918074E-1,4.0703517E-1,1.557789E-1,2.2613065E-1,3.1658292E-1,2.5126624E-1,6E2,1.5E1,1.4070351E-1,3.8E1,-1.8068579E-1,-5.604895E-3,9.420473E-2,-7.7104874E-2,2.6513368E-1,-1.3593847E-1,-1.2959805E-1,2.2E1,2.9854022E-2,-1.091549E-1,2.0140138E-1,-1.658305E-2,1.3586797E-1,-1.487719E-2],"split_indices":[2,0,4,4,4,4,1,0,4,4,4,4,0,1,2,4,2,0,0,0,0,0,0,0,2,0,0,0,0,0,0],"split_type":[0,0,0,0,0,0,0,0,0,0,0,0,0,0,0,0,0,0,0,0,0,0,0,0,0,0,0,0,0,0,0],"sum_hessian":[5.388383E1,1.7826177E0,5.2101215E1,2.2135176E1,2.996604E1,1.8177189E1,3.9579864E0,1.3419273E0,2.8624111E1,1.4873155E1,3.304035E0,2.939357E0,1.0186293E0,2.646502E0,2.597761E1,1.2395909E1,2.477245E0,1.6251366E0,1.6788983E0,1.579076E0,1.3602811E0,1.4931163E0,1.1533858E0,1.2944989E0,2.4683111E1,1.0965798E1,1.4301108E0,1.033831E0,1.4434141E0,2.3960361E0,2.2287075E1],"tree_param":{"num_deleted":"0","num_feature":"8","num_nodes":"31","size_leaf_vector":"1"}},{"base_weights":[7.4181072E-3,-3.0012736E-3,8.179682E-2,1.2816776E-1,-1.885649E-2,1.869402E-1,-2.1128941E-2,-4.9173467E-2,1.2432801E-1,-2.9383378E-2,3.1696913E-1,-2.0923628E-1,4.4716178E-3,3.154871E-1,-4.675529E-2,2.996155E-2,1.15393974E-1,-4.2224176E-2,-4.227135E-1,3.529268E-1,-5.267441E-2,-2.540901E-2,1.9745079E-1,-1.11769274E-1,1.3912179E-1,-1.1306215E-1,5.309025E-2,3.483639E-4,-2.3171629E-1,-5.0275587E-2,1.6750132E-1,-1.5592965E-1,-4.1994858E-3,2.9906979E-2,-4.0708944E-2,8.305229E-3,6.7938186E-2],"categories":[],"categories_nodes":[],"categories_segments":[],"categories_sizes":[],"default_left":[0,0,0,0,0,0,0,0,0,0,0,0,0,0,0,0,0,0,0,0,0,0,0,0,0,0,0,0,0,0,0,0,0,0,0,0,0],"id":25,"left_children":[1,3,-1,5,7,9,-1,11,13,-1,15,17,19,21,23,-1,-1,25,27,29,31,33,-1,-1,35,-1,-1,-1,-1,-1,-1,-1,-1,-1,-1,-1,-1],"loss_changes":[1.5109581E-1,1.13288164E-1,0E0,8.176687E-2,2.1635984E-1,2.0918122E-1,0E0,3.5029823E-1,3.0079758E-1,0E0,1.3565332E-2,3.4703434E-1,6.44905E-1,5.1436746E-1,3.8409957E-1,0E0,0E0,5.6937665E-1,6.5027475E-1,5.812606E-1,4.9659175E-1,5.627534E-2,0E0,0E0,3.481876E-2,0E0,0E0,0E0,0E0,0E0,0E0,0E0,0E0,0E0,0E0,0E0,0E0],"parents":[2147483647,0,0,1,1,3,3,4,4,5,5,7,7,8,8,10,10,11,11,12,12,13,13,14,14,17,17,18,18,19,19,20,20,21,21,24,24],"right_children":[2,4,-1,6,8,10,-1,12,14,-1,16,18,20,22,24,-1,-1,26,28,30,32,34,-1,-1,36,-1,-1,-1,-1,-1,-1,-1,-1,-1,-1,-1,-1],"split_conditions":[8E2,5.0251257E-2,8.179682E-2,4.5E1,4.7E1,1.0050251E-2,-2.1128941E-2,2.2613065E-1,2.1105528E-1,-2.9383378E-2,2.2E1,1.4070351E-1,3.1658292E-1,1.557789E-1,3.919598E-1,2.996155E-2,1.15393974E-1,1.9E1,3.8E1,3.3E1,3.517588E-1,9.045226E-2,1.9745079E-1,-1.11769274E-1,5.929648E-1,-1.1306215E-1,5.309025E-2,3.483639E-4,-2.3171629E-1,-5.0275587E-2,1.6750132E-1,-1.5592965E-1,-4.1994858E-3,2.9906979E-2,-4.0708944E-2,8.305229E-3,6.7938186E-2],"split_indices":[1,4,0,2,2,4,0,4,4,0,2,4,4,4,4,0,0,2,2,2,4,4,0,0,4,0,0,0,0,0,0,0,0,0,0,0,0],"split_type":[0,0,0,0,0,0,0,0,0,0,0,0,0,0,0,0,0,0,0,0,0,0,0,0,0,0,0,0,0,0,0,0,0,0,0,0,0],"sum_hessian":[5.337714E1,5.2310886E1,1.0662515E0,4.8773437E0,4.7433544E1,3.8088589E0,1.0684849E0,3.9687035E1,7.7465076E0,1.270978E0,2.537881E0,9.234208E0,3.0452827E1,3.2599566E0,4.4865513E0,1.1914911E0,1.3463898E0,5.852975E0,3.3812332E0,3.5613241E0,2.6891504E1,2.098373E0,1.1615835E0,1.2649552E0,3.221596E0,2.0317032E0,3.8212717E0,1.9789865E0,1.4022466E0,1.0598376E0,2.5014865E0,1.1051917E0,2.5786312E1,1.0281893E0,1.0701838E0,1.994166E0,1.2274301E0],"tree_param":{"num_deleted":"0","num_feature":"8","num_nodes":"37","size_leaf_vector":"1"}},{"base_weights":[5.7626553E-3,-3.153489E-3,7.0565544E-2,1.0074453E-2,-1.3580228E-1,-7.6419762E-3,2.0442964E-1,-1.1269457E-1,5.721103E-2,-4.209697E-2,1.15338564E-1,1.3321838E-1,-1.4857928E-2,5.8368694E-2,-3.1157896E-2,7.222444E-3,-3.9831564E-1,5.165594E-1,-8.619721E-2,-7.0623085E-2,6.377162E-2,-1.2345424E-2,9.257881E-2,2.1221682E-2,-2.1859166E-1,2.5995018E-2,2.2070195E-1,-1.1618474E-1,1.2736128E-2],"categories":[],"categories_nodes":[],"categories_segments":[],"categories_sizes":[],"default_left":[0,0,0,0,0,0,0,0,0,0,0,0,0,0,0,0,0,0,0,0,0,0,0,0,0,0,0,0,0],"id":26,"left_children":[1,3,-1,5,7,9,11,-1,13,15,17,-1,19,-1,-1,21,23,25,27,-1,-1,-1,-1,-1,-1,-1,-1,-1,-1],"loss_changes":[1.1107877E-1,9.419248E-2,0E0,1.7040421E-1,2.4675985E-1,1.9935896E-1,2.237496E-1,0E0,9.9057116E-2,6.4569926E-1,8.7846166E-1,0E0,2.0681411E-1,0E0,0E0,4.9556968E-1,7.437562E-1,2.745527E-1,3.1555104E-1,0E0,0E0,0E0,0E0,0E0,0E0,0E0,0E0,0E0,0E0],"parents":[2147483647,0,0,1,1,3,3,4,4,5,5,6,6,8,8,9,9,10,10,12,12,15,15,16,16,17,17,18,18],"right_children":[2,4,-1,6,8,10,12,-1,14,16,18,-1,20,-1,-1,22,24,26,28,-1,-1,-1,-1,-1,-1,-1,-1,-1,-1],"split_conditions":[8E2,8.743719E-1,7.0565544E-2,7.889447E-1,9.045226E-1,4.6E1,7.9899496E-1,-1.1269457E-1,2.8E1,4.4E1,4.8E1,1.3321838E-1,8.341709E-1,5.8368694E-2,-3.1157896E-2,6E2,4.2713568E-1,1.9095477E-1,8.5427135E-2,-7.0623085E-2,6.377162E-2,-1.2345424E-2,9.257881E-2,2.1221682E-2,-2.1859166E-1,2.5995018E-2,2.2070195E-1,-1.1618474E-1,1.2736128E-2],"split_indices":[1,4,0,4,4,2,4,0,2,2,2,0,4,0,0,3,4,4,4,0,0,0,0,0,0,0,0,0,0],"split_type":[0,0,0,0,0,0,0,0,0,0,0,0,0,0,0,0,0,0,0,0,0,0,0,0,0,0,0,0,0],"sum_hessian":[5.2931812E1,5.19013E1,1.0305127E0,4.8035206E1,3.8660934E0,4.490278E1,3.1324284E0,1.3019748E0,2.5641186E0,3.5589497E1,9.313281E0,1.0069941E0,2.1254342E0,1.271732E0,1.2923868E0,3.2121864E1,3.467632E0,2.5913205E0,6.7219605E0,1.0612186E0,1.0642157E0,2.8423092E1,3.6987727E0,1.7576463E0,1.7099857E0,1.3459575E0,1.245363E0,1.4105288E0,5.311432E0],"tree_param":{"num_deleted":"0","num_feature":"8","num_nodes":"29","size_leaf_vector":"1"}},{"base_weights":[6.8869945E-3,6.806373E-2,-2.7687917E-2,-2.304264E-3,2.0603181E-1,-2.2444405E-1,1.6472094E-2,6.593697E-2,-1.3943744E-1,2.7025372E-1,-2.1151185E-2,6.88278E-3,9.2654824E-2,3.3017702E-2,1.1266423E-1,-1.55458E-1,1.951396E-2,5.9779145E-2,-8.7301835E-2,2.9118294E-1,-1.6321644E-2,-2.7646832E-2,5.893014E-2,2.3816298E-1,-1.1928352E-1,-1.1929405E-1,5.385352E-3],"categories":[],"categories_nodes":[],"categories_segments":[],"categories_sizes":[],"default_left":[0,0,0,0,0,0,0,0,0,0,0,0,0,0,0,0,0,0,0,0,0,0,0,0,0,0,0],"id":27,"left_children":[1,3,5,7,-1,-1,9,11,-1,13,15,17,-1,-1,-1,-1,19,21,-1,23,25,-1,-1,-1,-1,-1,-1],"loss_changes":[1.1539809E-1,8.5784996E-1,1.1258236E0,6.194329E-1,0E0,0E0,3.2992974E-1,2.4364254E-1,0E0,3.3839643E-2,6.265708E-1,2.5068077E-1,0E0,0E0,0E0,0E0,2.88602E-1,2.9636392E-1,0E0,1.5105265E0,3.5615465E-1,0E0,0E0,0E0,0E0,0E0,0E0],"parents":[2147483647,0,0,1,1,2,2,3,3,6,6,7,7,9,9,10,10,11,11,16,16,17,17,19,19,20,20],"right_children":[2,4,6,8,-1,-1,10,12,-1,14,16,18,-1,-1,-1,-1,20,22,-1,24,26,-1,-1,-1,-1,-1,-1],"split_conditions":[2.562814E-1,2.2613065E-1,2.964824E-1,1.959799E-1,2.0603181E-1,-2.2444405E-1,3.5678393E-1,1.557789E-1,-1.3943744E-1,4.1E1,3.7688443E-1,1.4070351E-1,9.2654824E-2,3.3017702E-2,1.1266423E-1,-1.55458E-1,4.0703517E-1,4E2,-8.7301835E-2,6E2,1.5E1,-2.7646832E-2,5.893014E-2,2.3816298E-1,-1.1928352E-1,-1.1929405E-1,5.385352E-3],"split_indices":[4,4,4,4,0,0,4,4,0,2,4,4,0,0,0,0,4,3,0,1,2,0,0,0,0,0,0],"split_type":[0,0,0,0,0,0,0,0,0,0,0,0,0,0,0,0,0,0,0,0,0,0,0,0,0,0,0],"sum_hessian":[5.2666138E1,1.8667442E1,3.39987E1,1.7655674E1,1.0117675E0,1.0428674E0,3.295583E1,1.6132683E1,1.5229914E0,3.4566197E0,2.949921E1,1.3804918E1,2.3277647E0,2.182065E0,1.2745547E0,1.3428526E0,2.8156357E1,1.2402008E1,1.4029102E0,2.450867E0,2.570549E1,6.0268593E0,6.375149E0,1.3286426E0,1.1222243E0,1.2454959E0,2.4459995E1],"tree_param":{"num_deleted":"0","num_feature":"8","num_nodes":"27","size_leaf_vector":"1"}},{"base_weights":[3.1383627E-3,-5.933304E-3,7.0562005E-2,9.989901E-2,-2.402844E-2,2.0752509E-1,-8.56539E-2,-1.1190658E-1,-7.136312E-3,-3.6955392E-3,1.3119166E-1,1.4029567E-1,-2.1030717E-2,8.356905E-2,-1.8811949E-1,1.4366591E-1,-5.5156842E-2,-1.6899066E-1,2.9183032E-2,-1.1474913E-1,2.493573E-2,-1.9993742E-3,-1.7622858E-1,-6.754659E-4,1.2861173E-1],"categories":[],"categories_nodes":[],"categories_segments":[],"categories_sizes":[],"default_left":[0,0,0,0,0,0,0,0,0,0,0,0,0,0,0,0,0,0,0,0,0,0,0,0,0],"id":28,"left_children":[1,3,-1,5,7,9,-1,-1,11,13,-1,15,17,-1,19,-1,-1,21,23,-1,-1,-1,-1,-1,-1],"loss_changes":[1.1311451E-1,1.0207102E-1,0E0,3.8252124E-1,2.6411322E-1,3.253984E-1,0E0,0E0,9.3458325E-2,2.8496554E-1,0E0,5.200038E-1,3.113832E-1,0E0,2.0572466E-1,0E0,0E0,7.159774E-1,3.984354E-1,0E0,0E0,0E0,0E0,0E0,0E0],"parents":[2147483647,0,0,1,1,3,3,4,4,5,5,8,8,9,9,11,11,12,12,14,14,17,17,18,18],"right_children":[2,4,-1,6,8,10,-1,-1,12,14,-1,16,18,-1,20,-1,-1,22,24,-1,-1,-1,-1,-1,-1],"split_conditions":[8E2,8.040201E-2,7.0562005E-2,5.1E1,9.045226E-2,2.2E1,-8.56539E-2,-1.1190658E-1,1.7E1,4E0,1.3119166E-1,2.4623115E-1,2.6633167E-1,8.356905E-2,3.517588E-2,1.4366591E-1,-5.5156842E-2,2.1105528E-1,5.2E1,-1.1474913E-1,2.493573E-2,-1.9993742E-3,-1.7622858E-1,-6.754659E-4,1.2861173E-1],"split_indices":[1,4,0,2,4,2,0,0,2,2,0,4,4,0,4,0,0,4,2,0,0,0,0,0,0],"split_type":[0,0,0,0,0,0,0,0,0,0,0,0,0,0,0,0,0,0,0,0,0,0,0,0,0],"sum_hessian":[5.206693E1,5.1045948E1,1.0209788E0,6.7933254E0,4.4252625E1,5.671197E0,1.1221284E0,1.0697091E0,4.3182915E1,3.4675992E0,2.2035978E0,2.9356608E0,4.0247253E1,1.1686064E0,2.2989929E0,1.2023754E0,1.7332855E0,9.598593E0,3.064866E1,1.100299E0,1.1986939E0,7.647715E0,1.9508774E0,2.9334942E1,1.313719E0],"tree_param":{"num_deleted":"0","num_feature":"8","num_nodes":"25","size_leaf_vector":"1"}},{"base_weights":[3.1984213E-3,1.7523771E-2,-1.0828589E-1,-1.22135505E-2,2.7407092E-1,-1.0407446E-1,3.0082231E-2,1.2002432E-2,-1.964928E-1,1.9849318E-1,-3.7552502E-2,8.338599E-2,-5.519325E-2,-2.1985333E-2,2.1961339E-1,3.1201795E-3,-1.1821788E-1,-5.079653E-2,4.580178E-2,2.0669408E-2,-2.3994859E-1,-3.1831816E-2,1.5959777E-1,-1.03994444E-1,8.811783E-2,2.4181945E-2,-6.414327E-2,-1.2410285E-1,5.289707E-2,8.177052E-2,-1.0234019E-1],"categories":[],"categories_nodes":[],"categories_segments":[],"categories_sizes":[],"default_left":[0,0,0,0,0,0,0,0,0,0,0,0,0,0,0,0,0,0,0,0,0,0,0,0,0,0,0,0,0,0,0],"id":29,"left_children":[1,3,5,7,9,-1,11,13,15,-1,17,-1,-1,19,21,23,-1,-1,-1,25,27,29,-1,-1,-1,-1,-1,-1,-1,-1,-1],"loss_changes":[8.604443E-2,3.661087E-1,2.1312818E-1,1.9678207E-1,6.265389E-1,0E0,3.0613172E-1,2.8319964E-1,2.0306244E-1,0E0,1.1878969E-1,0E0,0E0,3.2859018E-1,4.6000022E-1,4.6142805E-1,0E0,0E0,0E0,4.393214E-1,4.9068663E-1,4.7606337E-1,0E0,0E0,0E0,0E0,0E0,0E0,0E0,0E0,0E0],"parents":[2147483647,0,0,1,1,2,2,3,3,4,4,6,6,7,7,8,8,10,10,13,13,14,14,15,15,19,19,20,20,21,21],"right_children":[2,4,6,8,10,-1,12,14,16,-1,18,-1,-1,20,22,24,-1,-1,-1,26,28,30,-1,-1,-1,-1,-1,-1,-1,-1,-1],"split_conditions":[5.1E1,4.7E1,8.5427135E-2,4.5E1,2.1105528E-1,-1.0407446E-1,5.3E1,4.2E1,4.723618E-1,1.9849318E-1,4.4723618E-1,8.338599E-2,-5.519325E-2,3.9E1,5.728643E-1,1.9095477E-1,-1.1821788E-1,-5.079653E-2,4.580178E-2,6.8844223E-1,5.3266335E-1,4.3E1,1.5959777E-1,-1.03994444E-1,8.811783E-2,2.4181945E-2,-6.414327E-2,-1.2410285E-1,5.289707E-2,8.177052E-2,-1.0234019E-1],"split_indices":[2,2,4,2,4,0,2,2,4,0,4,0,0,2,4,4,0,0,0,4,4,2,0,0,0,0,0,0,0,0,0],"split_type":[0,0,0,0,0,0,0,0,0,0,0,0,0,0,0,0,0,0,0,0,0,0,0,0,0,0,0,0,0,0,0],"sum_hessian":[5.168887E1,4.6550148E1,5.13872E0,4.2568295E1,3.9818547E0,1.3328705E0,3.8058496E0,3.8450424E1,4.1178694E0,1.2740607E0,2.707794E0,1.6253203E0,2.180529E0,3.3809597E1,4.640829E0,2.5378957E0,1.5799739E0,1.664606E0,1.043188E0,2.9033081E1,4.776515E0,3.068767E0,1.572062E0,1.0641984E0,1.4736972E0,2.3645206E1,5.3878756E0,3.3744526E0,1.4020623E0,1.6064955E0,1.4622717E0],"tree_param":{"num_deleted":"0","num_feature":"8","num_nodes":"31","size_leaf_vector":"1"}},{"base_weights":[2.9867971E-3,-8.866211E-2,1.948048E-2,1.0213317E-1,-2.764116E-1,1.729611E-1,-9.022801E-3,-2.747653E-2,5.8146954E-2,-1.3795264E-1,4.751262E-3,-7.397669E-2,3.156511E-1,-2.386946E-1,3.8521845E-2,1.5506701E-1,1.54303E-1,-3.737033E-1,5.4213174E-2,1.1865966E-1,4.2892415E-3,1.417537E-1,-7.0048206E-2,-4.9429798E-1,-1.902811E-3,-1.1774856E-1,3.346413E-2,1.1814708E-2,-4.368891E-2,-1.9756699E-2,-2.5951225E-1,7.39955E-2,-1.1667804E-3],"categories":[],"categories_nodes":[],"categories_segments":[],"categories_sizes":[],"default_left":[0,0,0,0,0,0,0,0,0,0,0,0,0,0,0,0,0,0,0,0,0,0,0,0,0,0,0,0,0,0,0,0,0],"id":30,"left_children":[1,3,5,7,9,11,13,-1,-1,-1,-1,-1,15,17,19,21,-1,23,-1,-1,25,-1,27,29,-1,-1,31,-1,-1,-1,-1,-1,-1],"loss_changes":[8.0759116E-2,3.203275E-1,1.9898422E-1,1.0255787E-1,2.420671E-1,5.039498E-1,4.3517804E-1,0E0,0E0,0E0,0E0,0E0,1.0370648E-1,4.542452E-1,4.0382236E-1,3.626487E-1,0E0,2.4018806E-1,0E0,0E0,3.7533793E-1,0E0,3.525465E-2,5.977783E-1,0E0,0E0,2.403927E-1,0E0,0E0,0E0,0E0,0E0,0E0],"parents":[2147483647,0,0,1,1,2,2,3,3,4,4,5,5,6,6,12,12,13,13,14,14,15,15,17,17,20,20,22,22,23,23,26,26],"right_children":[2,4,6,8,10,12,14,-1,-1,-1,-1,-1,16,18,20,22,-1,24,-1,-1,26,-1,28,30,-1,-1,32,-1,-1,-1,-1,-1,-1],"split_conditions":[4E2,8.040201E-2,1.4070351E-1,1.0050251E-2,1.2060302E-1,3.517588E-2,2.6633167E-1,-2.747653E-2,5.8146954E-2,-1.3795264E-1,4.751262E-3,-7.397669E-2,5.2E1,6E2,3.1658292E-1,3.9E1,1.54303E-1,4.7E1,5.4213174E-2,1.1865966E-1,3.517588E-1,1.417537E-1,4.4E1,3.8E1,-1.902811E-3,-1.1774856E-1,2.2E1,1.1814708E-2,-4.368891E-2,-1.9756699E-2,-2.5951225E-1,7.39955E-2,-1.1667804E-3],"split_indices":[3,4,4,4,4,4,4,0,0,0,0,0,2,1,4,2,0,2,0,0,4,0,2,2,0,0,2,0,0,0,0,0,0],"split_type":[0,0,0,0,0,0,0,0,0,0,0,0,0,0,0,0,0,0,0,0,0,0,0,0,0,0,0,0,0,0,0,0,0],"sum_hessian":[5.128266E1,7.15418E0,4.4128483E1,3.7744808E0,3.3796995E0,6.1178417E0,3.801064E1,1.2129279E0,2.561553E0,1.724104E0,1.6555954E0,1.3678424E0,4.7499995E0,5.8295693E0,3.2181072E1,3.6115582E0,1.1384413E0,4.4924083E0,1.3371612E0,1.8922826E0,3.0288788E1,1.0425005E0,2.5690577E0,3.122E0,1.3704082E0,1.2215993E0,2.9067188E1,1.2451746E0,1.323883E0,1.9946036E0,1.1273963E0,3.4982705E0,2.5568918E1],"tree_param":{"num_deleted":"0","num_feature":"8","num_nodes":"33","size_leaf_vector":"1"}},{"base_weights":[1.0141488E-3,5.9738677E-2,-3.1093474E-2,-1.0919476E-2,1.965903E-1,-1.368479E-1,1.9440936E-3,4.162952E-2,-1.1050886E-1,2.4070778E-1,-2.8271537E-2,-4.385288E-3,7.210091E-2,1.3278778E-1,-7.813398E-3,-3.4714848E-1,1.7681664E-2,-1.5777968E-1,8.988035E-2,5.6780193E-2,-1.9623752E-1,8.981698E-2,-1.955729E-2,2.6839206E-2,-1.3459311E-1,6.388079E-2,-5.1776856E-2,-9.6765585E-2,2.6357449E-3],"categories":[],"categories_nodes":[],"categories_segments":[],"categories_sizes":[],"default_left":[0,0,0,0,0,0,0,0,0,0,0,0,0,0,0,0,0,0,0,0,0,0,0,0,0,0,0,0,0],"id":31,"left_children":[1,3,5,7,-1,-1,9,11,-1,13,15,17,-1,-1,-1,19,21,23,25,-1,-1,-1,27,-1,-1,-1,-1,-1,-1],"loss_changes":[1.0014549E-1,7.9696983E-1,4.8340195E-1,3.4895957E-1,0E0,0E0,2.4399485E-1,1.5085769E-1,0E0,2.1611565E-1,4.468971E-1,2.2074233E-1,0E0,0E0,0E0,7.5565505E-1,2.9163575E-1,4.572559E-1,3.4309942E-1,0E0,0E0,0E0,2.1752763E-1,0E0,0E0,0E0,0E0,0E0,0E0],"parents":[2147483647,0,0,1,1,2,2,3,3,6,6,7,7,9,9,10,10,11,11,15,15,16,16,17,17,18,18,22,22],"right_children":[2,4,6,8,-1,-1,10,12,-1,14,16,18,-1,-1,-1,20,22,24,26,-1,-1,-1,28,-1,-1,-1,-1,-1,-1],"split_conditions":[2.562814E-1,2.2613065E-1,3.0150753E-1,1.959799E-1,1.965903E-1,-1.368479E-1,3.5678393E-1,1.557789E-1,-1.1050886E-1,3.7E1,3.919598E-1,2.2E1,7.210091E-2,1.3278778E-1,-7.813398E-3,6E2,4.2713568E-1,1E1,5.1E1,5.6780193E-2,-1.9623752E-1,8.981698E-2,1.5E1,2.6839206E-2,-1.3459311E-1,6.388079E-2,-5.1776856E-2,-9.6765585E-2,2.6357449E-3],"split_indices":[4,4,4,4,0,0,4,4,0,2,4,2,0,0,0,1,4,2,2,0,0,0,2,0,0,0,0,0,0],"split_type":[0,0,0,0,0,0,0,0,0,0,0,0,0,0,0,0,0,0,0,0,0,0,0,0,0,0,0,0,0],"sum_hessian":[5.1128216E1,1.7768757E1,3.335946E1,1.6761786E1,1.006971E0,1.4821823E0,3.1877275E1,1.5383709E1,1.3780773E0,2.7983558E0,2.907892E1,1.3285174E1,2.0985348E0,1.2174752E0,1.5808805E0,2.83714E0,2.624178E1,4.800215E0,8.48496E0,1.172224E0,1.6649159E0,2.2419555E0,2.3999825E1,2.9689407E0,1.8312743E0,5.905135E0,2.5798242E0,1.1650369E0,2.2834787E1],"tree_param":{"num_deleted":"0","num_feature":"8","num_nodes":"29","size_leaf_vector":"1"}},{"base_weights":[-9.336865E-4,-3.153431E-2,5.5822324E-2,1.5288137E-5,-1.9128221E-1,1.1523024E-1,-6.868422E-3,4.4418503E-2,-1.7158443E-1,-3.3644083E-1,4.3468982E-2,2.0011723E-1,-5.5141155E-2,-2.0330606E-2,2.0461759E-1,1.1748936E-1,-4.1654313E-1,-1.8319485E-1,4.943656E-2,-2.4639668E-2,1.2713794E-1,-1.1903204E-1,4.3408275E-3,4.1796695E-2,-1.0211003E-1,1.9874777E-1,-2.7882874E-3,-5.762871E-2,1.2510103E-1,-1.4677253E-1,-4.18305E-2,-1.20499834E-1,1.1278024E-1,-3.580985E-3,9.53027E-2,-5.5295322E-2,7.7620395E-2,-3.3189618E-4,-1.0150055E-1,1.4051338E-1,-1.7920697E-2],"categories":[],"categories_nodes":[],"categories_segments":[],"categories_sizes":[],"default_left":[0,0,0,0,0,0,0,0,0,0,0,0,0,0,0,0,0,0,0,0,0,0,0,0,0,0,0,0,0,0,0,0,0,0,0,0,0,0,0,0,0],"id":32,"left_children":[1,3,5,7,9,-1,11,13,15,17,-1,19,21,23,25,27,29,-1,-1,-1,-1,-1,31,33,-1,-1,35,-1,-1,-1,-1,37,39,-1,-1,-1,-1,-1,-1,-1,-1],"loss_changes":[9.135462E-2,1.721444E-1,3.8196063E-1,2.3256733E-1,3.2364005E-1,0E0,1.7548484E-1,2.5567478E-1,4.932383E-1,6.827382E-1,0E0,2.4494658E-1,2.888579E-1,3.7565568E-1,6.7324007E-1,4.192975E-1,4.635811E-3,0E0,0E0,0E0,0E0,0E0,1.89902E-1,2.4265432E-1,0E0,0E0,3.259621E-1,0E0,0E0,0E0,0E0,1.696547E-1,4.8723483E-1,0E0,0E0,0E0,0E0,0E0,0E0,0E0,0E0],"parents":[2147483647,0,0,1,1,2,2,3,3,4,4,6,6,7,7,8,8,9,9,11,11,12,12,13,13,14,14,15,15,16,16,22,22,23,23,26,26,31,31,32,32],"right_children":[2,4,6,8,10,-1,12,14,16,18,-1,20,22,24,26,28,30,-1,-1,-1,-1,-1,32,34,-1,-1,36,-1,-1,-1,-1,38,40,-1,-1,-1,-1,-1,-1,-1,-1],"split_conditions":[4.2E1,3.9E1,4.3E1,6.8844223E-1,5.3266335E-1,1.1523024E-1,1.0552764E-1,5.0753766E-1,2.3E1,4.1E1,4.3468982E-2,5.5276383E-2,1.2060302E-1,4.6733668E-1,5.3266335E-1,8.6934674E-1,3.1E1,-1.8319485E-1,4.943656E-2,-2.4639668E-2,1.2713794E-1,-1.1903204E-1,4.7E1,4.120603E-1,-1.0211003E-1,1.9874777E-1,6.281407E-1,-5.762871E-2,1.2510103E-1,-1.4677253E-1,-4.18305E-2,6.130653E-1,2.1105528E-1,-3.580985E-3,9.53027E-2,-5.5295322E-2,7.7620395E-2,-3.3189618E-4,-1.0150055E-1,1.4051338E-1,-1.7920697E-2],"split_indices":[2,2,2,4,4,0,4,4,2,2,0,4,4,4,4,4,2,0,0,0,0,0,2,4,0,0,4,0,0,0,0,4,4,0,0,0,0,0,0,0,0],"split_type":[0,0,0,0,0,0,0,0,0,0,0,0,0,0,0,0,0,0,0,0,0,0,0,0,0,0,0,0,0,0,0,0,0,0,0,0,0,0,0,0,0],"sum_hessian":[5.0586758E1,3.3155174E1,1.7431587E1,2.8522076E1,4.633096E0,1.9730175E0,1.5458569E1,2.3247654E1,5.274422E0,3.2353327E0,1.3977636E0,2.3285537E0,1.3130015E1,1.7177828E1,6.069826E0,2.6580498E0,2.6163723E0,1.9501542E0,1.2851785E0,1.3092543E0,1.0192994E0,1.1061882E0,1.2023827E1,1.5113338E1,2.06449E0,1.208258E0,4.861568E0,1.4834065E0,1.1746433E0,1.4661936E0,1.1501789E0,5.537534E0,6.486293E0,1.3450332E1,1.6630068E0,3.0439215E0,1.8176464E0,4.2262464E0,1.3112876E0,1.5586169E0,4.927676E0],"tree_param":{"num_deleted":"0","num_feature":"8","num_nodes":"41","size_leaf_vector":"1"}},{"base_weights":[1.4318919E-3,1.9921195E-2,-9.160186E-2,-1.0635348E-2,1.9093944E-1,9.776622E-2,-2.7300256E-1,1.6883585E-1,-3.170155E-2,8.3686784E-2,-3.8901843E-2,-1.1438645E-1,-2.4943892E-2,1.9714085E-2,9.2911564E-2,-1.8469462E-1,9.643658E-3,-6.867107E-2,6.46596E-2,6.666109E-2,-5.474229E-2,-3.1779233E-2,-1.4879487E-1,2.6576415E-1,-4.050456E-2,-9.472057E-2,4.640674E-2,-3.668378E-2,1.2689532E-1,-1.40962E-1,-1.4731078E-3],"categories":[],"categories_nodes":[],"categories_segments":[],"categories_sizes":[],"default_left":[0,0,0,0,0,0,0,0,0,0,0,0,0,0,0,0,0,0,0,0,0,0,0,0,0,0,0,0,0,0,0],"id":33,"left_children":[1,3,5,7,-1,9,11,13,15,-1,17,-1,-1,19,-1,21,23,-1,-1,-1,-1,25,-1,27,29,-1,-1,-1,-1,-1,-1],"loss_changes":[8.9852236E-2,8.26511E-1,3.2427284E-1,1.6581197E-1,0E0,1.3403888E-1,6.468049E-2,9.087071E-2,2.4736649E-1,0E0,2.2884965E-1,0E0,0E0,1.7608252E-1,0E0,3.797754E-1,4.1554272E-1,0E0,0E0,0E0,0E0,4.004566E-1,0E0,3.7460813E-1,4.137352E-1,0E0,0E0,0E0,0E0,0E0,0E0],"parents":[2147483647,0,0,1,1,2,2,3,3,5,5,6,6,7,7,8,8,10,10,13,13,15,15,16,16,21,21,23,23,24,24],"right_children":[2,4,6,8,-1,10,12,14,16,-1,18,-1,-1,20,-1,22,24,-1,-1,-1,-1,26,-1,28,30,-1,-1,-1,-1,-1,-1],"split_conditions":[4.8E1,4.7E1,6E2,5.0251257E-2,1.9093944E-1,1.0050251E-1,5.2E1,2.2E1,1.9095477E-1,8.3686784E-2,2.6633167E-1,-1.1438645E-1,-2.4943892E-2,4E0,9.2911564E-2,1.4070351E-1,3.1658292E-1,-6.867107E-2,6.46596E-2,6.666109E-2,-5.474229E-2,1.9E1,-1.4879487E-1,2.8E1,3.517588E-1,-9.472057E-2,4.640674E-2,-3.668378E-2,1.2689532E-1,-1.40962E-1,-1.4731078E-3],"split_indices":[2,2,1,4,0,4,2,2,4,0,4,0,0,2,0,4,4,0,0,0,0,2,0,2,4,0,0,0,0,0,0],"split_type":[0,0,0,0,0,0,0,0,0,0,0,0,0,0,0,0,0,0,0,0,0,0,0,0,0,0,0,0,0,0,0],"sum_hessian":[5.017488E1,4.2512016E1,7.662864E0,4.1440914E1,1.0711049E0,3.9746695E0,3.6881945E0,3.6164474E0,3.7824467E1,1.2613269E0,2.7133427E0,1.7065535E0,1.9816412E0,2.3105192E0,1.3059283E0,7.3094764E0,3.051499E1,1.6107994E0,1.1025432E0,1.1049403E0,1.2055789E0,5.6406746E0,1.6688018E0,4.2924933E0,2.6222496E1,1.9610814E0,3.679593E0,1.3017697E0,2.9907234E0,1.0733964E0,2.51491E1],"tree_param":{"num_deleted":"0","num_feature":"8","num_nodes":"31","size_leaf_vector":"1"}},{"base_weights":[1.2448556E-3,-1.2591398E-1,1.3491667E-2,4.680328E-2,-9.5743045E-2,-2.5704901E-3,9.3577355E-2,1.9837487E-1,-1.8673053E-2,-7.6234546E-3,9.237692E-2,-2.0634307E-1,1.9557646E-3,-1.1286027E-1,1.4741053E-2,-2.5101723E-2,1.2267562E-1,-8.113355E-2,6.353901E-3,1.0084984E-1,-8.05489E-2],"categories":[],"categories_nodes":[],"categories_segments":[],"categories_sizes":[],"default_left":[0,0,0,0,0,0,0,0,0,0,0,0,0,0,0,0,0,0,0,0,0],"id":34,"left_children":[1,3,5,-1,-1,7,-1,9,11,-1,-1,13,15,-1,-1,17,19,-1,-1,-1,-1],"loss_changes":[8.0752075E-2,2.9800254E-1,2.2708744E-1,0E0,0E0,1.518616E-1,0E0,9.321153E-2,1.6805443E-1,0E0,0E0,2.0500135E-1,1.3375656E-1,0E0,0E0,3.862492E-1,7.161742E-1,0E0,0E0,0E0,0E0],"parents":[2147483647,0,0,1,1,2,2,5,5,7,7,8,8,11,11,12,12,15,15,16,16],"right_children":[2,4,6,-1,-1,8,-1,10,12,-1,-1,14,16,-1,-1,18,20,-1,-1,-1,-1],"split_conditions":[3.517588E-2,1E1,5.4E1,4.680328E-2,-9.5743045E-2,8.040201E-2,9.3577355E-2,4E2,4E2,-7.6234546E-3,9.237692E-2,1.2060302E-1,7.889447E-1,-1.1286027E-1,1.4741053E-2,2.5E1,6E2,-8.113355E-2,6.353901E-3,1.0084984E-1,-8.05489E-2],"split_indices":[4,2,2,0,0,4,0,1,3,0,0,4,4,0,0,2,1,0,0,0,0],"split_type":[0,0,0,0,0,0,0,0,0,0,0,0,0,0,0,0,0,0,0,0,0],"sum_hessian":[4.976336E1,3.5563505E0,4.6207012E1,1.5245789E0,2.0317717E0,4.478784E1,1.41917E0,2.4829848E0,4.2304855E1,1.0684253E0,1.4145594E0,3.2980735E0,3.9006783E1,1.6971703E0,1.6009032E0,3.2511826E1,6.494956E0,4.391014E0,2.8120811E1,4.2927265E0,2.2022297E0],"tree_param":{"num_deleted":"0","num_feature":"8","num_nodes":"21","size_leaf_vector":"1"}},{"base_weights":[4.2677295E-4,1.0968205E-2,-5.8354016E-2,-5.5806455E-3,2.383712E-1,9.383178E-3,-6.872951E-2,9.091819E-2,2.0557262E-2,-1.2360929E-2,2.317369E-1,1.0568519E-2,-9.910241E-2,1.3131462E-1,-1.5341899E-3,2.3455042E-2,-2.1205695E-2],"categories":[],"categories_nodes":[],"categories_segments":[],"categories_sizes":[],"default_left":[0,0,0,0,0,0,0,0,0,0,0,0,0,0,0,0,0],"id":35,"left_children":[1,3,-1,5,7,9,-1,-1,-1,11,13,15,-1,-1,-1,-1,-1],"loss_changes":[1.0598857E-1,1.8532704E-1,0E0,1.5785569E-1,1.5926272E-2,2.1846619E-1,0E0,0E0,0E0,3.065828E-1,1.9850309E-1,2.2387443E-1,0E0,0E0,0E0,0E0,0E0],"parents":[2147483647,0,0,1,1,3,3,4,4,5,5,9,9,10,10,11,11],"right_children":[2,4,-1,6,8,10,-1,-1,-1,12,14,16,-1,-1,-1,-1,-1],"split_conditions":[9.296482E-1,8.6934674E-1,-5.8354016E-2,7.9899496E-1,6E2,6.7839193E-1,-6.872951E-2,9.091819E-2,2.0557262E-2,6.381909E-1,2.4E1,3.9E1,-9.910241E-2,1.3131462E-1,-1.5341899E-3,2.3455042E-2,-2.1205695E-2],"split_indices":[4,4,0,4,1,4,0,0,0,4,2,2,0,0,0,0,0],"split_type":[0,0,0,0,0,0,0,0,0,0,0,0,0,0,0,0,0],"sum_hessian":[4.9539036E1,4.789295E1,1.6460862E0,4.5553345E1,2.3396046E0,4.359295E1,1.9603934E0,1.1263119E0,1.2132927E0,4.0569996E1,3.022956E0,3.8743015E1,1.8269805E0,1.1632589E0,1.859697E0,2.1166927E1,1.7576086E1],"tree_param":{"num_deleted":"0","num_feature":"8","num_nodes":"17","size_leaf_vector":"1"}},{"base_weights":[4.5712275E-4,-3.3198304E-2,6.3096136E-2,-8.958056E-3,-2.2903652E-1,-1.6772337E-1,1.2254824E-1,1.564688E-2,-2.1711318E-1,4.9324494E-2,-1.4520723E-1,2.0300943E-2,-1.2640342E-1,1.2172483E-1,2.9042691E-2,-5.6909543E-2,1.403918E-1,1.2082468E-3,-9.4540484E-2,1.6984516E-1,-2.0566191E-1,-5.733409E-5,-1.0621582E-1,3.5385653E-2,1.6148944E-1,3.9995555E-2,1.2914795E-1,-1.4413412E-1,2.9855814E-2,-2.5694873E-2,9.55658E-2,1.681137E-1,-3.1732682E-2,-4.9835395E-2,1.1218932E-1,-2.3557955E-2,4.242322E-2],"categories":[],"categories_nodes":[],"categories_segments":[],"categories_sizes":[],"default_left":[0,0,0,0,0,0,0,0,0,0,0,0,0,0,0,0,0,0,0,0,0,0,0,0,0,0,0,0,0,0,0,0,0,0,0,0,0],"id":36,"left_children":[1,3,5,7,9,11,13,15,17,-1,-1,-1,-1,-1,19,21,23,-1,-1,25,27,29,-1,31,-1,33,-1,-1,35,-1,-1,-1,-1,-1,-1,-1,-1],"loss_changes":[1.0869169E-1,1.5720208E-1,2.678002E-1,1.6161916E-1,4.4619924E-1,2.7402592E-1,3.829106E-1,2.664869E-1,7.351482E-2,0E0,0E0,0E0,0E0,0E0,4.4082436E-1,3.1704473E-1,4.318361E-1,0E0,0E0,2.6114255E-1,3.4166628E-1,4.8419142E-1,0E0,7.7134013E-1,0E0,5.1589406E-1,0E0,0E0,5.541612E-2,0E0,0E0,0E0,0E0,0E0,0E0,0E0,0E0],"parents":[2147483647,0,0,1,1,2,2,3,3,4,4,5,5,6,6,7,7,8,8,14,14,15,15,16,16,19,19,20,20,21,21,23,23,25,25,28,28],"right_children":[2,4,6,8,10,12,14,16,18,-1,-1,-1,-1,-1,20,22,24,-1,-1,26,28,30,-1,32,-1,34,-1,-1,36,-1,-1,-1,-1,-1,-1,-1,-1],"split_conditions":[4.2E1,4E1,1.1557789E-1,8.743719E-1,3.0150753E-1,9.045226E-2,2.1105528E-1,5.0753766E-1,2.1E1,4.9324494E-2,-1.4520723E-1,2.0300943E-2,-1.2640342E-1,1.2172483E-1,4.8E1,3.8E1,3.8E1,1.2082468E-3,-9.4540484E-2,4.6E1,3.919598E-1,3.6E1,-1.0621582E-1,5.3266335E-1,1.6148944E-1,6.080402E-1,1.2914795E-1,-1.4413412E-1,5.1E1,-2.5694873E-2,9.55658E-2,1.681137E-1,-3.1732682E-2,-4.9835395E-2,1.1218932E-1,-2.3557955E-2,4.242322E-2],"split_indices":[2,2,4,4,4,4,4,4,2,0,0,0,0,0,2,2,2,0,0,2,4,2,0,4,0,4,0,0,2,0,0,0,0,0,0,0,0],"split_type":[0,0,0,0,0,0,0,0,0,0,0,0,0,0,0,0,0,0,0,0,0,0,0,0,0,0,0,0,0,0,0,0,0,0,0,0,0],"sum_hessian":[4.9564415E1,3.2547123E1,1.7017296E1,2.9892822E1,2.654299E0,3.1124046E0,1.3904891E1,2.7559937E1,2.3328862E0,1.1834354E0,1.4708636E0,1.9944679E0,1.1179366E0,2.622572E0,1.1282319E1,1.7768745E1,9.79119E0,1.0109832E0,1.3219029E0,7.2245555E0,4.057764E0,1.5754619E1,2.0141277E0,8.608394E0,1.1827967E0,5.5921197E0,1.6324358E0,1.3927925E0,2.6649714E0,1.299483E1,2.7597883E0,1.1948485E0,7.4135447E0,3.7687669E0,1.8233527E0,1.5018786E0,1.1630927E0],"tree_param":{"num_deleted":"0","num_feature":"8","num_nodes":"37","size_leaf_vector":"1"}},{"base_weights":[3.809114E-3,-5.2104518E-2,1.33057665E-2,7.3459595E-2,-4.460754E-3,-1.001262E-1,1.20103555E-2,-1.1387394E-2,1.0562465E-1,4.8064524E-3,-9.287777E-2,-3.0156064E-3,7.703431E-2],"categories":[],"categories_nodes":[],"categories_segments":[],"categories_sizes":[],"default_left":[0,0,0,0,0,0,0,0,0,0,0,0,0],"id":37,"left_children":[1,-1,3,-1,5,-1,7,9,-1,11,-1,-1,-1],"loss_changes":[8.6755484E-2,0E0,2.0055164E-1,0E0,2.5356025E-1,0E0,3.6034992E-1,2.0850891E-1,0E0,1.5850268E-1,0E0,0E0,0E0],"parents":[2147483647,0,0,2,2,4,4,6,6,7,7,9,9],"right_children":[2,-1,4,-1,6,-1,8,10,-1,12,-1,-1,-1],"split_conditions":[5E0,-5.2104518E-2,1.1E1,7.3459595E-2,1.5E1,-1.001262E-1,9.045226E-1,8.743719E-1,1.0562465E-1,8.291457E-1,-9.287777E-2,-3.0156064E-3,7.703431E-2],"split_indices":[2,0,2,0,2,0,4,4,0,4,0,0,0],"split_type":[0,0,0,0,0,0,0,0,0,0,0,0,0],"sum_hessian":[4.9098534E1,1.6155447E0,4.7482986E1,2.4727006E0,4.501029E1,1.2265189E0,4.3783768E1,4.1869556E1,1.9142104E0,4.0646175E1,1.2233834E0,3.9289455E1,1.3567194E0],"tree_param":{"num_deleted":"0","num_feature":"8","num_nodes":"13","size_leaf_vector":"1"}},{"base_weights":[2.841646E-3,1.3215226E-2,-5.668292E-2,-1.168422E-3,2.1402246E-1,1.4154388E-2,-7.0373714E-2,8.65754E-2,1.2278776E-2,-3.915613E-3,1.9640811E-1,1.4952362E-2,-8.3181426E-2,1.1087211E-1,-2.7136656E-3,-2.3036138E-3,5.824673E-2],"categories":[],"categories_nodes":[],"categories_segments":[],"categories_sizes":[],"default_left":[0,0,0,0,0,0,0,0,0,0,0,0,0,0,0,0,0],"id":38,"left_children":[1,3,-1,5,7,9,-1,-1,-1,11,13,15,-1,-1,-1,-1,-1],"loss_changes":[1.0207165E-1,1.4009376E-1,0E0,1.6846538E-1,3.0026019E-2,1.4657615E-1,0E0,0E0,0E0,2.1695305E-1,1.4612247E-1,1.6186866E-1,0E0,0E0,0E0,0E0,0E0],"parents":[2147483647,0,0,1,1,3,3,4,4,5,5,9,9,10,10,11,11],"right_children":[2,4,-1,6,8,10,-1,-1,-1,12,14,16,-1,-1,-1,-1,-1],"split_conditions":[9.296482E-1,8.6934674E-1,-5.668292E-2,7.9899496E-1,6E2,6.7839193E-1,-7.0373714E-2,8.65754E-2,1.2278776E-2,6.381909E-1,2.4E1,5.7788944E-1,-8.3181426E-2,1.1087211E-1,-2.7136656E-3,-2.3036138E-3,5.824673E-2],"split_indices":[4,4,0,4,1,4,0,0,0,4,2,4,0,0,0,0,0],"split_type":[0,0,0,0,0,0,0,0,0,0,0,0,0,0,0,0,0],"sum_hessian":[4.905028E1,4.7416626E1,1.6336583E0,4.517496E1,2.241662E0,4.3273525E1,1.9014378E0,1.1004202E0,1.1412418E0,4.026033E1,3.0131953E0,3.8545113E1,1.7152178E0,1.2016082E0,1.8115871E0,3.5072994E1,3.4721153E0],"tree_param":{"num_deleted":"0","num_feature":"8","num_nodes":"17","size_leaf_vector":"1"}},{"base_weights":[2.8827002E-3,3.6477868E-2,-5.1942393E-2,-2.0952537E-3,1.7346072E-1,-1.3890623E-1,4.053698E-3,4.4639375E-2,-2.0010182E-1,7.6959126E-2,-3.987584E-2,5.2730474E-3,3.165348E-1,-3.1119755E-1,3.27409E-2,-1.53873E-1,1.1101993E-1,4.3066014E-2,-1.0429149E-1,2.160166E-1,-8.3135284E-2,1.5558048E-2,-1.3349906E-1,8.4668994E-2,-2.7376533E-1,1.3639094E-1,-2.2175396E-2,-3.037836E-3,9.010007E-2,-1.8381236E-1,-2.3283098E-2,-5.5866063E-2,5.7202186E-2],"categories":[],"categories_nodes":[],"categories_segments":[],"categories_sizes":[],"default_left":[0,0,0,0,0,0,0,0,0,0,0,0,0,0,0,0,0,0,0,0,0,0,0,0,0,0,0,0,0,0,0,0,0],"id":39,"left_children":[1,3,5,7,-1,-1,9,11,13,-1,15,17,19,21,-1,23,25,27,-1,-1,-1,-1,-1,-1,29,-1,31,-1,-1,-1,-1,-1,-1],"loss_changes":[9.4050474E-2,6.617584E-1,4.4896948E-1,2.9123065E-1,0E0,0E0,2.1082133E-1,2.7125555E-1,2.4035893E-1,0E0,2.969673E-1,3.2561168E-1,9.680077E-1,2.5039372E-1,0E0,5.837908E-1,3.5714287E-1,3.0311033E-1,0E0,0E0,0E0,0E0,0E0,0E0,4.9139792E-1,0E0,2.5961185E-1,0E0,0E0,0E0,0E0,0E0,0E0],"parents":[2147483647,0,0,1,1,2,2,3,3,6,6,7,7,8,8,10,10,11,11,12,12,13,13,15,15,16,16,17,17,24,24,26,26],"right_children":[2,4,6,8,-1,-1,10,12,14,-1,16,18,20,22,-1,24,26,28,-1,-1,-1,-1,-1,-1,30,-1,32,-1,-1,-1,-1,-1,-1],"split_conditions":[4.924623E-1,4.8241207E-1,5.1758796E-1,4.0703517E-1,1.7346072E-1,-1.3890623E-1,2.1E1,3.7688443E-1,6E2,7.6959126E-2,3.8E1,3.5678393E-1,6E2,4.3718594E-1,3.27409E-2,5.477387E-1,4E1,6E2,-1.0429149E-1,2.160166E-1,-8.3135284E-2,1.5558048E-2,-1.3349906E-1,8.4668994E-2,6.281407E-1,1.3639094E-1,7.085427E-1,-3.037836E-3,9.010007E-2,-1.8381236E-1,-2.3283098E-2,-5.5866063E-2,5.7202186E-2],"split_indices":[4,4,4,4,0,0,2,4,1,0,2,4,1,4,0,4,2,1,0,0,0,0,0,0,4,0,4,0,0,0,0,0,0],"split_type":[0,0,0,0,0,0,0,0,0,0,0,0,0,0,0,0,0,0,0,0,0,0,0,0,0,0,0,0,0,0,0,0,0],"sum_hessian":[4.9034107E1,3.061116E1,1.8422947E1,2.9506315E1,1.1048447E0,1.3372352E0,1.7085712E1,2.4498579E1,5.0077367E0,1.8149637E0,1.5270748E1,2.2290627E1,2.2079508E0,3.679513E0,1.3282238E0,8.687715E0,6.5830336E0,2.092749E1,1.3631372E0,1.18771E0,1.0202408E0,1.155776E0,2.523737E0,1.5814033E0,7.1063113E0,1.1647954E0,5.418238E0,1.813796E1,2.7895293E0,1.826556E0,5.279755E0,3.130581E0,2.2876575E0],"tree_param":{"num_deleted":"0","num_feature":"8","num_nodes":"33","size_leaf_vector":"1"}},{"base_weights":[5.018902E-3,1.5303275E-2,-5.518168E-2,4.163747E-3,1.6784576E-1,1.9030614E-2,-6.692591E-2,7.6224394E-2,1.6106135E-4,8.331417E-2,-2.8572109E-2,9.900038E-4,3.8538763E-1,-1.0546898E-1,8.706011E-4,1.655137E-2,-1.10463016E-1,1.9024687E-1,2.521606E-2,3.1888258E-2,-3.1827267E-2],"categories":[],"categories_nodes":[],"categories_segments":[],"categories_sizes":[],"default_left":[0,0,0,0,0,0,0,0,0,0,0,0,0,0,0,0,0,0,0,0,0],"id":40,"left_children":[1,3,-1,5,7,9,-1,-1,-1,11,13,15,17,-1,19,-1,-1,-1,-1,-1,-1],"loss_changes":[9.868761E-2,8.037472E-2,0E0,1.5793249E-1,4.6344787E-2,1.3585447E-1,0E0,0E0,0E0,4.6745637E-1,2.457051E-1,3.3610153E-1,2.4853086E-1,0E0,2.8920048E-1,0E0,0E0,0E0,0E0,0E0,0E0],"parents":[2147483647,0,0,1,1,3,3,4,4,5,5,9,9,10,10,11,11,12,12,14,14],"right_children":[2,4,-1,6,8,10,-1,-1,-1,12,14,16,18,-1,20,-1,-1,-1,-1,-1,-1],"split_conditions":[9.296482E-1,8.6934674E-1,-5.518168E-2,7.9899496E-1,8.994975E-1,3.5E1,-6.692591E-2,7.6224394E-2,1.6106135E-4,3.2E1,3.517588E-2,3E1,4.2211056E-1,-1.0546898E-1,3.6683416E-1,1.655137E-2,-1.10463016E-1,1.9024687E-1,2.521606E-2,3.1888258E-2,-3.1827267E-2],"split_indices":[4,4,0,4,4,2,0,0,0,2,4,2,4,0,4,0,0,0,0,0,0],"split_type":[0,0,0,0,0,0,0,0,0,0,0,0,0,0,0,0,0,0,0,0,0],"sum_hessian":[4.83347E1,4.6711365E1,1.6233385E0,4.448976E1,2.221602E0,4.2617924E1,1.8718382E0,1.1237531E0,1.0978488E0,1.7812887E1,2.4805037E1,1.4786417E1,3.0264695E0,1.1582513E0,2.3646786E1,1.3635877E1,1.1505406E0,1.0528152E0,1.9736542E0,1.1912149E1,1.1734636E1],"tree_param":{"num_deleted":"0","num_feature":"8","num_nodes":"21","size_leaf_vector":"1"}},{"base_weights":[3.1213744E-3,1.5558099E-2,-1.2040111E-1,-2.6910238E-3,2.0423254E-1,-9.644682E-2,4.6907023E-2,1.3942087E-2,-7.886906E-2,8.682934E-2,2.0543927E-2,4.2311653E-2,-2.136786E-2,-6.615394E-3,2.503552E-1,1.3236306E-2,-9.56091E-2,1.10580705E-1,2.0512748E-3,-1.16648935E-2,6.698512E-2],"categories":[],"categories_nodes":[],"categories_segments":[],"categories_sizes":[],"default_left":[0,0,0,0,0,0,0,0,0,0,0,0,0,0,0,0,0,0,0,0,0],"id":41,"left_children":[1,3,5,7,9,-1,11,13,-1,-1,-1,-1,-1,15,17,19,-1,-1,-1,-1,-1],"loss_changes":[7.732044E-2,1.5723145E-1,1.7007458E-1,1.8751681E-1,2.6747227E-2,0E0,4.7713403E-2,2.0031892E-1,0E0,0E0,0E0,0E0,0E0,2.4323976E-1,9.23844E-2,4.162967E-1,0E0,0E0,0E0,0E0,0E0],"parents":[2147483647,0,0,1,1,2,2,3,3,4,4,6,6,7,7,13,13,14,14,15,15],"right_children":[2,4,6,8,10,-1,12,14,-1,-1,-1,-1,-1,16,18,20,-1,-1,-1,-1,-1],"split_conditions":[8.743719E-1,7.889447E-1,9.045226E-1,6.9849247E-1,2.3E1,-9.644682E-2,2.8E1,6.281407E-1,-7.886906E-2,8.682934E-2,2.0543927E-2,4.2311653E-2,-2.136786E-2,6.0301507E-1,6.633166E-1,6E2,-9.56091E-2,1.10580705E-1,2.0512748E-3,-1.16648935E-2,6.698512E-2],"split_indices":[4,4,4,4,2,0,2,4,0,0,0,0,0,4,4,3,0,0,0,0,0],"split_type":[0,0,0,0,0,0,0,0,0,0,0,0,0,0,0,0,0,0,0,0,0],"sum_hessian":[4.8112415E1,4.4505474E1,3.6069384E0,4.1479225E1,3.0262501E0,1.2195798E0,2.3873584E0,3.9876617E1,1.6026096E0,1.1638014E0,1.8624488E0,1.2207414E0,1.166617E0,3.758077E1,2.2958465E0,3.623352E1,1.3472493E0,1.1996591E0,1.0961874E0,2.9683105E1,6.5504155E0],"tree_param":{"num_deleted":"0","num_feature":"8","num_nodes":"21","size_leaf_vector":"1"}},{"base_weights":[2.611652E-3,1.1430177E-1,-1.0491046E-2,1.8690187E-1,-9.4247665E-3,-2.7030265E-2,8.900636E-2,-2.0750318E-2,9.761792E-2,-9.5200926E-2,-4.4047083E-3,8.822239E-2,-2.326563E-2,-2.1739516E-3,-8.18768E-2,-7.1402597E-3,5.3755183E-2],"categories":[],"categories_nodes":[],"categories_segments":[],"categories_sizes":[],"default_left":[0,0,0,0,0,0,0,0,0,0,0,0,0,0,0,0,0],"id":42,"left_children":[1,3,5,7,-1,9,-1,-1,-1,-1,11,-1,13,15,-1,-1,-1],"loss_changes":[7.3128305E-2,6.1355703E-2,2.361645E-1,1.5175274E-1,0E0,2.8451014E-1,0E0,0E0,0E0,0E0,2.3987949E-1,0E0,2.0930478E-1,1.5238416E-1,0E0,0E0,0E0],"parents":[2147483647,0,0,1,1,2,2,3,3,5,5,10,10,12,12,13,13],"right_children":[2,4,6,8,-1,10,-1,-1,-1,-1,12,-1,14,16,-1,-1,-1],"split_conditions":[5.0251257E-2,3.5E1,5.4E1,1.0050251E-2,-9.4247665E-3,8.5427135E-2,8.900636E-2,-2.0750318E-2,9.761792E-2,-9.5200926E-2,1.0552764E-1,8.822239E-2,5.1E1,4.7E1,-8.18768E-2,-7.1402597E-3,5.3755183E-2],"split_indices":[4,2,2,4,0,4,0,0,0,0,4,0,2,2,0,0,0],"split_type":[0,0,0,0,0,0,0,0,0,0,0,0,0,0,0,0,0],"sum_hessian":[4.815068E1,4.2446737E0,4.390601E1,2.6444924E0,1.6001812E0,4.25282E1,1.3778112E0,1.103917E0,1.5405755E0,2.1330957E0,4.03951E1,1.5336069E0,3.8861496E1,3.6764263E1,2.097233E0,3.3623432E1,3.1408288E0],"tree_param":{"num_deleted":"0","num_feature":"8","num_nodes":"17","size_leaf_vector":"1"}},{"base_weights":[4.31889E-3,2.1961592E-2,-8.443077E-2,-2.9983462E-3,2.7771315E-1,7.732509E-2,-2.3816828E-1,-2.1403892E-2,1.600956E-1,9.372511E-3,1.1455079E-1,1.7687042E-1,-3.3544924E-2,-1.0218214E-1,-1.9715544E-2,3.4718616E-3,-9.213363E-2,9.2904225E-2,-2.3549398E-2,-5.0082305E-3,8.0620825E-2,2.4913888E-2,-8.350186E-2,-7.391462E-3,5.6760173E-2],"categories":[],"categories_nodes":[],"categories_segments":[],"categories_sizes":[],"default_left":[0,0,0,0,0,0,0,0,0,0,0,0,0,0,0,0,0,0,0,0,0,0,0,0,0],"id":43,"left_children":[1,3,5,7,9,11,13,15,17,-1,-1,19,-1,-1,-1,21,-1,-1,-1,-1,-1,23,-1,-1,-1],"loss_changes":[7.854179E-2,2.6670066E-1,2.2552001E-1,1.20303035E-1,8.338353E-2,1.1039962E-1,5.737564E-2,2.5599274E-1,1.6943428E-1,0E0,0E0,6.7448534E-2,0E0,0E0,0E0,2.1229076E-1,0E0,0E0,0E0,0E0,0E0,2.6923272E-1,0E0,0E0,0E0],"parents":[2147483647,0,0,1,1,2,2,3,3,4,4,5,5,6,6,7,7,8,8,11,11,15,15,21,21],"right_children":[2,4,6,8,10,12,14,16,18,-1,-1,20,-1,-1,-1,22,-1,-1,-1,-1,-1,24,-1,-1,-1],"split_conditions":[4.8E1,4.6E1,6E2,8.6934674E-1,1.9095477E-1,2.562814E-1,5.2E1,4.5E1,9.296482E-1,9.372511E-3,1.1455079E-1,5.2E1,-3.3544924E-2,-1.0218214E-1,-1.9715544E-2,7.9899496E-1,-9.213363E-2,9.2904225E-2,-2.3549398E-2,-5.0082305E-3,8.0620825E-2,5.7788944E-1,-8.350186E-2,-7.391462E-3,5.6760173E-2],"split_indices":[2,2,1,4,4,4,2,2,4,0,0,2,0,0,0,4,0,0,0,0,0,4,0,0,0],"split_type":[0,0,0,0,0,0,0,0,0,0,0,0,0,0,0,0,0,0,0,0,0,0,0,0,0],"sum_hessian":[4.79771E1,4.0648968E1,7.3281355E0,3.7934998E1,2.71397E0,3.8131442E0,3.5149913E0,3.4868736E1,3.066258E0,1.1921209E0,1.5218489E0,2.540798E0,1.2723464E0,1.5933807E0,1.9216107E0,3.2984707E1,1.8840313E0,1.7015418E0,1.364716E0,1.0811175E0,1.4596804E0,3.1499607E1,1.4850993E0,2.485337E1,6.6462364E0],"tree_param":{"num_deleted":"0","num_feature":"8","num_nodes":"25","size_leaf_vector":"1"}},{"base_weights":[2.7901991E-3,1.5641963E-2,-1.2529118E-1,-7.0520723E-4,1.8595678E-1,-9.8281026E-2,4.4858243E-2,1.5412689E-2,-7.068531E-2,7.395464E-2,2.2148326E-2,3.4100316E-2,-1.4328984E-2,1.0133141E-1,-4.5256563E-2,7.175974E-3,2.7154067E-1,-1.8200141E-1,3.090886E-2,4.5717597E-2,-1.6332823E-1,6.6234864E-4,1.15012065E-1,-8.413358E-3,-1.5152797E-1,7.5898305E-2,-1.0665902E-2],"categories":[],"categories_nodes":[],"categories_segments":[],"categories_sizes":[],"default_left":[0,0,0,0,0,0,0,0,0,0,0,0,0,0,0,0,0,0,0,0,0,0,0,0,0,0,0],"id":44,"left_children":[1,3,5,7,9,-1,11,13,-1,-1,-1,-1,-1,15,17,19,21,23,25,-1,-1,-1,-1,-1,-1,-1,-1],"loss_changes":[8.236793E-2,1.2620644E-1,1.7185554E-1,1.6384284E-1,8.754745E-3,0E0,2.6839627E-2,2.1588106E-1,0E0,0E0,0E0,0E0,0E0,2.7186275E-1,2.6027736E-1,1.0463804E0,1.8161958E-1,4.281315E-1,2.5339708E-1,0E0,0E0,0E0,0E0,0E0,0E0,0E0,0E0],"parents":[2147483647,0,0,1,1,2,2,3,3,4,4,6,6,7,7,13,13,14,14,15,15,16,16,17,17,18,18],"right_children":[2,4,6,8,10,-1,12,14,-1,-1,-1,-1,-1,16,18,20,22,24,26,-1,-1,-1,-1,-1,-1,-1,-1],"split_conditions":[8.743719E-1,7.889447E-1,9.045226E-1,6.8844223E-1,2.3E1,-9.8281026E-2,2.8E1,3.5E1,-7.068531E-2,7.395464E-2,2.2148326E-2,3.4100316E-2,-1.4328984E-2,5.0753766E-1,4.1E1,4.4723618E-1,2.5E1,3.9E1,4.3E1,4.5717597E-2,-1.6332823E-1,6.6234864E-4,1.15012065E-1,-8.413358E-3,-1.5152797E-1,7.5898305E-2,-1.0665902E-2],"split_indices":[4,4,4,4,2,0,2,2,0,0,0,0,0,4,2,4,2,2,2,0,0,0,0,0,0,0,0],"split_type":[0,0,0,0,0,0,0,0,0,0,0,0,0,0,0,0,0,0,0,0,0,0,0,0,0,0,0],"sum_hessian":[4.7848488E1,4.428298E1,3.5655067E0,4.1313488E1,2.969495E0,1.2060704E0,2.3594363E0,3.953527E1,1.7782177E0,1.149938E0,1.8195571E0,1.223361E0,1.1360753E0,1.608531E1,2.3449959E1,1.1027394E1,5.0579157E0,7.891776E0,1.5558184E1,9.302209E0,1.7251859E0,1.7831663E0,3.274749E0,6.0809402E0,1.8108358E0,2.9371035E0,1.2621079E1],"tree_param":{"num_deleted":"0","num_feature":"8","num_nodes":"27","size_leaf_vector":"1"}},{"base_weights":[-1.5854458E-3,-3.4137573E-2,5.9232574E-2,8.985841E-3,-1.4651784E-1,-1.4458632E-1,1.13191105E-1,5.878289E-2,-2.633814E-1,5.8632515E-2,-3.120015E-1,1.9019969E-2,-1.10775776E-1,1.7488666E-1,-5.2719608E-2,-8.9483686E-2,1.7990907E-1,-1.270776E-1,1.5336935E-2,9.714173E-2,-1.9535948E-1,-1.8934917E-1,5.109336E-2,1.6785072E-1,8.360559E-2,2.0125488E-2,-1.05095424E-1,6.938028E-3,4.2642227E-1,-7.4933E-2,-1.2585488E-2,-2.5250519E-2,4.3894004E-2,6.572591E-4,2.0169166E-1,-2.7318172E-2,1.14689745E-1,7.044422E-2,-1.6188627E-1,2.1702546E-1,-1.008259E-2,4.7602423E-2,-7.869672E-2,1.3663954E-1,-1.9383412E-2],"categories":[],"categories_nodes":[],"categories_segments":[],"categories_sizes":[],"default_left":[0,0,0,0,0,0,0,0,0,0,0,0,0,0,0,0,0,0,0,0,0,0,0,0,0,0,0,0,0,0,0,0,0,0,0,0,0,0,0,0,0,0,0,0,0],"id":45,"left_children":[1,3,5,7,9,11,13,15,17,19,21,-1,-1,23,-1,25,27,-1,-1,-1,29,-1,31,-1,33,35,-1,37,39,-1,-1,-1,-1,41,43,-1,-1,-1,-1,-1,-1,-1,-1,-1,-1],"loss_changes":[9.8454334E-2,1.5814914E-1,2.0714806E-1,3.4546727E-1,3.249274E-1,2.1360494E-1,2.852257E-1,4.0017894E-1,2.2033623E-1,3.9156985E-1,6.299451E-1,0E0,0E0,3.8386047E-1,0E0,3.0106223E-1,5.1309824E-1,0E0,0E0,0E0,1.5512861E-2,0E0,5.5305377E-2,0E0,1.0848461E-1,3.6447698E-1,0E0,1.1391354E0,7.0388806E-1,0E0,0E0,0E0,0E0,3.5398987E-1,3.3841595E-1,0E0,0E0,0E0,0E0,0E0,0E0,0E0,0E0,0E0,0E0],"parents":[2147483647,0,0,1,1,2,2,3,3,4,4,5,5,6,6,7,7,8,8,9,9,10,10,13,13,15,15,16,16,20,20,22,22,24,24,25,25,27,27,28,28,33,33,34,34],"right_children":[2,4,6,8,10,12,14,16,18,20,22,-1,-1,24,-1,26,28,-1,-1,-1,30,-1,32,-1,34,36,-1,38,40,-1,-1,-1,-1,42,44,-1,-1,-1,-1,-1,-1,-1,-1,-1,-1],"split_conditions":[4.2E1,6.381909E-1,1.1557789E-1,3.9E1,2.7E1,9.045226E-2,5.3E1,2.7E1,4.1E1,7.9899496E-1,3.4E1,1.9019969E-2,-1.10775776E-1,1.7085427E-1,-5.2719608E-2,2.2E1,4.6231157E-1,-1.270776E-1,1.5336935E-2,9.714173E-2,8.894472E-1,-1.8934917E-1,3.8E1,1.6785072E-1,5.929648E-1,4.7738692E-1,-1.05095424E-1,3.8190955E-1,5.477387E-1,-7.4933E-2,-1.2585488E-2,-2.5250519E-2,4.3894004E-2,4.3718594E-1,4.5E1,-2.7318172E-2,1.14689745E-1,7.044422E-2,-1.6188627E-1,2.1702546E-1,-1.008259E-2,4.7602423E-2,-7.869672E-2,1.3663954E-1,-1.9383412E-2],"split_indices":[2,4,4,2,2,4,2,2,2,4,2,0,0,4,0,2,4,0,0,0,4,0,2,0,4,4,0,4,4,0,0,0,0,4,2,0,0,0,0,0,0,0,0,0,0],"split_type":[0,0,0,0,0,0,0,0,0,0,0,0,0,0,0,0,0,0,0,0,0,0,0,0,0,0,0,0,0,0,0,0,0,0,0,0,0,0,0,0,0,0,0,0,0],"sum_hessian":[4.7709175E1,3.1361824E1,1.6347351E1,2.3329638E1,8.032186E0,3.0702891E0,1.3277062E1,2.0386534E1,2.9431033E0,3.8745677E0,4.1576176E0,1.9670677E0,1.1032215E0,1.12660475E1,2.0110145E0,9.28379E0,1.1102745E1,1.720046E0,1.2230573E0,1.7610877E0,2.1134803E0,1.8197544E0,2.3378634E0,1.1770526E0,1.0088995E1,7.186629E0,2.0971603E0,7.1288123E0,3.9739327E0,1.0963821E0,1.0170981E0,1.0138023E0,1.3240612E0,6.5168605E0,3.5721347E0,6.0713253E0,1.1153039E0,5.4337177E0,1.6950948E0,2.0669606E0,1.9069723E0,4.3185725E0,2.198288E0,1.4653772E0,2.1067576E0],"tree_param":{"num_deleted":"0","num_feature":"8","num_nodes":"45","size_leaf_vector":"1"}},{"base_weights":[-2.969426E-3,3.0511964E-2,-5.6727543E-2,-4.137386E-3,1.5072948E-1,-1.264894E-1,-8.707304E-3,-4.173974E-2,1.9761929E-1,-1.0337933E-1,1.3761047E-1,-5.2057905E-3,-1.1110964E-1,1.214116E-1,-1.4281648E-4,4.810113E-2,-1.7221425E-1,1.2942685E-1,1.56385E-2,-6.212433E-2,2.8186053E-1,-4.8687924E-2,4.5062516E-2,5.017536E-2,-2.5959298E-1,-1.354047E-1,1.9852892E-1,7.1452926E-3,-9.734811E-2,1.4357081E-1,-1.8378975E-2,-1.7190987E-1,-2.4033617E-2,-9.829761E-2,5.805401E-2,1.0627428E-1,-1.9407218E-2],"categories":[],"categories_nodes":[],"categories_segments":[],"categories_sizes":[],"default_left":[0,0,0,0,0,0,0,0,0,0,0,0,0,0,0,0,0,0,0,0,0,0,0,0,0,0,0,0,0,0,0,0,0,0,0,0,0],"id":46,"left_children":[1,3,5,7,-1,-1,9,11,13,15,17,19,-1,-1,21,-1,23,-1,25,27,29,-1,-1,-1,31,33,35,-1,-1,-1,-1,-1,-1,-1,-1,-1,-1],"loss_changes":[8.865491E-2,4.9932742E-1,3.2723433E-1,2.3069613E-1,0E0,0E0,2.5953877E-1,3.0471396E-1,1.9584367E-1,2.3316267E-1,2.5794485E-1,4.0965042E-1,0E0,0E0,1.0836575E-1,0E0,3.2406816E-1,0E0,1.9972485E-1,4.7781804E-1,3.0954528E-1,0E0,0E0,0E0,3.9945143E-1,3.176985E-1,1.5553711E-1,0E0,0E0,0E0,0E0,0E0,0E0,0E0,0E0,0E0,0E0],"parents":[2147483647,0,0,1,1,2,2,3,3,6,6,7,7,8,8,9,9,10,10,11,11,14,14,16,16,18,18,19,19,20,20,24,24,25,25,26,26],"right_children":[2,4,6,8,-1,-1,10,12,14,16,18,20,-1,-1,22,-1,24,-1,26,28,30,-1,-1,-1,32,34,36,-1,-1,-1,-1,-1,-1,-1,-1,-1,-1],"split_conditions":[4.924623E-1,4.8241207E-1,5.1758796E-1,6E2,1.5072948E-1,-1.264894E-1,3.8E1,4.4723618E-1,3.6683416E-1,2.1E1,4E1,3.7688443E-1,-1.1110964E-1,1.214116E-1,4.5E1,4.810113E-2,5.477387E-1,1.2942685E-1,7.085427E-1,2.562814E-1,4E1,-4.8687924E-2,4.5062516E-2,5.017536E-2,6.281407E-1,4.6E1,8.9447236E-1,7.1452926E-3,-9.734811E-2,1.4357081E-1,-1.8378975E-2,-1.7190987E-1,-2.4033617E-2,-9.829761E-2,5.805401E-2,1.0627428E-1,-1.9407218E-2],"split_indices":[4,4,4,3,0,0,2,4,4,2,2,4,0,0,2,0,4,0,4,4,2,0,0,0,4,2,4,0,0,0,0,0,0,0,0,0,0],"split_type":[0,0,0,0,0,0,0,0,0,0,0,0,0,0,0,0,0,0,0,0,0,0,0,0,