{"learner":{"attributes":{"scikit_learn":"{\"_estimator_type\": \"classifier\"}"},"feature_names":[],"feature_types":[],"gradient_booster":{"model":{"cats":{"enc":[],"feature_segments":[],"sorted_idx":[]},"gbtree_model_param":{"num_parallel_tree":"1","num_trees":"100"},"iteration_indptr":[0,1,2,3,4,5,6,7,8,9,10,11,12,13,14,15,16,17,18,19,20,21,22,23,24,25,26,27,28,29,30,31,32,33,34,35,36,37,38,39,40,41,42,43,44,45,46,47,48,49,50,51,52,53,54,55,56,57,58,59,60,61,62,63,64,65,66,67,68,69,70,71,72,73,74,75,76,77,78,79,80,81,82,83,84,85,86,87,88,89,90,91,92,93,94,95,96,97,98,99,100],"tree_info":[0,0,0,0,0,0,0,0,0,0,0,0,0,0,0,0,0,0,0,0,0,0,0,0,0,0,0,0,0,0,0,0,0,0,0,0,0,0,0,0,0,0,0,0,0,0,0,0,0,0,0,0,0,0,0,0,0,0,0,0,0,0,0,0,0,0,0,0,0,0,0,0,0,0,0,0,0,0,0,0,0,0,0,0,0,0,0,0,0,0,0,0,0,0,0,0,0,0,0,0],"trees":[{"base_weights":[1.0202691E-8,-6.528455E-1,5.584599E-1,1.7389688E-1,-7.339385E-1,4.4697616E-1,4.1267273E-1,-2.7556932E-1,-2.3761319E-1,5.4491735E-1,-4.0318596E-1,2.4970655E-1,-5.084695E-1,4.390118E-1,1.1532304E0,-3.1215367E-1,2.0897146E-1,-6.6897917E-1,1.0671727E-2,5.2448064E-1,-1.8084075E-1,4.266716E-1,7.5585425E-2,-1.07261024E-1,-2.8947058E-1,3.0038375E-1,6.515487E-2,-1.5352401E-1,6.475658E-2],"categories":[],"categories_nodes":[],"categories_segments":[],"categories_sizes":[],"default_left":[0,0,0,0,0,0,0,0,0,0,0,0,0,0,0,0,0,0,0,0,0,0,0,0,0,0,0,0,0],"id":0,"left_children":[1,3,5,-1,7,9,-1,-1,11,13,15,-1,17,19,21,-1,-1,23,-1,25,27,-1,-1,-1,-1,-1,-1,-1,-1],"loss_changes":[2.8053833E1,3.9711084E0,3.1629734E0,0E0,2.8722687E0,3.3816152E0,0E0,0E0,3.4642506E0,1.7148018E0,3.8771162E0,0E0,8.09216E-1,1.7360373E0,7.3209286E-1,0E0,0E0,2.9975915E-1,0E0,3.809053E0,7.008473E-1,0E0,0E0,0E0,0E0,0E0,0E0,0E0,0E0],"parents":[2147483647,0,0,1,1,2,2,4,4,5,5,8,8,9,9,10,10,12,12,13,13,14,14,17,17,19,19,20,20],"right_children":[2,4,6,-1,8,10,-1,-1,12,14,16,-1,18,20,22,-1,-1,24,-1,26,28,-1,-1,-1,-1,-1,-1,-1,-1],"split_conditions":[3.8E1,7E0,8.0904526E-1,1.7389688E-1,3.3E1,6.080402E-1,4.1267273E-1,-2.7556932E-1,2.512563E-1,5.125628E-1,4.9E1,2.4970655E-1,6.381909E-1,5.5E1,5.7788944E-1,-3.1215367E-1,2.0897146E-1,5.276382E-1,1.0671727E-2,2.4120604E-1,1.356784E-1,4.266716E-1,7.5585425E-2,-1.07261024E-1,-2.8947058E-1,3.0038375E-1,6.515487E-2,-1.5352401E-1,6.475658E-2],"split_indices":[2,2,4,0,2,4,0,0,4,4,2,0,4,2,4,0,0,4,0,4,4,0,0,0,0,0,0,0,0],"split_type":[0,0,0,0,0,0,0,0,0,0,0,0,0,0,0,0,0,0,0,0,0,0,0,0,0,0,0,0,0],"sum_hessian":[7.494666E1,3.4475464E1,4.04712E1,1.7487555E0,3.272671E1,3.6973686E1,3.497511E0,2.3233465E1,9.493244E0,3.3476177E1,3.497511E0,1.4989333E0,7.994311E0,2.9978666E1,3.497511E0,2.2484E0,1.249111E0,5.9957333E0,1.9985777E0,2.6481155E1,3.497511E0,2.2484E0,1.249111E0,3.9971554E0,1.9985777E0,9.493244E0,1.6987911E1,1.7487555E0,1.7487555E0],"tree_param":{"num_deleted":"0","num_feature":"8","num_nodes":"29","size_leaf_vector":"1"}},{"base_weights":[1.0714313E-2,-4.750168E-1,4.2177376E-1,-1.692097E-1,-7.3934174E-1,2.3662153E-1,7.6802754E-1,-3.356595E-1,2.92214E-1,-3.387461E-1,-4.1105217E-1,9.741024E-1,3.8781233E-2,-5.637105E-2,1.3924135E0,2.1880288E-1,-4.9622485E-1,-5.409239E-1,1.12891786E-1,3.565646E-1,2.5919305E-2,-6.494362E-2,2.3382343E-1,1.0822037E-1,-2.9518628E-1,4.766312E-1,1.3023444E-1,-2.4939533E-1,-9.591833E-1,-3.682137E-1,-3.0058283E-1,9.86685E-2,-2.4475358E-1,-1.909836E-1,9.03552E-2,-2.713162E-1,5.2968066E-2,-1.0314728E-1,-3.5886204E-1,-1.6234244E-1,5.172158E-2,-2.869341E-2,2.9170907E-1],"categories":[],"categories_nodes":[],"categories_segments":[],"categories_sizes":[],"default_left":[0,0,0,0,0,0,0,0,0,0,0,0,0,0,0,0,0,0,0,0,0,0,0,0,0,0,0,0,0,0,0,0,0,0,0,0,0,0,0,0,0,0,0],"id":1,"left_children":[1,3,5,7,9,11,13,15,-1,-1,17,19,21,23,25,-1,27,29,-1,-1,-1,31,-1,-1,33,-1,-1,35,37,39,-1,41,-1,-1,-1,-1,-1,-1,-1,-1,-1,-1,-1],"loss_changes":[1.5144487E1,2.6860385E0,2.451181E0,3.6419423E0,1.8850384E0,4.0774236E0,7.2148495E0,3.0894232E0,0E0,0E0,1.3833082E0,1.0251265E0,1.8390648E0,7.973929E-1,8.0206966E-1,0E0,1.4126432E0,4.5229888E-1,0E0,0E0,0E0,2.7027085E0,0E0,0E0,1.2018088E0,0E0,0E0,3.167262E0,2.706666E-1,9.425552E-1,0E0,3.2197084E0,0E0,0E0,0E0,0E0,0E0,0E0,0E0,0E0,0E0,0E0,0E0],"parents":[2147483647,0,0,1,1,2,2,3,3,4,4,5,5,6,6,7,7,10,10,11,11,12,12,13,13,14,14,16,16,17,17,21,21,24,24,27,27,28,28,29,29,31,31],"right_children":[2,4,6,8,10,12,14,16,-1,-1,18,20,22,24,26,-1,28,30,-1,-1,-1,32,-1,-1,34,-1,-1,36,38,40,-1,42,-1,-1,-1,-1,-1,-1,-1,-1,-1,-1,-1],"split_conditions":[3.8E1,4.522613E-1,4.9E1,4.0201005E-1,2.8E1,1.959799E-1,2.512563E-1,7E0,2.92214E-1,-3.387461E-1,8.9447236E-1,4.7E1,8.0904526E-1,1.1557789E-1,5.5E1,2.1880288E-1,3.1658292E-1,8.1407034E-1,1.12891786E-1,3.565646E-1,2.5919305E-2,5.7788944E-1,2.3382343E-1,1.0822037E-1,1.9095477E-1,4.766312E-1,1.3023444E-1,6.532663E-2,3.2E1,6.834171E-1,-3.0058283E-1,5.0753766E-1,-2.4475358E-1,-1.909836E-1,9.03552E-2,-2.713162E-1,5.2968066E-2,-1.0314728E-1,-3.5886204E-1,-1.6234244E-1,5.172158E-2,-2.869341E-2,2.9170907E-1],"split_indices":[2,4,2,4,2,4,4,2,0,0,4,2,4,4,2,0,4,4,0,0,0,4,0,0,4,0,0,4,2,4,0,4,0,0,0,0,0,0,0,0,0,0,0],"split_type":[0,0,0,0,0,0,0,0,0,0,0,0,0,0,0,0,0,0,0,0,0,0,0,0,0,0,0,0,0,0,0,0,0,0,0,0,0,0,0,0,0,0,0],"sum_hessian":[7.384629E1,3.3777405E1,4.0068886E1,1.6420313E1,1.7357094E1,2.7204958E1,1.2863928E1,1.4950089E1,1.4702234E0,6.819773E0,1.0537321E1,4.9244847E0,2.2280474E1,5.9360595E0,6.927869E0,1.4945635E0,1.3455525E1,9.314E0,1.2233202E0,3.6933637E0,1.2311212E0,2.0343668E1,1.9368064E0,1.975394E0,3.9606655E0,5.2037115E0,1.7241572E0,9.779967E0,3.6755586E0,8.084152E0,1.2298479E0,1.7417263E1,2.926405E0,2.4757853E0,1.4848801E0,3.4112659E0,6.368701E0,1.7035094E0,1.9720491E0,6.124229E0,1.9599234E0,1.4976874E1,2.4403875E0],"tree_param":{"num_deleted":"0","num_feature":"8","num_nodes":"43","size_leaf_vector":"1"}},{"base_weights":[1.3639646E-2,-4.103824E-1,3.1012836E-1,1.6471046E-1,-4.6939045E-1,2.2361206E-1,8.108099E-1,-3.3794412E-1,-7.41392E-1,3.3845583E-1,-2.9836726E-1,-7.8852326E-2,3.382657E-1,-4.4870415E-1,3.2875746E-1,-2.8042462E-1,-2.2887446E-1,-1.0316529E-1,3.9267072E-1,-5.3945065E-1,5.540743E-2,-1.5334174E-1,3.2455665E-1,4.8192915E-2,-1.6675985E-1,2.1623948E-1,7.1612763E-1,-8.4032506E-2,-2.331315E-1,2.3875274E-1,1.0567986E-2,9.208338E-2,3.194247E-1],"categories":[],"categories_nodes":[],"categories_segments":[],"categories_sizes":[],"default_left":[0,0,0,0,0,0,0,0,0,0,0,0,0,0,0,0,0,0,0,0,0,0,0,0,0,0,0,0,0,0,0,0,0],"id":2,"left_children":[1,3,5,-1,7,9,11,13,15,17,-1,-1,-1,19,21,-1,23,-1,25,27,-1,-1,-1,-1,-1,29,31,-1,-1,-1,-1,-1,-1],"loss_changes":[9.264956E0,1.9753494E0,1.6962442E0,0E0,7.9063225E-1,5.7001934E0,2.338641E0,1.7330022E0,6.432829E-1,1.458715E0,0E0,0E0,0E0,1.18223E0,2.8528047E0,0E0,5.5976504E-1,0E0,1.7634869E0,8.134351E-1,0E0,0E0,0E0,0E0,0E0,2.4042757E0,1.303894E0,0E0,0E0,0E0,0E0,0E0,0E0],"parents":[2147483647,0,0,1,1,2,2,4,4,5,5,6,6,7,7,8,8,9,9,13,13,14,14,16,16,18,18,19,19,25,25,26,26],"right_children":[2,4,6,-1,8,10,12,14,16,18,-1,-1,-1,20,22,-1,24,-1,26,28,-1,-1,-1,-1,-1,30,32,-1,-1,-1,-1,-1,-1],"split_conditions":[3.6E1,6E0,6.934673E-1,1.6471046E-1,7.1859294E-1,6.080402E-1,3.9E1,6E2,2.9E1,4.0201005E-2,-2.9836726E-1,-7.8852326E-2,3.382657E-1,6.381909E-1,3.2E1,-2.8042462E-1,6E2,-1.0316529E-1,4.8E1,2.8E1,5.540743E-2,-1.5334174E-1,3.2455665E-1,4.8192915E-2,-1.6675985E-1,2.4120604E-1,2.512563E-1,-8.4032506E-2,-2.331315E-1,2.3875274E-1,1.0567986E-2,9.208338E-2,3.194247E-1],"split_indices":[2,2,4,0,4,4,2,1,2,4,0,0,0,4,2,0,1,0,2,2,0,0,0,0,0,4,4,0,0,0,0,0,0],"split_type":[0,0,0,0,0,0,0,0,0,0,0,0,0,0,0,0,0,0,0,0,0,0,0,0,0,0,0,0,0,0,0,0,0],"sum_hessian":[7.168413E1,2.9339802E1,4.234433E1,1.2188014E0,2.8121E1,3.7338894E1,5.0054364E0,2.04708E1,7.6501985E0,3.478196E1,2.5569332E0,1.1790442E0,3.8263922E0,1.7834852E1,2.6359487E0,4.9564495E0,2.693749E0,2.1668854E0,3.2615074E1,1.5729595E1,2.1052575E0,1.3980503E0,1.2378983E0,1.4615055E0,1.2322434E0,2.2183496E1,1.0431578E1,8.563375E0,7.1662197E0,4.470941E0,1.7712555E1,5.664042E0,4.767535E0],"tree_param":{"num_deleted":"0","num_feature":"8","num_nodes":"33","size_leaf_vector":"1"}},{"base_weights":[1.2817782E-2,-3.1337652E-1,2.3867057E-1,1.3975699E-1,-3.6306888E-1,1.6871288E-1,6.622094E-1,-2.4978152E-1,-6.0912335E-1,2.5986874E-1,-2.4812059E-1,-6.6014096E-2,2.8368655E-1,-3.3922023E-1,2.8567067E-1,-7.766124E-1,-1.9406311E-1,1.7451777E-1,6.59938E-1,-4.1192752E-1,4.370007E-2,-1.304262E-1,2.7677447E-1,-5.9263058E-2,-8.630111E-1,3.9450422E-2,-1.4128731E-1,5.003015E-1,8.839912E-2,2.395973E-1,2.635617E-1,-7.2222605E-2,-2.1579407E-1,-2.9955316E-1,-6.0320217E-2,2.7486578E-1,-7.491788E-2,-1.2606288E-1,4.479177E-2,1.0098608E-1,9.831535E-3],"categories":[],"categories_nodes":[],"categories_segments":[],"categories_sizes":[],"default_left":[0,0,0,0,0,0,0,0,0,0,0,0,0,0,0,0,0,0,0,0,0,0,0,0,0,0,0,0,0,0,0,0,0,0,0,0,0,0,0,0,0],"id":3,"left_children":[1,3,5,-1,7,9,11,13,15,17,-1,-1,-1,19,21,23,25,27,29,31,-1,-1,-1,-1,33,-1,-1,35,37,39,-1,-1,-1,-1,-1,-1,-1,-1,-1,-1,-1],"loss_changes":[5.2563777E0,1.3000891E0,1.1364698E0,0E0,6.2885284E-1,3.6185236E0,1.6157992E0,1.0968571E0,4.150238E-1,1.0837958E0,0E0,0E0,0E0,7.06887E-1,2.0214446E0,1.029408E-1,3.9303094E-1,8.058256E-1,3.2376313E-1,6.8019295E-1,0E0,0E0,0E0,0E0,1.9914651E-1,0E0,0E0,2.1379447E0,8.4270656E-1,5.647792E-2,0E0,0E0,0E0,0E0,0E0,0E0,0E0,0E0,0E0,0E0,0E0],"parents":[2147483647,0,0,1,1,2,2,4,4,5,5,6,6,7,7,8,8,9,9,13,13,14,14,15,15,16,16,17,17,18,18,19,19,24,24,27,27,28,28,29,29],"right_children":[2,4,6,-1,8,10,12,14,16,18,-1,-1,-1,20,22,24,26,28,30,32,-1,-1,-1,-1,34,-1,-1,36,38,40,-1,-1,-1,-1,-1,-1,-1,-1,-1,-1,-1],"split_conditions":[3.6E1,6E0,6.934673E-1,1.3975699E-1,7.1859294E-1,6.080402E-1,3.9E1,6E2,2.9E1,5.0753766E-1,-2.4812059E-1,-6.6014096E-2,2.8368655E-1,6.381909E-1,3.2E1,2.1E1,6E2,4.1E1,4.4E1,3.2E1,4.370007E-2,-1.304262E-1,2.7677447E-1,-5.9263058E-2,8.492462E-1,3.9450422E-2,-1.4128731E-1,3.7688443E-1,4.0201005E-2,3.9E1,2.635617E-1,-7.2222605E-2,-2.1579407E-1,-2.9955316E-1,-6.0320217E-2,2.7486578E-1,-7.491788E-2,-1.2606288E-1,4.479177E-2,1.0098608E-1,9.831535E-3],"split_indices":[2,2,4,0,4,4,2,1,2,4,0,0,0,4,2,2,1,2,2,2,0,0,0,0,4,0,0,4,4,2,0,0,0,0,0,0,0,0,0,0,0],"split_type":[0,0,0,0,0,0,0,0,0,0,0,0,0,0,0,0,0,0,0,0,0,0,0,0,0,0,0,0,0,0,0,0,0,0,0,0,0,0,0,0,0],"sum_hessian":[6.933326E1,2.820699E1,4.112627E1,1.1888973E0,2.7018091E1,3.6496353E1,4.629916E0,1.988012E1,7.1379724E0,3.4112644E1,2.3837106E0,1.1800448E0,3.4498715E0,1.7348766E1,2.5313535E0,4.465092E0,2.67288E0,2.9298338E1,4.8143053E0,1.5217427E1,2.1313386E0,1.3367391E0,1.1946145E0,1.006391E0,3.4587011E0,1.4698079E0,1.2030722E0,5.1200247E0,2.4178314E1,2.364238E0,2.450067E0,1.0919481E1,4.2979465E0,2.4489505E0,1.0097505E0,3.1510644E0,1.9689603E0,1.9548552E0,2.2223457E1,1.1821355E0,1.1821026E0],"tree_param":{"num_deleted":"0","num_feature":"8","num_nodes":"41","size_leaf_vector":"1"}},{"base_weights":[8.89591E-3,-3.0869704E-1,1.6493715E-1,2.352054E-1,-3.911552E-1,6.6746265E-2,4.291747E-1,1.496977E-1,-2.4432098E-2,-1.5014965E-2,-5.591555E-1,6.367918E-1,-9.505409E-2,-1.03538334E-1,9.2449653E-1,-2.0683467E-1,2.6662007E-1,-6.9100267E-1,1.8292911E-2,-9.188677E-2,8.5070556E-1,-5.0695217E-1,8.367635E-3,9.6809134E-2,-3.3813116E-1,3.346127E-1,5.2655865E-2,5.5596286E-1,-1.16029665E-1,-2.871275E-1,-4.3529883E-1,-7.434312E-2,7.3512904E-2,1.0239158E0,5.5019066E-2,2.386061E-3,-8.38332E-1,1.11474365E-1,-4.1751745E-1,-1.9929044E-1,3.265755E-2,2.1372159E-1,1.7434334E-2,-3.6992163E-3,-1.7399068E-1,3.4582806E-1,8.4094755E-2,-3.2307065E-1,-6.669414E-2,-4.7838003E-3,2.3321404E-1,2.4910176E-2,-1.7512348E-1],"categories":[],"categories_nodes":[],"categories_segments":[],"categories_sizes":[],"default_left":[0,0,0,0,0,0,0,0,0,0,0,0,0,0,0,0,0,0,0,0,0,0,0,0,0,0,0,0,0,0,0,0,0,0,0,0,0,0,0,0,0,0,0,0,0,0,0,0,0,0,0,0,0],"id":4,"left_children":[1,3,5,7,9,11,13,-1,-1,15,17,19,21,23,25,-1,27,29,31,-1,33,35,37,-1,39,-1,-1,41,-1,-1,43,-1,-1,45,-1,-1,47,49,51,-1,-1,-1,-1,-1,-1,-1,-1,-1,-1,-1,-1,-1,-1],"loss_changes":[3.4325511E0,1.1158683E0,1.1754271E0,3.438293E-1,1.2680275E0,3.2904222E0,3.3646703E0,0E0,0E0,1.5635743E0,1.0735993E0,1.8486395E0,1.2032664E0,7.9589355E-1,7.364106E-1,0E0,1.3200998E0,3.570404E-1,2.7580583E-1,0E0,5.844712E-1,9.7330093E-1,1.0776546E0,0E0,7.8939575E-1,0E0,0E0,3.060838E-1,0E0,0E0,4.5990205E-1,0E0,0E0,1.6416883E-1,0E0,0E0,2.6852822E-1,1.6834291E0,4.4682115E-1,0E0,0E0,0E0,0E0,0E0,0E0,0E0,0E0,0E0,0E0,0E0,0E0,0E0,0E0],"parents":[2147483647,0,0,1,1,2,2,3,3,4,4,5,5,6,6,9,9,10,10,11,11,12,12,13,13,14,14,16,16,17,17,18,18,20,20,21,21,22,22,24,24,27,27,30,30,33,33,36,36,37,37,38,38],"right_children":[2,4,6,8,10,12,14,-1,-1,16,18,20,22,24,26,-1,28,30,32,-1,34,36,38,-1,40,-1,-1,42,-1,-1,44,-1,-1,46,-1,-1,48,50,52,-1,-1,-1,-1,-1,-1,-1,-1,-1,-1,-1,-1,-1,-1],"split_conditions":[3.3E1,3.0150754E-2,4.9E1,8E0,2.3E1,2.4120604E-1,2.512563E-1,1.496977E-1,-2.4432098E-2,9E0,8.0904526E-1,3.0150754E-2,3.115578E-1,1.1557789E-1,5.5E1,-2.0683467E-1,6.5829146E-1,2.7E1,2.9E1,-9.188677E-2,1.959799E-1,2.713568E-1,6E2,9.6809134E-2,1.4572865E-1,3.346127E-1,5.2655865E-2,1.9E1,-1.16029665E-1,-2.871275E-1,2.9E1,-7.434312E-2,7.3512904E-2,6E2,5.5019066E-2,2.386061E-3,2.8140703E-1,6.381909E-1,6.1809045E-1,-1.9929044E-1,3.265755E-2,2.1372159E-1,1.7434334E-2,-3.6992163E-3,-1.7399068E-1,3.4582806E-1,8.4094755E-2,-3.2307065E-1,-6.669414E-2,-4.7838003E-3,2.3321404E-1,2.4910176E-2,-1.7512348E-1],"split_indices":[2,4,2,2,2,4,4,0,0,2,4,4,4,4,2,0,4,2,2,0,4,4,3,0,4,0,0,2,0,0,2,0,0,1,0,0,4,4,4,0,0,0,0,0,0,0,0,0,0,0,0,0,0],"split_type":[0,0,0,0,0,0,0,0,0,0,0,0,0,0,0,0,0,0,0,0,0,0,0,0,0,0,0,0,0,0,0,0,0,0,0,0,0,0,0,0,0,0,0,0,0,0,0,0,0,0,0,0,0],"sum_hessian":[6.7236465E1,2.1829094E1,4.540737E1,2.6298587E0,1.9199236E1,3.4018623E1,1.1388748E1,1.1205208E0,1.5093379E0,6.2639933E0,1.2935243E1,6.871984E0,2.7146639E1,5.8683605E0,5.520388E0,1.4186696E0,4.8453236E0,1.0370686E1,2.564557E0,1.1907021E0,5.681282E0,4.6651063E0,2.2481531E1,1.949933E0,3.9184272E0,4.009385E0,1.5110029E0,3.461535E0,1.3837886E0,3.7379518E0,6.632734E0,1.1371602E0,1.4273969E0,4.0862393E0,1.5950426E0,2.2088861E0,2.4562201E0,1.8693975E1,3.7875566E0,1.9843042E0,1.9341229E0,2.3059514E0,1.1555835E0,1.9670262E0,4.6657076E0,3.013794E0,1.0724454E0,1.2312272E0,1.224993E0,1.651072E1,2.1832552E0,1.0690044E0,2.7185524E0],"tree_param":{"num_deleted":"0","num_feature":"8","num_nodes":"53","size_leaf_vector":"1"}},{"base_weights":[6.948636E-3,-2.4773929E-1,1.3135946E-1,9.064411E-2,-3.056817E-1,5.1838342E-2,3.5411987E-1,-4.3924198E-1,-1.4125238E-1,6.1055636E-1,-6.072902E-2,-8.325375E-2,8.0278546E-1,-2.9922038E-1,-2.0131779E-1,1.712194E-1,-2.981134E-1,-7.670319E-2,8.871813E-1,-2.2066936E-1,7.309162E-2,7.779791E-2,-2.7259386E-1,2.9786286E-1,4.3620735E-2,2.357765E-1,-2.3524429E-1,-1.8759178E-1,-1.142069E-1,3.0164686E-1,7.242264E-2,1.2711039E-1,-5.123292E-1,2.197719E-1,-3.742439E-2,-1.4758427E-1,4.553603E-2,1.7633867E-1,-2.040042E-1,6.944481E-2,-9.248662E-2,2.675301E-1,-6.313429E-2,-2.5540093E-1,-3.7610948E-2,3.9862063E-2,-6.752834E-2],"categories":[],"categories_nodes":[],"categories_segments":[],"categories_sizes":[],"default_left":[0,0,0,0,0,0,0,0,0,0,0,0,0,0,0,0,0,0,0,0,0,0,0,0,0,0,0,0,0,0,0,0,0,0,0,0,0,0,0,0,0,0,0,0,0,0,0],"id":5,"left_children":[1,3,5,-1,7,9,11,13,15,17,19,21,23,-1,25,-1,27,-1,29,31,33,-1,35,-1,-1,37,-1,-1,39,-1,-1,41,43,-1,45,-1,-1,-1,-1,-1,-1,-1,-1,-1,-1,-1,-1],"loss_changes":[2.1299791E0,7.9554677E-1,7.809878E-1,0E0,3.8735187E-1,2.2021968E0,2.362667E0,1.2357595E0,1.3590803E0,1.6317837E0,6.4885396E-1,5.1373285E-1,5.890541E-1,0E0,2.436212E0,0E0,4.9304366E-1,0E0,1.1388302E-1,1.4563386E0,1.255239E0,0E0,5.295571E-1,0E0,0E0,2.275575E0,0E0,0E0,5.563505E-1,0E0,0E0,2.009228E0,8.979163E-1,0E0,5.2144796E-1,0E0,0E0,0E0,0E0,0E0,0E0,0E0,0E0,0E0,0E0,0E0,0E0],"parents":[2147483647,0,0,1,1,2,2,4,4,5,5,6,6,7,7,8,8,9,9,10,10,11,11,12,12,14,14,16,16,18,18,19,19,20,20,22,22,25,25,28,28,31,31,32,32,34,34],"right_children":[2,4,6,-1,8,10,12,14,16,18,20,22,24,-1,26,-1,28,-1,30,32,34,-1,36,-1,-1,38,-1,-1,40,-1,-1,42,44,-1,46,-1,-1,-1,-1,-1,-1,-1,-1,-1,-1,-1,-1],"split_conditions":[3.3E1,7E0,4.9E1,9.064411E-2,2.6E1,1.959799E-1,2.512563E-1,6.532663E-2,2.7E1,3.0150754E-2,3.9698493E-1,1.1557789E-1,5.5E1,-2.9922038E-1,2.3E1,1.712194E-1,4.0201005E-1,-7.670319E-2,6E2,4.2E1,4.2211056E-1,7.779791E-2,1.9095477E-1,2.9786286E-1,4.3620735E-2,8.040201E-1,-2.3524429E-1,-1.8759178E-1,6.3316584E-1,3.0164686E-1,7.242264E-2,2.6130652E-1,2.8140703E-1,2.197719E-1,5.7788944E-1,-1.4758427E-1,4.553603E-2,1.7633867E-1,-2.040042E-1,6.944481E-2,-9.248662E-2,2.675301E-1,-6.313429E-2,-2.5540093E-1,-3.7610948E-2,3.9862063E-2,-6.752834E-2],"split_indices":[2,2,2,0,2,4,4,4,2,4,4,4,2,0,2,0,4,0,1,2,4,0,4,0,0,4,0,0,4,0,0,4,4,0,4,0,0,0,0,0,0,0,0,0,0,0,0],"split_type":[0,0,0,0,0,0,0,0,0,0,0,0,0,0,0,0,0,0,0,0,0,0,0,0,0,0,0,0,0,0,0,0,0,0,0,0,0,0,0,0,0,0,0,0,0,0,0],"sum_hessian":[6.519456E1,2.1069918E1,4.4124638E1,1.606764E0,1.9463154E1,3.34252E1,1.0699434E1,9.817458E0,9.645696E0,4.863204E0,2.8561996E1,5.830306E0,4.869128E0,1.9801112E0,7.837347E0,1.2650863E0,8.3806095E0,1.1954507E0,3.6677535E0,1.2715562E1,1.5846436E1,1.9437587E0,3.8865476E0,3.3810947E0,1.4880338E0,4.818881E0,3.018466E0,2.1519299E0,6.228679E0,2.6290643E0,1.0386891E0,6.05713E0,6.658432E0,1.4665345E0,1.4379901E1,2.4572382E0,1.4293094E0,3.739584E0,1.0792971E0,2.1703122E0,4.058367E0,1.3522081E0,4.7049217E0,2.9094539E0,3.7489784E0,7.691954E0,6.687947E0],"tree_param":{"num_deleted":"0","num_feature":"8","num_nodes":"47","size_leaf_vector":"1"}},{"base_weights":[8.755918E-3,-2.0918995E-1,1.1463717E-1,2.671891E-1,-2.8457007E-1,-3.4454155E-1,1.4930971E-1,1.3010612E-1,4.4233743E-3,-7.216873E-2,-3.824752E-1,5.8131184E-2,-2.1780373E-1,2.3803927E-1,8.442669E-2,-4.6709108E-1,2.710297E-1,-5.0239724E-1,8.536305E-2,4.388918E-2,1.7518543E-1,-1.8823E-1,-3.1024007E-2,4.9038038E-1,-6.5944076E-2,-3.2016653E-1,-2.6072732E-1,-4.848891E-2,7.702493E-2,7.641592E-2,-1.4035055E-1,2.411528E-1,-1.4085504E-2,-1.6451961E-1,6.965537E-2,3.6747465E-4,1.8446389E-1],"categories":[],"categories_nodes":[],"categories_segments":[],"categories_sizes":[],"default_left":[0,0,0,0,0,0,0,0,0,0,0,0,0,0,0,0,0,0,0,0,0,0,0,0,0,0,0,0,0,0,0,0,0,0,0,0,0],"id":6,"left_children":[1,3,5,7,9,11,13,-1,-1,15,17,-1,-1,-1,19,21,23,25,27,29,-1,-1,-1,31,-1,33,-1,-1,-1,35,-1,-1,-1,-1,-1,-1,-1],"loss_changes":[1.5051914E0,8.4238666E-1,7.4951166E-1,1.378299E-1,3.656317E-1,8.3490837E-1,1.6660421E0,0E0,0E0,1.1023045E0,7.5602734E-1,0E0,0E0,0E0,7.598484E-1,1.5171146E-1,5.906205E-1,4.075365E-1,1.8746614E-1,6.509332E-1,0E0,0E0,0E0,6.119148E-1,0E0,1.1911917E0,0E0,0E0,0E0,1.4410267E0,0E0,0E0,0E0,0E0,0E0,0E0,0E0],"parents":[2147483647,0,0,1,1,2,2,3,3,4,4,5,5,6,6,9,9,10,10,14,14,15,15,16,16,17,17,18,18,19,19,23,23,25,25,29,29],"right_children":[2,4,6,8,10,12,14,-1,-1,16,18,-1,-1,-1,20,22,24,26,28,30,-1,-1,-1,32,-1,34,-1,-1,-1,36,-1,-1,-1,-1,-1,-1,-1],"split_conditions":[3.3E1,3.0150754E-2,4.0201005E-2,8E0,2.3E1,2.0100502E-2,1.1557789E-1,1.3010612E-1,4.4233743E-3,1.3E1,8.0904526E-1,5.8131184E-2,-2.1780373E-1,2.3803927E-1,8.442211E-1,9E0,6.5829146E-1,7.1859294E-1,2.9E1,5.7E1,1.7518543E-1,-1.8823E-1,-3.1024007E-2,1.9E1,-6.5944076E-2,5.879397E-1,-2.6072732E-1,-4.848891E-2,7.702493E-2,5.1E1,-1.4035055E-1,2.411528E-1,-1.4085504E-2,-1.6451961E-1,6.965537E-2,3.6747465E-4,1.8446389E-1],"split_indices":[2,4,4,2,2,4,4,0,0,2,4,0,0,0,4,2,4,4,2,2,0,0,0,2,0,4,0,0,0,2,0,0,0,0,0,0,0],"split_type":[0,0,0,0,0,0,0,0,0,0,0,0,0,0,0,0,0,0,0,0,0,0,0,0,0,0,0,0,0,0,0,0,0,0,0,0,0],"sum_hessian":[6.3187283E1,2.0341225E1,4.2846058E1,2.4313412E0,1.7909883E1,2.3807013E0,4.046536E1,1.0324476E0,1.3988935E0,6.198851E0,1.1711033E1,1.1914423E0,1.189259E0,2.675364E0,3.7789993E1,2.714384E0,3.4844668E0,9.262807E0,2.4482255E0,3.5959652E1,1.8303417E0,1.3804923E0,1.3338919E0,2.4089055E0,1.0755614E0,7.4390454E0,1.8237617E0,1.0262222E0,1.4220033E0,3.4610382E1,1.3492706E0,1.2081318E0,1.2007737E0,5.269031E0,2.1700144E0,3.1249044E1,3.361338E0],"tree_param":{"num_deleted":"0","num_feature":"8","num_nodes":"37","size_leaf_vector":"1"}},{"base_weights":[6.8165506E-3,-2.0683578E-1,8.524268E-2,2.4103252E-2,-4.4863713E-1,4.05474E-2,5.408188E-1,1.4808653E-1,-1.0532097E-1,-2.514829E-1,-2.540734E-1,1.18773974E-1,-4.060798E-1,8.856786E-3,2.3742722E-1,-4.2048195E-1,2.8328577E-1,4.057467E-2,-3.934714E-1,4.020557E-2,4.938339E-1,-2.7801841E-1,-1.08801415E-2,-2.4356288E-1,-7.5821504E-2,1.284175E-1,-3.961688E-3,-5.456753E-1,-1.2818193E-1,9.572397E-2,-4.894809E-1,2.4660975E-1,2.0688927E-1,3.1302282E-1,-1.2620603E-1,-7.458941E-2,6.0797546E-2,-3.8173653E-2,-2.073075E-1,-6.331378E-2,4.1782944E-3,-1.2184242E-4,1.696989E-1,-3.7594907E-2,-1.9412223E-1,1.19059406E-1,-1.6415538E-2,4.598961E-3,1.3171694E-1],"categories":[],"categories_nodes":[],"categories_segments":[],"categories_sizes":[],"default_left":[0,0,0,0,0,0,0,0,0,0,0,0,0,0,0,0,0,0,0,0,0,0,0,0,0,0,0,0,0,0,0,0,0,0,0,0,0,0,0,0,0,0,0,0,0,0,0,0,0],"id":7,"left_children":[1,3,5,7,9,11,13,-1,15,-1,17,19,21,-1,-1,23,25,-1,27,29,31,-1,33,-1,35,-1,-1,37,39,41,43,45,-1,47,-1,-1,-1,-1,-1,-1,-1,-1,-1,-1,-1,-1,-1,-1,-1],"loss_changes":[1.0713104E0,9.6999276E-1,9.291264E-1,6.435428E-1,4.2700708E-1,1.5720668E0,5.009395E-1,0E0,1.1546767E0,0E0,4.3666235E-1,1.0966334E0,1.3740467E0,0E0,0E0,6.2256694E-1,1.9382876E-1,0E0,1.5045458E-1,1.000086E0,1.4329112E-1,0E0,7.736097E-1,0E0,2.3324512E-1,0E0,0E0,1.0434449E-1,4.176385E-2,1.3634374E0,1.0478288E-1,2.2173324E-1,0E0,1.161263E-1,0E0,0E0,0E0,0E0,0E0,0E0,0E0,0E0,0E0,0E0,0E0,0E0,0E0,0E0,0E0],"parents":[2147483647,0,0,1,1,2,2,3,3,4,4,5,5,6,6,8,8,10,10,11,11,12,12,15,15,16,16,18,18,19,19,20,20,22,22,24,24,27,27,28,28,29,29,30,30,31,31,33,33],"right_children":[2,4,6,8,10,12,14,-1,16,-1,18,20,22,-1,-1,24,26,-1,28,30,32,-1,34,-1,36,-1,-1,38,40,42,44,46,-1,48,-1,-1,-1,-1,-1,-1,-1,-1,-1,-1,-1,-1,-1,-1,-1],"split_conditions":[3.1E1,4.522613E-1,8.0904526E-1,7E0,5.879397E-1,6.080402E-1,3.9E1,1.4808653E-1,1.4070351E-1,-2.514829E-1,7.1859294E-1,5.0753766E-1,6.381909E-1,8.856786E-3,2.3742722E-1,1.3E1,2.3E1,4.057467E-2,8.743719E-1,4.5728642E-1,4.4E1,-2.7801841E-1,7.085427E-1,-2.4356288E-1,4E2,1.284175E-1,-3.961688E-3,2.6E1,2.7E1,4.0201005E-1,4.1E1,5.276382E-1,2.0688927E-1,6.633166E-1,-1.2620603E-1,-7.458941E-2,6.0797546E-2,-3.8173653E-2,-2.073075E-1,-6.331378E-2,4.1782944E-3,-1.2184242E-4,1.696989E-1,-3.7594907E-2,-1.9412223E-1,1.19059406E-1,-1.6415538E-2,4.598961E-3,1.3171694E-1],"split_indices":[2,4,4,2,4,4,2,0,4,0,4,4,4,0,0,2,2,0,4,4,2,0,4,0,1,0,0,2,2,4,2,4,0,4,0,0,0,0,0,0,0,0,0,0,0,0,0,0,0],"split_type":[0,0,0,0,0,0,0,0,0,0,0,0,0,0,0,0,0,0,0,0,0,0,0,0,0,0,0,0,0,0,0,0,0,0,0,0,0,0,0,0,0,0,0,0,0,0,0,0,0],"sum_hessian":[6.1883976E1,1.6176857E1,4.570712E1,8.734781E0,7.4420753E0,4.2615257E1,3.0918598E0,1.2794125E0,7.455369E0,1.3766538E0,6.0654216E0,3.6888344E1,5.726914E0,1.3846465E0,1.7072133E0,4.0714164E0,3.3839526E0,1.607006E0,4.4584155E0,3.1414717E1,5.4736285E0,1.8908666E0,3.8360474E0,1.2716994E0,2.799717E0,1.9755654E0,1.4083873E0,2.1614351E0,2.2969804E0,2.9175959E1,2.2387583E0,3.4177303E0,2.0558984E0,2.2744987E0,1.561549E0,1.7937782E0,1.0059389E0,1.04076E0,1.1206751E0,1.1445192E0,1.1524612E0,2.5050745E1,4.125212E0,1.2184246E0,1.0203338E0,2.0689921E0,1.348738E0,1.0101486E0,1.2643499E0],"tree_param":{"num_deleted":"0","num_feature":"8","num_nodes":"49","size_leaf_vector":"1"}},{"base_weights":[3.188375E-5,-2.519606E-1,5.460595E-2,-9.395056E-2,-2.247604E-1,2.0620326E-2,4.7348145E-1,4.3571904E-2,-1.873788E-1,8.108678E-2,-2.2755894E-1,2.9552022E-1,-7.775776E-2,-1.8897732E-1,4.0195298E-1,1.9237383E-1,4.881274E-2,-4.959469E-1,4.7679804E-2,1.262842E-1,-1.5243614E-1,7.500167E-4,1.7222089E-1,-2.1634239E-1,9.1113545E-2,-2.196217E-1,-6.5281624E-3,1.9571538E-1,-2.2950332E-1,-1.6579784E-2,8.229305E-2,2.9893438E-3,1.2312201E-1,-1.5160264E-1,9.776761E-2],"categories":[],"categories_nodes":[],"categories_segments":[],"categories_sizes":[],"default_left":[0,0,0,0,0,0,0,0,0,0,0,0,0,0,0,0,0,0,0,0,0,0,0,0,0,0,0,0,0,0,0,0,0,0,0],"id":8,"left_children":[1,3,5,7,-1,9,11,13,-1,15,17,-1,-1,19,21,-1,23,25,27,29,-1,-1,-1,-1,31,-1,-1,-1,33,-1,-1,-1,-1,-1,-1],"loss_changes":[8.608755E-1,8.051606E-1,7.227329E-1,7.277688E-1,0E0,7.483505E-1,1.6856422E0,7.8925925E-1,0E0,6.8908197E-1,7.4695116E-1,0E0,0E0,6.548536E-1,2.5211984E-1,0E0,1.3280704E0,5.4896176E-1,1.1128911E0,1.1605413E-1,0E0,0E0,0E0,0E0,9.708706E-1,0E0,0E0,0E0,8.81659E-1,0E0,0E0,0E0,0E0,0E0,0E0],"parents":[2147483647,0,0,1,1,2,2,3,3,5,5,6,6,7,7,9,9,10,10,13,13,14,14,16,16,17,17,18,18,19,19,24,24,28,28],"right_children":[2,4,6,8,-1,10,12,14,-1,16,18,-1,-1,20,22,-1,24,26,28,30,-1,-1,-1,-1,32,-1,-1,-1,34,-1,-1,-1,-1,-1,-1],"split_conditions":[2.6E1,2.4E1,8.743719E-1,8.040201E-1,-2.247604E-1,6.080402E-1,6E2,4E2,-1.873788E-1,2.8E1,6.934673E-1,2.9552022E-1,-7.775776E-2,1.1E1,2.8140703E-1,1.9237383E-1,3.1E1,6E2,7.2864324E-1,1.356784E-1,-1.5243614E-1,7.500167E-4,1.7222089E-1,-2.1634239E-1,6E2,-2.196217E-1,-6.5281624E-3,1.9571538E-1,3.9E1,-1.6579784E-2,8.229305E-2,2.9893438E-3,1.2312201E-1,-1.5160264E-1,9.776761E-2],"split_indices":[2,2,4,4,0,4,1,3,0,2,4,0,0,2,4,0,2,3,4,4,0,0,0,0,1,0,0,0,2,0,0,0,0,0,0],"split_type":[0,0,0,0,0,0,0,0,0,0,0,0,0,0,0,0,0,0,0,0,0,0,0,0,0,0,0,0,0,0,0,0,0,0,0],"sum_hessian":[6.0598404E1,1.0143685E1,5.0454716E1,8.59983E0,1.5438561E0,4.7638756E1,2.815961E0,7.5587792E0,1.0410502E0,3.884727E1,8.791484E0,1.4553133E0,1.3606474E0,4.8708405E0,2.687939E0,1.0883694E0,3.7758904E1,4.045145E0,4.746339E0,2.754321E0,2.1165192E0,1.1149225E0,1.5730164E0,1.1306691E0,3.6628235E1,2.3373775E0,1.7077675E0,1.0663528E0,3.6799862E0,1.5185294E0,1.2357917E0,3.0027807E1,6.6004267E0,2.5190258E0,1.1609603E0],"tree_param":{"num_deleted":"0","num_feature":"8","num_nodes":"35","size_leaf_vector":"1"}},{"base_weights":[-2.8456245E-3,-2.4152413E-2,1.687767E-1,1.2374715E-2,-5.760497E-1,-2.9346094E-2,2.0839585E-1,-3.3001173E-1,1.1842987E-1,2.7240837E-1,-1.0033151E-1,9.697182E-2,2.7894127E-1,-1.7187737E-1,-6.168016E-2,-7.402012E-2,1.0231173E-1,1.8016425E-1,-2.8926259E-2],"categories":[],"categories_nodes":[],"categories_segments":[],"categories_sizes":[],"default_left":[0,0,0,0,0,0,0,0,0,0,0,0,0,0,0,0,0,0,0],"id":9,"left_children":[1,3,-1,5,7,9,-1,-1,-1,11,13,15,-1,-1,17,-1,-1,-1,-1],"loss_changes":[7.4333614E-1,1.203202E0,0E0,1.632291E0,2.3185198E0,1.1909503E0,0E0,0E0,0E0,1.1340384E0,7.813302E-1,8.8066566E-1,0E0,0E0,1.0345073E0,0E0,0E0,0E0,0E0],"parents":[2147483647,0,0,1,1,3,3,4,4,5,5,9,9,10,10,11,11,14,14],"right_children":[2,4,-1,6,8,10,-1,-1,-1,12,14,16,-1,-1,18,-1,-1,-1,-1],"split_conditions":[5.9E1,5.5E1,1.687767E-1,5.1E1,6E2,1.8592964E-1,2.0839585E-1,-3.3001173E-1,1.1842987E-1,1.4572865E-1,2.2613065E-1,2.6E1,2.7894127E-1,-1.7187737E-1,2.4120604E-1,-7.402012E-2,1.0231173E-1,1.8016425E-1,-2.8926259E-2],"split_indices":[2,2,0,2,1,4,0,0,0,4,4,2,0,0,4,0,0,0,0],"split_type":[0,0,0,0,0,0,0,0,0,0,0,0,0,0,0,0,0,0,0],"sum_hessian":[5.95721E1,5.8331337E1,1.2407647E0,5.5627247E1,2.7040923E0,5.332354E1,2.3037074E0,1.6697509E0,1.0343413E0,9.614669E0,4.370887E1,8.49512E0,1.1195488E0,2.2594545E0,4.1449413E1,3.5229843E0,4.972136E0,1.2542535E0,4.019516E1],"tree_param":{"num_deleted":"0","num_feature":"8","num_nodes":"19","size_leaf_vector":"1"}},{"base_weights":[6.0929162E-3,-1.178516E-2,1.4430347E-1,1.8394187E-2,-4.847267E-1,-1.4955263E-2,1.7918395E-1,-2.8314105E-1,1.02095544E-1,2.2586614E-1,-7.064662E-2,7.247615E-2,2.4419165E-1,-2.544515E-1,-9.136359E-3,5.722208E-2,-1.0433546E-1,2.5649955E-3,-1.1099149E-1,-4.8337597E-2,4.066972E-2],"categories":[],"categories_nodes":[],"categories_segments":[],"categories_sizes":[],"default_left":[0,0,0,0,0,0,0,0,0,0,0,0,0,0,0,0,0,0,0,0,0],"id":10,"left_children":[1,3,-1,5,7,9,-1,-1,-1,11,13,15,-1,17,19,-1,-1,-1,-1,-1,-1],"loss_changes":[5.134249E-1,8.4543854E-1,0E0,1.0911286E0,1.6666018E0,7.3989725E-1,0E0,0E0,0E0,8.770698E-1,5.019388E-1,5.299418E-1,0E0,3.4180725E-1,7.796302E-1,0E0,0E0,0E0,0E0,0E0,0E0],"parents":[2147483647,0,0,1,1,3,3,4,4,5,5,9,9,10,10,11,11,13,13,14,14],"right_children":[2,4,-1,6,8,10,-1,-1,-1,12,14,16,-1,18,20,-1,-1,-1,-1,-1,-1],"split_conditions":[5.9E1,5.5E1,1.4430347E-1,5.1E1,6E2,1.8592964E-1,1.7918395E-1,-2.8314105E-1,1.02095544E-1,1.4572865E-1,3.1E1,1.2060302E-1,2.4419165E-1,4.522613E-1,4.0201005E-1,5.722208E-2,-1.0433546E-1,2.5649955E-3,-1.1099149E-1,-4.8337597E-2,4.066972E-2],"split_indices":[2,2,0,2,1,4,0,0,0,4,2,4,0,4,4,0,0,0,0,0,0],"split_type":[0,0,0,0,0,0,0,0,0,0,0,0,0,0,0,0,0,0,0,0,0],"sum_hessian":[5.8801918E1,5.760846E1,1.1934569E0,5.5056313E1,2.552147E0,5.2978405E1,2.0779066E0,1.5472658E0,1.004881E0,9.376543E0,4.3601864E1,8.327736E0,1.0488063E0,1.0146217E1,3.3455647E1,6.925106E0,1.4026302E0,3.3791003E0,6.7671165E0,1.6261625E1,1.7194021E1],"tree_param":{"num_deleted":"0","num_feature":"8","num_nodes":"21","size_leaf_vector":"1"}},{"base_weights":[7.996043E-3,-1.8442114E-1,4.861454E-2,-5.4102104E-2,-1.9312768E-1,1.0204147E-2,3.6570108E-1,5.569251E-2,-8.8882476E-2,4.562516E-2,-1.5095149E-1,8.960328E-2,2.0355523E-1,-1.0513066E-1,1.477599E-1,1.57548E-1,8.056596E-3,1.2714289E-1,-1.2207312E-1,1.2549496E-1,-3.247013E-1,4.988783E-2,-3.106575E-1,-2.3075761E-1,2.4746802E-2,-4.303587E-3,1.122927E-1,-2.4243887E-1,4.7299538E-2],"categories":[],"categories_nodes":[],"categories_segments":[],"categories_sizes":[],"default_left":[0,0,0,0,0,0,0,0,0,0,0,0,0,0,0,0,0,0,0,0,0,0,0,0,0,0,0,0,0],"id":11,"left_children":[1,3,5,7,-1,9,11,13,-1,15,-1,17,-1,19,-1,-1,21,-1,-1,-1,23,25,27,-1,-1,-1,-1,-1,-1],"loss_changes":[4.6947482E-1,5.924282E-1,5.9844834E-1,2.625717E-1,0E0,8.435964E-1,3.981101E-1,5.582697E-1,0E0,7.7283084E-1,0E0,8.319726E-1,0E0,8.361807E-1,0E0,0E0,5.6231827E-1,0E0,0E0,0E0,9.4231766E-1,7.788557E-1,1.2683074E0,0E0,0E0,0E0,0E0,0E0,0E0],"parents":[2147483647,0,0,1,1,2,2,3,3,5,5,6,6,7,7,9,9,11,11,13,13,16,16,20,20,21,21,22,22],"right_children":[2,4,6,8,-1,10,12,14,-1,16,-1,18,-1,20,-1,-1,22,-1,-1,-1,24,26,28,-1,-1,-1,-1,-1,-1],"split_conditions":[2.6E1,2.4E1,8.0904526E-1,4.522613E-1,-1.9312768E-1,7.1859294E-1,3.9E1,2.8140703E-1,-8.8882476E-2,2.9E1,-1.5095149E-1,6E2,2.0355523E-1,7E0,1.477599E-1,1.57548E-1,6.080402E-1,1.2714289E-1,-1.2207312E-1,1.2549496E-1,6.532663E-2,5.0753766E-1,6.381909E-1,-2.3075761E-1,2.4746802E-2,-4.303587E-3,1.122927E-1,-2.4243887E-1,4.7299538E-2],"split_indices":[2,2,4,4,0,4,2,4,0,2,0,1,0,2,0,0,4,0,0,0,4,4,4,0,0,0,0,0,0],"split_type":[0,0,0,0,0,0,0,0,0,0,0,0,0,0,0,0,0,0,0,0,0,0,0,0,0,0,0,0,0],"sum_hessian":[5.792108E1,9.478654E0,4.8442425E1,8.254537E0,1.2241174E0,4.412902E1,4.313404E0,6.2093945E0,2.0451422E0,4.213312E1,1.9959013E0,2.9744961E0,1.3389078E0,5.0935416E0,1.1158528E0,2.118125E0,4.0014996E1,1.8653482E0,1.109148E0,1.2377179E0,3.8558238E0,3.611798E1,3.8970141E0,1.4184343E0,2.4373894E0,3.094656E1,5.1714206E0,1.5378559E0,2.3591583E0],"tree_param":{"num_deleted":"0","num_feature":"8","num_nodes":"29","size_leaf_vector":"1"}},{"base_weights":[3.1744195E-3,-1.1771035E-2,1.20795056E-1,1.2666457E-2,-1.2185219E-1,-2.946567E-2,3.6232996E-1,1.7346013E-1,-1.1187514E-1,-4.7434032E-2,2.321883E-1,-7.1362436E-2,3.2338977E-1,-2.843244E-1,-4.660848E-2,8.819611E-2,-8.351033E-2,5.0138664E-2,-1.3700843E-1,-1.617166E-2,1.4553839E-1,4.097435E-2,-4.42807E-2],"categories":[],"categories_nodes":[],"categories_segments":[],"categories_sizes":[],"default_left":[0,0,0,0,0,0,0,0,0,0,0,0,0,0,0,0,0,0,0,0,0,0,0],"id":12,"left_children":[1,3,-1,5,-1,7,9,11,13,15,-1,17,19,-1,21,-1,-1,-1,-1,-1,-1,-1,-1],"loss_changes":[3.5105327E-1,5.53418E-1,0E0,8.141055E-1,0E0,8.488048E-1,1.0385869E0,5.632566E-1,1.9132462E0,3.9082476E-1,0E0,6.652646E-1,5.941367E-1,0E0,6.5535605E-1,0E0,0E0,0E0,0E0,0E0,0E0,0E0,0E0],"parents":[2147483647,0,0,1,1,3,3,5,5,6,6,7,7,8,8,9,9,11,11,12,12,14,14],"right_children":[2,4,-1,6,-1,8,10,12,14,16,-1,18,20,-1,22,-1,-1,-1,-1,-1,-1,-1,-1],"split_conditions":[5.9E1,5.5E1,1.20795056E-1,4.9E1,-1.2185219E-1,2.713568E-1,2.512563E-1,9.045226E-2,2.8140703E-1,1.2562814E-1,2.321883E-1,4E2,3.3E1,-2.843244E-1,4.2211056E-1,8.819611E-2,-8.351033E-2,5.0138664E-2,-1.3700843E-1,-1.617166E-2,1.4553839E-1,4.097435E-2,-4.42807E-2],"split_indices":[2,2,0,2,0,4,4,4,4,4,0,3,2,0,4,0,0,0,0,0,0,0,0],"split_type":[0,0,0,0,0,0,0,0,0,0,0,0,0,0,0,0,0,0,0,0,0,0,0],"sum_hessian":[5.7005615E1,5.588533E1,1.1202855E0,5.353608E1,2.3492503E0,4.8596283E1,4.9397974E0,1.3716296E1,3.4879986E1,2.918901E0,2.0208964E0,5.4085746E0,8.307722E0,1.5469508E0,3.3333035E1,1.0675534E0,1.8513474E0,3.6906297E0,1.7179451E0,2.6927984E0,5.6149235E0,1.1720752E1,2.1612282E1],"tree_param":{"num_deleted":"0","num_feature":"8","num_nodes":"23","size_leaf_vector":"1"}},{"base_weights":[2.7337014E-3,-1.4714792E-1,3.3645626E-2,3.5205014E-2,-4.0900922E-1,-1.9538575E-3,3.3585444E-1,-1.7330116E-1,2.867864E-1,-2.2871284E-2,-1.6463849E-1,2.5733741E-2,-1.2465221E-1,9.676112E-2,1.8567498E-1,1.0007276E-1,-1.4755018E-1,1.66334E-2,1.1294736E-1,1.2275472E-1,-5.43345E-3,1.10252075E-1,-9.873014E-2,3.6418755E-2,8.361515E-3,-1.3535585E-1,1.7691568E-2,1.5661327E-2,-7.5310744E-2],"categories":[],"categories_nodes":[],"categories_segments":[],"categories_sizes":[],"default_left":[0,0,0,0,0,0,0,0,0,0,0,0,0,0,0,0,0,0,0,0,0,0,0,0,0,0,0,0,0],"id":13,"left_children":[1,3,5,7,9,11,13,15,17,-1,-1,19,-1,21,-1,23,-1,-1,-1,-1,25,-1,-1,-1,-1,-1,27,-1,-1],"loss_changes":[2.696898E-1,4.8980594E-1,5.1904804E-1,4.0586242E-1,1.519602E-1,5.156606E-1,2.8416514E-1,4.2679316E-1,5.079791E-2,0E0,0E0,5.074552E-1,0E0,5.753645E-1,0E0,1.4881529E-3,0E0,0E0,0E0,0E0,4.2117208E-1,0E0,0E0,0E0,0E0,0E0,3.754577E-1,0E0,0E0],"parents":[2147483647,0,0,1,1,2,2,3,3,4,4,5,5,6,6,7,7,8,8,11,11,13,13,15,15,20,20,26,26],"right_children":[2,4,6,8,10,12,14,16,18,-1,-1,20,-1,22,-1,24,-1,-1,-1,-1,26,-1,-1,-1,-1,-1,28,-1,-1],"split_conditions":[2.6E1,2.1E1,8.0904526E-1,1.3E1,3.0653265E-1,7.1859294E-1,3.9E1,2.562814E-1,1.2060302E-1,-2.2871284E-2,-1.6463849E-1,2.9E1,-1.2465221E-1,6E2,1.8567498E-1,4.522613E-2,-1.4755018E-1,1.66334E-2,1.1294736E-1,1.2275472E-1,4E2,1.10252075E-1,-9.873014E-2,3.6418755E-2,8.361515E-3,-1.3535585E-1,6.080402E-1,1.5661327E-2,-7.5310744E-2],"split_indices":[2,2,4,2,4,4,2,4,4,0,0,2,0,1,0,4,0,0,0,0,1,0,0,0,0,0,4,0,0],"split_type":[0,0,0,0,0,0,0,0,0,0,0,0,0,0,0,0,0,0,0,0,0,0,0,0,0,0,0,0,0],"sum_hessian":[5.6140408E1,8.955917E0,4.7184494E1,5.789694E0,3.1662235E0,4.310085E1,4.0836434E0,3.336016E0,2.453678E0,1.3937274E0,1.7724961E0,4.1275227E1,1.8256215E0,2.9411702E0,1.1424731E0,2.164345E0,1.1716707E0,1.1377047E0,1.3159732E0,2.1909864E0,3.908424E1,1.8818148E0,1.0593553E0,1.1448722E0,1.019473E0,1.0146837E0,3.8069557E1,3.4450756E1,3.618801E0],"tree_param":{"num_deleted":"0","num_feature":"8","num_nodes":"29","size_leaf_vector":"1"}},{"base_weights":[-1.2651709E-3,-1.3703643E-2,1.0041152E-1,6.540384E-3,-1.0111989E-1,-2.8264338E-2,3.0907047E-1,1.40970675E-2,-3.1387413E-1,-4.317318E-2,2.1194568E-1,2.8403574E-1,-5.7383165E-2,-9.663019E-3,-2.1992391E-1,7.3809944E-2,-6.970319E-2,-2.3148246E-2,1.6313684E-1,-2.8433563E-2,1.12202115E-1,1.0830433E-1,-1.8671916E-1],"categories":[],"categories_nodes":[],"categories_segments":[],"categories_sizes":[],"default_left":[0,0,0,0,0,0,0,0,0,0,0,0,0,0,0,0,0,0,0,0,0,0,0],"id":14,"left_children":[1,3,-1,5,-1,7,9,11,13,15,-1,17,19,21,-1,-1,-1,-1,-1,-1,-1,-1,-1],"loss_changes":[2.4121176E-1,3.659236E-1,0E0,5.69637E-1,0E0,5.935134E-1,8.1161636E-1,8.529013E-1,8.0039704E-1,2.7055708E-1,0E0,9.0939885E-1,6.018794E-1,1.288223E0,0E0,0E0,0E0,0E0,0E0,0E0,0E0,0E0,0E0],"parents":[2147483647,0,0,1,1,3,3,5,5,6,6,7,7,8,8,9,9,11,11,12,12,13,13],"right_children":[2,4,-1,6,-1,8,10,12,14,16,-1,18,20,22,-1,-1,-1,-1,-1,-1,-1,-1,-1],"split_conditions":[5.9E1,5.5E1,1.0041152E-1,4.9E1,-1.0111989E-1,6E2,2.512563E-1,1.959799E-1,4E1,1.2562814E-1,2.1194568E-1,4E2,8.743719E-1,8.1407034E-1,-2.1992391E-1,7.3809944E-2,-6.970319E-2,-2.3148246E-2,1.6313684E-1,-2.8433563E-2,1.12202115E-1,1.0830433E-1,-1.8671916E-1],"split_indices":[2,2,0,2,0,3,4,4,2,4,0,1,4,4,0,0,0,0,0,0,0,0,0],"split_type":[0,0,0,0,0,0,0,0,0,0,0,0,0,0,0,0,0,0,0,0,0,0,0],"sum_hessian":[5.562301E1,5.4562187E1,1.0608194E0,5.2269634E1,2.2925522E0,4.768972E1,4.579914E0,4.235788E1,5.331843E0,2.9004784E0,1.6794356E0,8.245576E0,3.41123E1,3.6825342E0,1.6493087E0,1.0281084E0,1.8723701E0,3.7433138E0,4.502262E0,3.2109188E1,2.0031133E0,2.5504422E0,1.1320922E0],"tree_param":{"num_deleted":"0","num_feature":"8","num_nodes":"23","size_leaf_vector":"1"}},{"base_weights":[2.225481E-3,-1.1519441E-1,4.430691E-2,6.214619E-2,-1.828833E-1,1.4022397E-3,3.5810408E-1,4.8201054E-2,-3.0791563E-1,4.504212E-2,-4.123855E-1,1.03304155E-1,1.6472736E-1,-3.1688264E-1,1.2923397E-1,-4.2950258E-1,4.675137E-2,-1.0375705E-2,3.1483704E-1,2.2745835E-2,-1.9574738E-1,1.1908784E-1,-8.8800915E-2,-1.3629898E-1,-8.716235E-3,-2.1297593E-2,-1.6526878E-1,4.06701E-2,-3.5720497E-1,1.3301265E-1,1.4887892E-1,9.51603E-2,-3.56434E-2,-1.5541235E-1,-1.38782505E-2,7.813847E-2,-2.5497675E-2],"categories":[],"categories_nodes":[],"categories_segments":[],"categories_sizes":[],"default_left":[0,0,0,0,0,0,0,0,0,0,0,0,0,0,0,0,0,0,0,0,0,0,0,0,0,0,0,0,0,0,0,0,0,0,0,0,0],"id":15,"left_children":[1,3,5,-1,7,9,11,13,15,17,19,21,-1,23,-1,25,-1,27,29,-1,-1,-1,-1,-1,-1,-1,-1,31,33,35,-1,-1,-1,-1,-1,-1,-1],"loss_changes":[2.8164694E-1,3.661269E-1,5.639257E-1,0E0,3.8940963E-1,7.0268095E-1,1.8847555E-1,8.9301693E-1,5.489051E-1,5.291361E-1,4.846846E-1,5.1505876E-1,0E0,1.1923832E-1,0E0,2.6720703E-1,0E0,5.482459E-1,1.3275301E-1,0E0,0E0,0E0,0E0,0E0,0E0,0E0,0E0,1.2362157E0,1.7457342E-1,1.4370951E-1,0E0,0E0,0E0,0E0,0E0,0E0,0E0],"parents":[2147483647,0,0,1,1,2,2,4,4,5,5,6,6,7,7,8,8,9,9,10,10,11,11,13,13,15,15,17,17,18,18,27,27,28,28,29,29],"right_children":[2,4,6,-1,8,10,12,14,16,18,20,22,-1,24,-1,26,-1,28,30,-1,-1,-1,-1,-1,-1,-1,-1,32,34,36,-1,-1,-1,-1,-1,-1,-1],"split_conditions":[3.1E1,3.0150754E-2,6.934673E-1,6.214619E-2,2.1E1,6.080402E-1,3.9E1,1.3E1,8.743719E-1,5.0753766E-1,3.5E1,3.6E1,1.6472736E-1,9E0,1.2923397E-1,2.4E1,4.675137E-2,4.4723618E-1,4.4E1,2.2745835E-2,-1.9574738E-1,1.1908784E-1,-8.8800915E-2,-1.3629898E-1,-8.716235E-3,-2.1297593E-2,-1.6526878E-1,4.2E1,4.723618E-1,5.276382E-1,1.4887892E-1,9.51603E-2,-3.56434E-2,-1.5541235E-1,-1.38782505E-2,7.813847E-2,-2.5497675E-2],"split_indices":[2,4,4,0,2,4,2,2,4,4,2,2,0,2,0,2,0,4,2,0,0,0,0,0,0,0,0,2,4,4,0,0,0,0,0,0,0],"split_type":[0,0,0,0,0,0,0,0,0,0,0,0,0,0,0,0,0,0,0,0,0,0,0,0,0,0,0,0,0,0,0,0,0,0,0,0,0],"sum_hessian":[5.4966812E1,1.4043576E1,4.0923237E1,2.0796194E0,1.1963957E1,3.688457E1,4.038663E0,4.416284E0,7.5476727E0,3.417181E1,2.712763E0,2.3904321E0,1.6482308E0,2.347681E0,2.0686033E0,6.0383844E0,1.5092883E0,2.914646E1,5.0253506E0,1.1199015E0,1.5928614E0,1.3808315E0,1.0096005E0,1.1974069E0,1.150274E0,1.9283133E0,4.110071E0,2.6176569E1,2.96989E0,3.3755448E0,1.6498059E0,9.212943E0,1.6963625E1,1.518446E0,1.4514441E0,2.0072975E0,1.3682473E0],"tree_param":{"num_deleted":"0","num_feature":"8","num_nodes":"37","size_leaf_vector":"1"}},{"base_weights":[1.3529179E-3,-2.7592463E-2,1.6339481E-1,1.04211345E-2,-2.8756315E-1,-1.5136762E-1,4.288046E-1,2.1003105E-1,-4.16621E-2,6.2262967E-2,-5.277782E-1,7.085081E-2,-1.212543E-1,4.264993E-2,5.02064E-1,-5.2774236E-2,4.8084202E-1,-2.9069757E-1,1.7121319E-2,-9.493051E-2,1.318866E-1,-4.5887448E-2,-1.920029E-1,1.9537975E-1,2.6660267E-2,-9.666684E-2,2.0392148E-1,4.6299733E-3,2.1150216E-1,-6.0012292E-2,-2.2361399E-1,2.4472657E-1,-2.9181803E-2,1.1894045E-1,-3.7235897E-2,-1.5148847E-1,4.8774056E-2,9.272605E-3,1.3534601E-1,-1.4036097E-1,1.4349564E-2],"categories":[],"categories_nodes":[],"categories_segments":[],"categories_sizes":[],"default_left":[0,0,0,0,0,0,0,0,0,0,0,0,0,0,0,0,0,0,0,0,0,0,0,0,0,0,0,0,0,0,0,0,0,0,0,0,0,0,0,0,0],"id":16,"left_children":[1,3,5,7,9,11,13,15,17,19,21,-1,-1,-1,23,25,27,29,31,-1,-1,-1,-1,-1,-1,-1,33,-1,-1,35,-1,37,39,-1,-1,-1,-1,-1,-1,-1,-1],"loss_changes":[2.641228E-1,4.7554803E-1,7.7778083E-1,4.5249024E-1,5.484059E-1,5.5032796E-1,3.131771E-2,6.6575825E-1,5.127291E-1,6.238642E-1,5.9554696E-2,0E0,0E0,0E0,1.5789437E-1,4.4387648E-1,4.6176147E-1,6.558433E-1,3.1282333E-1,0E0,0E0,0E0,0E0,0E0,0E0,0E0,2.6475066E-1,0E0,0E0,6.286779E-1,0E0,2.0717508E-1,8.6685205E-1,0E0,0E0,0E0,0E0,0E0,0E0,0E0,0E0],"parents":[2147483647,0,0,1,1,2,2,3,3,4,4,5,5,6,6,7,7,8,8,9,9,10,10,14,14,15,15,16,16,17,17,18,18,26,26,29,29,31,31,32,32],"right_children":[2,4,6,8,10,12,14,16,18,20,22,-1,-1,-1,24,26,28,30,32,-1,-1,-1,-1,-1,-1,-1,34,-1,-1,36,-1,38,40,-1,-1,-1,-1,-1,-1,-1,-1],"split_conditions":[4.9E1,6E2,1.9095477E-1,1.959799E-1,3.5E1,1.1557789E-1,2.512563E-1,6.532663E-2,2.8140703E-1,3.1E1,4E1,7.085081E-2,-1.212543E-1,4.264993E-2,5.5E1,2.6E1,4E2,2.713568E-1,3.316583E-1,-9.493051E-2,1.318866E-1,-4.5887448E-2,-1.920029E-1,1.9537975E-1,2.6660267E-2,-9.666684E-2,4.4E1,4.6299733E-3,2.1150216E-1,2.361809E-1,-2.2361399E-1,3.1658292E-1,3.7185928E-1,1.1894045E-1,-3.7235897E-2,-1.5148847E-1,4.8774056E-2,9.272605E-3,1.3534601E-1,-1.4036097E-1,1.4349564E-2],"split_indices":[2,3,4,4,2,4,4,4,4,2,2,0,0,0,2,2,3,4,4,0,0,0,0,0,0,0,2,0,0,4,0,4,4,0,0,0,0,0,0,0,0],"split_type":[0,0,0,0,0,0,0,0,0,0,0,0,0,0,0,0,0,0,0,0,0,0,0,0,0,0,0,0,0,0,0,0,0,0,0,0,0,0,0,0,0],"sum_hessian":[5.435057E1,4.6817356E1,7.5332174E0,4.1682365E1,5.1349907E0,3.6427662E0,3.890451E0,7.997852E0,3.3684513E1,2.3921285E0,2.7428625E0,1.4641736E0,2.1785927E0,1.3905008E0,2.4999502E0,4.467523E0,3.530329E0,5.679238E0,2.8005274E1,1.2745273E0,1.1176012E0,1.1765182E0,1.5663443E0,1.4134133E0,1.0865369E0,2.0550768E0,2.4124463E0,1.4950901E0,2.035239E0,4.518661E0,1.1605769E0,4.009765E0,2.3995508E1,1.3887273E0,1.0237188E0,1.0837537E0,3.4349072E0,2.5343769E0,1.4753882E0,2.8255212E0,2.1169989E1],"tree_param":{"num_deleted":"0","num_feature":"8","num_nodes":"41","size_leaf_vector":"1"}},{"base_weights":[-3.7716664E-4,9.659429E-2,-1.2954149E-2,-2.8317115E-1,9.607994E-3,4.8373986E-2,-2.4653074E-1,-4.624381E-2,2.7462488E-1,-1.5191075E-1,5.5053614E-2,3.7215403E-1,-1.26968995E-2,-8.408504E-2,-1.9580695E-1,3.0471122E-1,-5.4061163E-2,1.2735932E-1,2.4706914E-1,1.4282792E-2,-8.723187E-2,-1.3882823E-1,-5.675957E-4,9.680257E-2,-1.26847075E-2],"categories":[],"categories_nodes":[],"categories_segments":[],"categories_sizes":[],"default_left":[0,0,0,0,0,0,0,0,0,0,0,0,0,0,0,0,0,0,0,0,0,0,0,0,0],"id":17,"left_children":[1,-1,3,5,7,-1,-1,9,11,13,15,17,-1,19,-1,-1,21,23,-1,-1,-1,-1,-1,-1,-1],"loss_changes":[2.2547202E-1,0E0,3.288686E-1,1.1271371E0,7.578262E-1,0E0,0E0,4.6256846E-1,2.910698E-1,6.595901E-1,2.4027958E0,6.5901256E-1,0E0,5.493572E-1,0E0,0E0,4.4823593E-1,2.0135286E-1,0E0,0E0,0E0,0E0,0E0,0E0,0E0],"parents":[2147483647,0,0,2,2,3,3,4,4,7,7,8,8,9,9,10,10,11,11,13,13,16,16,17,17],"right_children":[2,-1,4,6,8,-1,-1,10,12,14,16,18,-1,20,-1,-1,22,24,-1,-1,-1,-1,-1,-1,-1],"split_conditions":[5.0251256E-3,9.659429E-2,4.0201005E-2,4.3E1,4.8E1,4.8373986E-2,-2.4653074E-1,4.0201005E-1,4.0703517E-1,3.919598E-1,4.2211056E-1,2.512563E-1,-1.26968995E-2,4.2E1,-1.9580695E-1,3.0471122E-1,2E1,5E1,2.4706914E-1,1.4282792E-2,-8.723187E-2,-1.3882823E-1,-5.675957E-4,9.680257E-2,-1.26847075E-2],"split_indices":[4,0,4,2,2,0,0,4,4,4,4,4,0,2,0,0,2,2,0,0,0,0,0,0,0],"split_type":[0,0,0,0,0,0,0,0,0,0,0,0,0,0,0,0,0,0,0,0,0,0,0,0,0],"sum_hessian":[5.358438E1,1.0883477E0,5.2496033E1,3.1553273E0,4.9340706E1,2.1126866E0,1.0426404E0,4.1434063E1,7.9066434E0,2.0035093E1,2.139897E1,5.9129634E0,1.9936795E0,1.8673813E1,1.36128E0,1.3352038E0,2.0063765E1,4.665208E0,1.2477558E0,1.1876301E1,6.797512E0,1.3802595E0,1.8683506E1,1.7491901E0,2.9160178E0],"tree_param":{"num_deleted":"0","num_feature":"8","num_nodes":"25","size_leaf_vector":"1"}},{"base_weights":[2.0850934E-3,-8.973595E-2,3.489704E-2,-1.7103776E-2,-1.12686016E-1,6.7787347E-3,1.0839174E-1,6.43168E-2,-1.10422626E-1,4.165324E-2,-1.9502781E-1,-3.408984E-2,1.02969445E-1,-8.356353E-3,3.0891716E-1,-1.6203116E-1,6.4662226E-2,1.2031289E-1,-1.9270845E-1,3.473087E-2,-1.1517029E-1,1.2583663E-1,1.349222E-1,1.0702333E-1,-8.303438E-2,1.7490305E-3,1.031024E-1,-6.942045E-3,9.762189E-2,8.3580926E-2,-2.3511266E-2],"categories":[],"categories_nodes":[],"categories_segments":[],"categories_sizes":[],"default_left":[0,0,0,0,0,0,0,0,0,0,0,0,0,0,0,0,0,0,0,0,0,0,0,0,0,0,0,0,0,0,0],"id":18,"left_children":[1,3,5,7,-1,9,-1,11,-1,13,15,17,-1,19,21,-1,23,25,-1,27,-1,29,-1,-1,-1,-1,-1,-1,-1,-1,-1],"loss_changes":[1.6624936E-1,2.9535782E-1,3.7024862E-1,3.8479152E-1,0E0,2.784207E-1,0E0,3.1660047E-1,0E0,4.512819E-1,5.578176E-1,9.3393016E-1,0E0,4.8668128E-1,8.051193E-2,0E0,5.198495E-1,2.055521E-1,0E0,4.643936E-1,0E0,1.3727696E-1,0E0,0E0,0E0,0E0,0E0,0E0,0E0,0E0,0E0],"parents":[2147483647,0,0,1,1,2,2,3,3,5,5,7,7,9,9,10,10,11,11,13,13,14,14,16,16,17,17,19,19,21,21],"right_children":[2,4,6,8,-1,10,-1,12,-1,14,16,18,-1,20,22,-1,24,26,-1,28,-1,30,-1,-1,-1,-1,-1,-1,-1,-1,-1],"split_conditions":[3.1E1,2.9E1,8.0904526E-1,8.040201E-1,-1.12686016E-1,5.929648E-1,1.0839174E-1,5.879397E-1,-1.10422626E-1,5.0753766E-1,6.381909E-1,4.522613E-1,1.02969445E-1,4.5728642E-1,4.1E1,-1.6203116E-1,6E2,2.8140703E-1,-1.9270845E-1,4.0201005E-1,-1.1517029E-1,5.276382E-1,1.349222E-1,1.0702333E-1,-8.303438E-2,1.7490305E-3,1.031024E-1,-6.942045E-3,9.762189E-2,8.3580926E-2,-2.3511266E-2],"split_indices":[2,2,4,4,0,4,0,4,0,4,4,4,0,4,2,0,1,4,0,4,0,4,0,0,0,0,0,0,0,0,0],"split_type":[0,0,0,0,0,0,0,0,0,0,0,0,0,0,0,0,0,0,0,0,0,0,0,0,0,0,0,0,0,0,0],"sum_hessian":[5.314112E1,1.3533654E1,3.9607468E1,1.1636973E1,1.8966804E0,3.7405922E1,2.2015455E0,1.0108652E1,1.5283214E0,3.2570892E1,4.8350286E0,8.121132E0,1.98752E0,2.8253012E1,4.3178816E0,1.6125159E0,3.2225127E0,7.116816E0,1.0043163E0,2.6159214E1,2.093797E0,2.7005508E0,1.6173307E0,1.7126458E0,1.509867E0,5.3835897E0,1.7332263E0,2.2583435E1,3.5757792E0,1.3364482E0,1.3641026E0],"tree_param":{"num_deleted":"0","num_feature":"8","num_nodes":"31","size_leaf_vector":"1"}},{"base_weights":[-1.9450158E-4,-2.488547E-2,1.4329188E-1,3.301454E-3,-2.2172327E-1,-4.3956872E-2,1.3927643E-1,-2.1825429E-2,1.0252848E-1,8.1376165E-2,-4.3067968E-1,1.17942E-1,-2.4377231E-1,4.699813E-2,-1.8774311E-1,1.0568393E-1,-7.050617E-2,-4.136234E-2,-1.5253359E-1,-5.2725226E-1,1.18345305E-1,-1.1348422E-2,2.9258117E-1,-3.1743962E-1,7.637424E-2,2.6535755E-2,-2.4093476E-1,-5.4762177E-2,3.6584523E-2,2.4829555E-1,-7.305406E-3,-4.7787547E-2,-2.2184022E-1],"categories":[],"categories_nodes":[],"categories_segments":[],"categories_sizes":[],"default_left":[0,0,0,0,0,0,0,0,0,0,0,0,0,0,0,0,0,0,0,0,0,0,0,0,0,0,0,0,0,0,0,0,0],"id":19,"left_children":[1,3,5,7,9,11,-1,13,-1,15,17,-1,19,21,23,-1,-1,-1,-1,25,-1,27,29,31,-1,-1,-1,-1,-1,-1,-1,-1,-1],"loss_changes":[1.9349259E-1,2.5922716E-1,5.0232255E-1,3.624324E-1,4.0559542E-1,6.179182E-1,0E0,4.63246E-1,0E0,3.5952377E-1,1.2373507E-2,0E0,1.0619204E0,4.1781917E-1,7.6163924E-1,0E0,0E0,0E0,0E0,6.9881403E-1,0E0,5.7761043E-1,9.6822405E-1,5.244046E-1,0E0,0E0,0E0,0E0,0E0,0E0,0E0,0E0,0E0],"parents":[2147483647,0,0,1,1,2,2,3,3,4,4,5,5,7,7,9,9,10,10,12,12,13,13,14,14,19,19,21,21,22,22,23,23],"right_children":[2,4,6,8,10,12,-1,14,-1,16,18,-1,20,22,24,-1,-1,-1,-1,26,-1,28,30,32,-1,-1,-1,-1,-1,-1,-1,-1,-1],"split_conditions":[4.9E1,6E2,6E2,8.743719E-1,3.5E1,5E1,1.3927643E-1,4.7738692E-1,1.0252848E-1,6.834171E-1,4E1,1.17942E-1,2.160804E-1,4.0201005E-1,4.2E1,1.0568393E-1,-7.050617E-2,-4.136234E-2,-1.5253359E-1,7.537688E-2,1.18345305E-1,3.6E1,4.2211056E-1,3.8E1,7.637424E-2,2.6535755E-2,-2.4093476E-1,-5.4762177E-2,3.6584523E-2,2.4829555E-1,-7.305406E-3,-4.7787547E-2,-2.2184022E-1],"split_indices":[2,3,3,4,2,2,0,4,0,4,2,0,4,4,2,0,0,0,0,4,0,2,4,2,0,0,0,0,0,0,0,0,0],"split_type":[0,0,0,0,0,0,0,0,0,0,0,0,0,0,0,0,0,0,0,0,0,0,0,0,0,0,0,0,0,0,0,0,0],"sum_hessian":[5.2608944E1,4.559037E1,7.018573E0,4.0739723E1,4.850649E0,4.9776654E0,2.0409074E0,3.879513E1,1.9445895E0,2.228574E0,2.6220748E0,1.258085E0,3.7195802E0,2.7927423E1,1.0867709E1,1.139503E0,1.0890712E0,1.1321651E0,1.4899098E0,2.6960535E0,1.0235267E0,2.3336775E1,4.5906496E0,8.62195E0,2.2457583E0,1.0444E0,1.6516536E0,1.0054466E1,1.3282308E1,1.1082199E0,3.4824297E0,7.2736983E0,1.348252E0],"tree_param":{"num_deleted":"0","num_feature":"8","num_nodes":"33","size_leaf_vector":"1"}},{"base_weights":[2.5106173E-3,8.515998E-2,-1.0298274E-2,-2.7259225E-1,1.4203321E-2,-1.1301731E-3,-1.6694604E-1,-3.0684806E-2,2.312559E-1,-1.1989715E-1,5.6190208E-2,3.3248714E-1,-2.5012119E-2,8.6385354E-2,-1.8161E-1,2.2499135E-1,-1.9075433E-2,1.3110478E-1,2.1244127E-1,-1.4641328E-1,-1.9132823E-2,5.450159E-3,-9.972361E-2,9.524945E-2,-2.7696805E-2],"categories":[],"categories_nodes":[],"categories_segments":[],"categories_sizes":[],"default_left":[0,0,0,0,0,0,0,0,0,0,0,0,0,0,0,0,0,0,0,0,0,0,0,0,0],"id":20,"left_children":[1,-1,3,5,7,-1,-1,9,11,13,15,17,-1,-1,19,-1,21,23,-1,-1,-1,-1,-1,-1,-1],"loss_changes":[1.9335562E-1,0E0,3.3487698E-1,3.3749884E-1,4.753058E-1,0E0,0E0,3.2220066E-1,2.9374468E-1,5.657675E-1,1.1266865E0,4.0036565E-1,0E0,0E0,6.308365E-1,0E0,2.4168086E-1,2.571754E-1,0E0,0E0,0E0,0E0,0E0,0E0,0E0],"parents":[2147483647,0,0,2,2,3,3,4,4,7,7,8,8,9,9,10,10,11,11,14,14,16,16,17,17],"right_children":[2,-1,4,6,8,-1,-1,10,12,14,16,18,-1,-1,20,-1,22,24,-1,-1,-1,-1,-1,-1,-1],"split_conditions":[7E0,8.515998E-2,4.0201005E-2,4.6E1,4.8E1,-1.1301731E-3,-1.6694604E-1,4.0201005E-1,4.0703517E-1,1.7E1,4.2211056E-1,2.512563E-1,-2.5012119E-2,8.6385354E-2,3.4E1,2.2499135E-1,9.1457283E-1,1.4070351E-1,2.1244127E-1,-1.4641328E-1,-1.9132823E-2,5.450159E-3,-9.972361E-2,9.524945E-2,-2.7696805E-2],"split_indices":[2,0,4,2,2,0,0,4,4,2,4,4,0,0,2,0,4,4,0,0,0,0,0,0,0],"split_type":[0,0,0,0,0,0,0,0,0,0,0,0,0,0,0,0,0,0,0,0,0,0,0,0,0],"sum_hessian":[5.184123E1,1.3358868E0,5.050534E1,3.4497423E0,4.70556E1,2.2923467E0,1.1573956E0,3.9703285E1,7.3523126E0,1.9400606E1,2.030268E1,5.5196295E0,1.8326827E0,2.0679488E0,1.7332657E1,1.109671E0,1.9193008E1,4.4715075E0,1.0481222E0,3.9412918E0,1.3391365E1,1.799605E1,1.1969583E0,2.20825E0,2.2632575E0],"tree_param":{"num_deleted":"0","num_feature":"8","num_nodes":"25","size_leaf_vector":"1"}},{"base_weights":[6.113482E-3,8.686369E-2,-5.4387883E-3,-8.554998E-2,9.5334565E-3,-8.383546E-2,2.3024725E-2,2.707432E-1,-2.5926249E-5,-3.6827074E-3,1.1355416E-1,-9.4753355E-2,1.9877795E-2,-5.137386E-4,8.1446424E-2],"categories":[],"categories_nodes":[],"categories_segments":[],"categories_sizes":[],"default_left":[0,0,0,0,0,0,0,0,0,0,0,0,0,0,0],"id":21,"left_children":[1,-1,3,-1,5,-1,7,9,11,-1,-1,-1,13,-1,-1],"loss_changes":[1.7288478E-1,0E0,2.1737161E-1,0E0,1.9987658E-1,0E0,2.759579E-1,1.3013405E-1,2.904848E-1,0E0,0E0,0E0,2.3662543E-1,0E0,0E0],"parents":[2147483647,0,0,2,2,4,4,6,6,7,7,8,8,12,12],"right_children":[2,-1,4,-1,6,-1,8,10,12,-1,-1,-1,14,-1,-1],"split_conditions":[5.0251256E-3,8.686369E-2,2.0100502E-2,-8.554998E-2,9E0,-8.383546E-2,2.1E1,1.3E1,4E2,-3.6827074E-3,1.1355416E-1,-9.4753355E-2,8.743719E-1,-5.137386E-4,8.1446424E-2],"split_indices":[4,0,4,0,2,0,2,2,3,0,0,0,4,0,0],"split_type":[0,0,0,0,0,0,0,0,0,0,0,0,0,0,0],"sum_hessian":[5.1319824E1,1.0674025E0,5.0252422E1,1.6362305E0,4.861619E1,1.2891387E0,4.7327053E1,3.1141913E0,4.421286E1,1.1031857E0,2.0110056E0,1.7397107E0,4.247315E1,4.0031322E1,2.441827E0],"tree_param":{"num_deleted":"0","num_feature":"8","num_nodes":"15","size_leaf_vector":"1"}},{"base_weights":[4.4368748E-3,9.391697E-2,-3.1636536E-2,2.1435088E-2,1.5990072E-1,-3.452672E-1,1.8609464E-2,1.00241035E-1,-2.3679268E-1,4.8156455E-2,-6.189191E-1,2.921791E-1,-4.753058E-2,1.9552177E-1,-1.6621435E-1,-1.4368302E-1,2.9975517E-2,-1.1416741E-2,3.3513308E-2,-2.3186727E-1,-5.7982873E-2,1.7492531E-1,1.1744083E-2,-2.2322656E-1,9.635192E-3,-5.997793E-2,5.8897924E-1,-7.343305E-2,-7.2389627E-3,-1.20902374E-1,1.0726268E-1,-7.1187265E-2,1.9378638E-1,2.2766232E-2,-7.695688E-2,4.5403026E-2,2.224309E-1,4.471618E-2,-4.8524294E-2,-2.1511212E-3,1.4522946E-1],"categories":[],"categories_nodes":[],"categories_segments":[],"categories_sizes":[],"default_left":[0,0,0,0,0,0,0,0,0,0,0,0,0,0,0,0,0,0,0,0,0,0,0,0,0,0,0,0,0,0,0,0,0,0,0,0,0,0,0,0,0],"id":22,"left_children":[1,3,5,7,-1,9,11,13,15,17,19,21,23,25,27,-1,-1,-1,-1,-1,-1,-1,29,-1,31,33,35,-1,-1,-1,-1,37,39,-1,-1,-1,-1,-1,-1,-1,-1],"loss_changes":[1.7155646E-1,4.7417068E-1,6.047881E-1,3.114434E-1,0E0,5.9979385E-1,6.232191E-1,3.2534513E-1,3.4164178E-1,2.1234885E-2,5.9984565E-2,5.394532E-1,1.1212952E0,9.3566227E-1,3.4041524E-2,0E0,0E0,0E0,0E0,0E0,0E0,0E0,7.7946883E-1,0E0,4.1333932E-1,1.8870291E-1,1.2921679E-1,0E0,0E0,0E0,0E0,4.10802E-1,4.9684447E-1,0E0,0E0,0E0,0E0,0E0,0E0,0E0,0E0],"parents":[2147483647,0,0,1,1,2,2,3,3,5,5,6,6,7,7,8,8,9,9,10,10,11,11,12,12,13,13,14,14,22,22,24,24,25,25,26,26,31,31,32,32],"right_children":[2,4,6,8,-1,10,12,14,16,18,20,22,24,26,28,-1,-1,-1,-1,-1,-1,-1,30,-1,32,34,36,-1,-1,-1,-1,38,40,-1,-1,-1,-1,-1,-1,-1,-1],"split_conditions":[2.4120604E-1,2.2613065E-1,2.8140703E-1,1.8592964E-1,1.5990072E-1,4.2E1,3.517588E-1,5E1,2.0603015E-1,2.4E1,4.7E1,3.9E1,3.7185928E-1,9.045226E-2,5.6E1,-1.4368302E-1,2.9975517E-2,-1.1416741E-2,3.3513308E-2,-2.3186727E-1,-5.7982873E-2,1.7492531E-1,4.4E1,-2.2322656E-1,4.2E1,4E2,3.1E1,-7.343305E-2,-7.2389627E-3,-1.20902374E-1,1.0726268E-1,4.7738692E-1,6E2,2.2766232E-2,-7.695688E-2,4.5403026E-2,2.224309E-1,4.471618E-2,-4.8524294E-2,-2.1511212E-3,1.4522946E-1],"split_indices":[4,4,4,4,0,2,4,2,4,2,2,2,4,4,2,0,0,0,0,0,0,0,2,0,2,3,2,0,0,0,0,4,1,0,0,0,0,0,0,0,0],"split_type":[0,0,0,0,0,0,0,0,0,0,0,0,0,0,0,0,0,0,0,0,0,0,0,0,0,0,0,0,0,0,0,0,0,0,0,0,0,0,0,0,0],"sum_hessian":[5.1228306E1,1.4257955E1,3.6970352E1,1.3138019E1,1.1199365E0,4.2942877E0,3.2676064E1,1.0534815E1,2.6032033E0,2.0996652E0,2.1946225E0,5.696503E0,2.697956E1,7.9560533E0,2.5787618E0,1.2685155E0,1.3346878E0,1.0612636E0,1.0384016E0,1.0125302E0,1.1820923E0,2.266337E0,3.430166E0,1.1348783E0,2.5844683E1,5.33756E0,2.6184928E0,1.1951656E0,1.3835961E0,1.4843669E0,1.9457992E0,1.838784E1,7.456843E0,3.5189285E0,1.8186319E0,1.191352E0,1.427141E0,5.169588E0,1.3218252E1,4.982918E0,2.473925E0],"tree_param":{"num_deleted":"0","num_feature":"8","num_nodes":"41","size_leaf_vector":"1"}},{"base_weights":[2.9940188E-3,7.95351E-2,-8.992695E-3,-1.0463669E-1,1.1092432E-2,1.7265993E-1,-1.4312021E-2,-1.21931516E-1,1.3697045E-1,-1.4336288E-1,1.29770255E-2,4.4375807E-2,-1.348456E-1,-1.426498E-2,1.6560134E-1,5.143023E-3,-7.8739166E-2,1.5404977E-1,-9.9030165E-3],"categories":[],"categories_nodes":[],"categories_segments":[],"categories_sizes":[],"default_left":[0,0,0,0,0,0,0,0,0,0,0,0,0,0,0,0,0,0,0],"id":23,"left_children":[1,-1,3,-1,5,7,9,11,-1,-1,13,-1,-1,15,17,-1,-1,-1,-1],"loss_changes":[1.6453268E-1,0E0,3.4727737E-1,0E0,2.0145194E-1,6.129798E-1,5.47819E-1,4.2530262E-1,0E0,0E0,1.7452869E-1,0E0,0E0,2.8558493E-1,4.5577252E-1,0E0,0E0,0E0,0E0],"parents":[2147483647,0,0,2,2,4,4,5,5,6,6,7,7,10,10,13,13,14,14],"right_children":[2,-1,4,-1,6,8,10,12,-1,-1,14,-1,-1,16,18,-1,-1,-1,-1],"split_conditions":[7E0,7.95351E-2,1.3E1,-1.0463669E-1,1.2060302E-1,4.0201005E-2,4E2,4.6E1,1.3697045E-1,-1.4336288E-1,7.5376886E-1,4.4375807E-2,-1.348456E-1,6.5829146E-1,8.1407034E-1,5.143023E-3,-7.8739166E-2,1.5404977E-1,-9.9030165E-3],"split_indices":[2,0,2,0,4,4,3,2,0,0,4,0,0,4,4,0,0,0,0],"split_type":[0,0,0,0,0,0,0,0,0,0,0,0,0,0,0,0,0,0,0],"sum_hessian":[5.060691E1,1.2895579E0,4.9317352E1,1.8390546E0,4.74783E1,5.663441E0,4.1814857E1,3.0594215E0,2.6040199E0,1.4067347E0,4.0408123E1,1.978156E0,1.0812654E0,3.5057266E1,5.350857E0,3.1945627E1,3.1116388E0,1.3684186E0,3.9824383E0],"tree_param":{"num_deleted":"0","num_feature":"8","num_nodes":"19","size_leaf_vector":"1"}},{"base_weights":[8.966334E-4,7.47873E-2,-9.2418315E-3,-7.421998E-2,3.6955245E-3,2.0467655E-1,-1.4531623E-2,8.391771E-2,4.739673E-3,-2.496597E-1,1.0930021E-2,-1.1720244E-2,-9.2045724E-2,1.1841606E-1,-1.4533472E-2,-1.116481E-2,9.341097E-2],"categories":[],"categories_nodes":[],"categories_segments":[],"categories_sizes":[],"default_left":[0,0,0,0,0,0,0,0,0,0,0,0,0,0,0,0,0],"id":24,"left_children":[1,-1,3,-1,5,7,9,-1,-1,11,13,-1,-1,-1,15,-1,-1],"loss_changes":[1.3131663E-1,0E0,1.5553987E-1,0E0,1.809533E-1,5.3784505E-2,2.7499485E-1,0E0,0E0,4.200688E-2,4.161154E-1,0E0,0E0,0E0,3.0982637E-1,0E0,0E0],"parents":[2147483647,0,0,2,2,4,4,5,5,6,6,9,9,10,10,14,14],"right_children":[2,-1,4,-1,6,8,10,-1,-1,12,14,-1,-1,-1,16,-1,-1],"split_conditions":[5.0251256E-3,7.47873E-2,2.0100502E-2,-7.421998E-2,8.5427135E-2,4.7E1,1.4572865E-1,8.391771E-2,4.739673E-3,1.2060302E-1,1.959799E-1,-1.1720244E-2,-9.2045724E-2,1.1841606E-1,5.1E1,-1.116481E-2,9.341097E-2],"split_indices":[4,0,4,0,4,2,4,0,0,4,4,0,0,0,2,0,0],"split_type":[0,0,0,0,0,0,0,0,0,0,0,0,0,0,0,0,0],"sum_hessian":[5.0229332E1,1.0447255E0,4.9184605E1,1.6004122E0,4.7584194E1,3.1060643E0,4.447813E1,1.8786199E0,1.2274443E0,3.4855106E0,4.099262E1,1.1034724E0,2.3820384E0,1.6482654E0,3.9344353E1,3.7612377E1,1.7319782E0],"tree_param":{"num_deleted":"0","num_feature":"8","num_nodes":"17","size_leaf_vector":"1"}},{"base_weights":[4.371592E-3,-9.811293E-2,2.5976356E-2,2.6910486E-2,-3.291018E-1,-1.4169754E-2,2.3832828E-1,-2.6753286E-1,3.1210667E-1,-1.1563594E-1,-3.1101126E-2,1.489009E-1,-8.028036E-2,4.3146497E-1,-3.787669E-2,4.5944937E-3,-1.1582298E-1,3.4065906E-2,1.24103606E-1,3.8850147E-1,4.2405687E-3,-1.4069125E-1,1.7873771E-1,1.3854083E-1,2.0144674E-1,1.0937638E-2,2.0433152E-1,-1.2275918E-1,1.4488548E-1,-8.21842E-2,-1.5647227E-1,1.2073912E-1,-3.875812E-2,-6.1105084E-2,1.14239804E-1,-6.890196E-2,8.185505E-2,-5.723035E-2,6.2279414E-2,-5.9524827E-2,3.213777E-2],"categories":[],"categories_nodes":[],"categories_segments":[],"categories_sizes":[],"default_left":[0,0,0,0,0,0,0,0,0,0,0,0,0,0,0,0,0,0,0,0,0,0,0,0,0,0,0,0,0,0,0,0,0,0,0,0,0,0,0,0,0],"id":25,"left_children":[1,3,5,7,9,11,13,15,17,-1,-1,19,21,23,-1,-1,-1,-1,-1,25,27,29,31,33,-1,-1,-1,-1,35,37,-1,-1,39,-1,-1,-1,-1,-1,-1,-1,-1],"loss_changes":[1.1542955E-1,2.712382E-1,3.6906955E-1,6.5614563E-1,1.5319586E-3,4.1105065E-1,5.386729E-1,1.3646847E-1,3.219518E-2,0E0,0E0,3.8062936E-1,4.474802E-1,2.3893464E-1,0E0,0E0,0E0,0E0,0E0,4.017306E-1,5.1796263E-1,4.5731857E-1,2.8541166E-1,3.5831612E-1,0E0,0E0,0E0,0E0,3.8017273E-1,6.8917376E-1,0E0,0E0,1.0798776E-1,0E0,0E0,0E0,0E0,0E0,0E0,0E0,0E0],"parents":[2147483647,0,0,1,1,2,2,3,3,4,4,5,5,6,6,7,7,8,8,11,11,12,12,13,13,19,19,20,20,21,21,22,22,23,23,28,28,29,29,32,32],"right_children":[2,4,6,8,10,12,14,16,18,-1,-1,20,22,24,-1,-1,-1,-1,-1,26,28,30,32,34,-1,-1,-1,-1,36,38,-1,-1,40,-1,-1,-1,-1,-1,-1,-1,-1],"split_conditions":[2.6E1,4.522613E-1,6.934673E-1,1.356784E-1,2E1,2.4120604E-1,6E2,8E0,2.8140703E-1,-1.1563594E-1,-3.1101126E-2,4.3E1,6E2,8.743719E-1,-3.787669E-2,4.5944937E-3,-1.1582298E-1,3.4065906E-2,1.24103606E-1,3.6E1,4.5E1,5.929648E-1,4E1,3.2E1,2.0144674E-1,1.0937638E-2,2.0433152E-1,-1.2275918E-1,4.0201005E-2,4.723618E-1,-1.5647227E-1,1.2073912E-1,4.0703517E-1,-6.1105084E-2,1.14239804E-1,-6.890196E-2,8.185505E-2,-5.723035E-2,6.2279414E-2,-5.9524827E-2,3.213777E-2],"split_indices":[2,4,4,4,2,4,1,2,4,0,0,2,1,4,0,0,0,0,0,2,2,4,2,2,0,0,0,0,4,4,0,0,4,0,0,0,0,0,0,0,0],"split_type":[0,0,0,0,0,0,0,0,0,0,0,0,0,0,0,0,0,0,0,0,0,0,0,0,0,0,0,0,0,0,0,0,0,0,0,0,0,0,0,0,0],"sum_hessian":[4.9981514E1,8.085554E0,4.189596E1,5.819326E0,2.2662287E0,3.601957E1,5.8763933E0,2.8937173E0,2.9256086E0,1.2451346E0,1.0210941E0,1.0029116E1,2.5990452E1,3.7215004E0,2.1548932E0,1.1117842E0,1.7819331E0,1.7069016E0,1.218707E0,3.1410275E0,6.8880877E0,2.1445532E1,4.5449214E0,2.386376E0,1.3351245E0,1.9361598E0,1.2048675E0,1.2637503E0,5.6243377E0,1.9643835E1,1.8016969E0,1.8211555E0,2.7237656E0,1.0551115E0,1.3312643E0,1.2298095E0,4.394528E0,1.4538015E1,5.1058197E0,1.1285579E0,1.5952078E0],"tree_param":{"num_deleted":"0","num_feature":"8","num_nodes":"41","size_leaf_vector":"1"}},{"base_weights":[6.417658E-3,1.9456238E-2,-1.8826014E-1,-3.3867827E-3,3.095619E-1,-1.22093745E-1,4.025944E-2,1.6205987E-2,-1.0722206E-1,1.710467E-1,-2.2278057E-2,-4.4391775E-3,1.319326E-1,1.1419838E-2,-9.8137945E-2,-3.804919E-3,7.7736154E-2],"categories":[],"categories_nodes":[],"categories_segments":[],"categories_sizes":[],"default_left":[0,0,0,0,0,0,0,0,0,0,0,0,0,0,0,0,0],"id":26,"left_children":[1,3,5,7,9,-1,-1,11,-1,-1,-1,13,-1,15,-1,-1,-1],"loss_changes":[1.3162023E-1,3.201481E-1,2.8439325E-1,3.2226932E-1,3.9497557E-1,0E0,0E0,3.8838363E-1,0E0,0E0,0E0,2.2443716E-1,0E0,2.544739E-1,0E0,0E0,0E0],"parents":[2147483647,0,0,1,1,2,2,3,3,4,4,7,7,11,11,13,13],"right_children":[2,4,6,8,10,-1,-1,12,-1,-1,-1,14,-1,16,-1,-1,-1],"split_conditions":[8.894472E-1,7.9396987E-1,3E1,7.1859294E-1,3.2E1,-1.22093745E-1,4.025944E-2,6.934673E-1,-1.0722206E-1,1.710467E-1,-2.2278057E-2,6.5829146E-1,1.319326E-1,5.879397E-1,-9.8137945E-2,-3.804919E-3,7.7736154E-2],"split_indices":[4,4,2,4,2,0,0,4,0,0,0,4,0,4,0,0,0],"split_type":[0,0,0,0,0,0,0,0,0,0,0,0,0,0,0,0,0],"sum_hessian":[4.941023E1,4.7152256E1,2.2579715E0,4.4626663E1,2.5255933E0,1.1892234E0,1.0687481E0,4.3190563E1,1.4361013E0,1.2151234E0,1.3104697E0,4.212678E1,1.0637791E0,4.10728E1,1.0539824E0,3.829522E1,2.7775795E0],"tree_param":{"num_deleted":"0","num_feature":"8","num_nodes":"17","size_leaf_vector":"1"}},{"base_weights":[5.4359734E-3,1.5479034E-2,-6.680296E-2,6.0207996E-4,9.000629E-2,1.5277968E-2,-8.642041E-2,-5.8501647E-3,1.1977233E-1,4.400288E-2,-9.767987E-2,-1.9832363E-3,2.1127413E-1,-8.9809805E-2,-6.403402E-3],"categories":[],"categories_nodes":[],"categories_segments":[],"categories_sizes":[],"default_left":[0,0,0,0,0,0,0,0,0,0,0,0,0,0,0],"id":27,"left_children":[1,3,-1,5,-1,7,-1,9,-1,11,13,-1,-1,-1,-1],"loss_changes":[1.1885258E-1,2.0802684E-1,0E0,2.0666623E-1,0E0,3.7861708E-1,0E0,2.1007757E-1,0E0,1.0012609E0,2.418937E-1,0E0,0E0,0E0,0E0],"parents":[2147483647,0,0,1,1,3,3,5,5,7,7,9,9,10,10],"right_children":[2,4,-1,6,-1,8,-1,10,-1,12,14,-1,-1,-1,-1],"split_conditions":[9.1457283E-1,8.743719E-1,-6.680296E-2,8.1407034E-1,9.000629E-2,7.5376886E-1,-8.642041E-2,4.2211056E-1,1.1977233E-1,4.0201005E-1,4.723618E-1,-1.9832363E-3,2.1127413E-1,-8.9809805E-2,-6.403402E-3],"split_indices":[4,4,0,4,0,4,0,4,0,4,4,0,0,0,0],"split_type":[0,0,0,0,0,0,0,0,0,0,0,0,0,0,0],"sum_hessian":[4.937468E1,4.8185375E1,1.1893042E0,4.6743557E1,1.4418181E0,4.5383358E1,1.3601993E0,4.3949722E1,1.433634E0,2.8822966E1,1.5126759E1,2.7690245E1,1.1327194E0,3.3510852E0,1.1775673E1],"tree_param":{"num_deleted":"0","num_feature":"8","num_nodes":"15","size_leaf_vector":"1"}},{"base_weights":[7.3804697E-3,7.1384296E-2,-2.2943234E-3,-5.9358723E-2,8.110913E-3,-7.170758E-2,1.963106E-2,2.5177014E-1,-2.3350383E-3,8.272617E-3,9.571403E-2,-1.6369271E-1,3.1944018E-2,2.8576823E-2,-7.4747175E-2,2.5990948E-3,8.6468585E-2],"categories":[],"categories_nodes":[],"categories_segments":[],"categories_sizes":[],"default_left":[0,0,0,0,0,0,0,0,0,0,0,0,0,0,0,0,0],"id":28,"left_children":[1,-1,3,-1,5,-1,7,9,11,-1,-1,13,15,-1,-1,-1,-1],"loss_changes":[1.1266661E-1,0E0,1.0178271E-1,0E0,1.4050433E-1,0E0,2.3771189E-1,5.1972955E-2,2.4568756E-1,0E0,0E0,1.9592492E-1,2.1642588E-1,0E0,0E0,0E0,0E0],"parents":[2147483647,0,0,2,2,4,4,6,6,7,7,8,8,11,11,12,12],"right_children":[2,-1,4,-1,6,-1,8,10,12,-1,-1,14,16,-1,-1,-1,-1],"split_conditions":[5.0251256E-3,7.1384296E-2,2.0100502E-2,-5.9358723E-2,9E0,-7.170758E-2,2.1E1,1.3E1,3.1E1,8.272617E-3,9.571403E-2,3.0653265E-1,8.0904526E-1,2.8576823E-2,-7.4747175E-2,2.5990948E-3,8.6468585E-2],"split_indices":[4,0,4,0,2,0,2,2,2,0,0,4,4,0,0,0,0],"split_type":[0,0,0,0,0,0,0,0,0,0,0,0,0,0,0,0,0],"sum_hessian":[4.926278E1,1.0336844E0,4.8229095E1,1.5263045E0,4.670279E1,1.2005041E0,4.550229E1,3.0290754E0,4.2473213E1,1.0245879E0,2.0044878E0,6.780567E0,3.5692646E1,1.6541357E0,5.1264315E0,3.3668106E1,2.0245376E0],"tree_param":{"num_deleted":"0","num_feature":"8","num_nodes":"17","size_leaf_vector":"1"}},{"base_weights":[6.8278937E-3,7.358856E-2,-4.21512E-3,-2.2978918E-1,2.0655314E-2,-2.0400421E-1,7.3098905E-2,1.3250805E-1,7.355042E-4,6.9339134E-2,-4.342617E-2,-1.18345045E-1,2.9506944E-2,-2.60447E-1,2.2444818E-2,1.2646767E-1,-2.8803933E-3,7.515161E-3,-1.5602861E-1,7.929314E-2,-6.301668E-2,-1.2537417E-2,6.740929E-2],"categories":[],"categories_nodes":[],"categories_segments":[],"categories_sizes":[],"default_left":[0,0,0,0,0,0,0,0,0,0,0,0,0,0,0,0,0,0,0,0,0,0,0],"id":29,"left_children":[1,-1,3,5,7,-1,9,-1,11,-1,-1,13,15,17,19,-1,21,-1,-1,-1,-1,-1,-1],"loss_changes":[1.3287863E-1,0E0,2.7870905E-1,7.22261E-1,3.762658E-1,0E0,1.6604885E-1,0E0,1.5381294E-1,0E0,0E0,1.8065217E-1,4.60071E-1,3.412582E-1,3.541027E-1,0E0,3.1377506E-1,0E0,0E0,0E0,0E0,0E0,0E0],"parents":[2147483647,0,0,2,2,3,3,4,4,6,6,8,8,11,11,12,12,13,13,14,14,16,16],"right_children":[2,-1,4,6,8,-1,10,-1,12,-1,-1,14,16,18,20,-1,22,-1,-1,-1,-1,-1,-1],"split_conditions":[7E0,7.358856E-2,4E2,2.0100502E-2,2.0100502E-2,-2.0400421E-1,1.7E1,1.3250805E-1,3.1E1,6.9339134E-2,-4.342617E-2,5.879397E-1,3.2E1,2.4E1,8.040201E-1,1.2646767E-1,6.381909E-1,7.515161E-3,-1.5602861E-1,7.929314E-2,-6.301668E-2,-1.2537417E-2,6.740929E-2],"split_indices":[2,0,1,4,4,0,2,0,2,0,0,4,2,2,4,0,4,0,0,0,0,0,0],"split_type":[0,0,0,0,0,0,0,0,0,0,0,0,0,0,0,0,0,0,0,0,0,0,0],"sum_hessian":[4.9066383E1,1.2327689E0,4.7833614E1,3.9319048E0,4.390171E1,1.0805832E0,2.8513217E0,1.0267189E0,4.2874992E1,1.6172283E0,1.2340933E0,7.7374787E0,3.5137512E1,3.427817E0,4.3096614E0,1.7643015E0,3.337321E1,2.0629797E0,1.3648374E0,2.0452309E0,2.2644305E0,2.9197435E1,4.175775E0],"tree_param":{"num_deleted":"0","num_feature":"8","num_nodes":"23","size_leaf_vector":"1"}},{"base_weights":[5.8224206E-3,4.3549E-2,-6.6076E-2,-6.347284E-4,2.5144067E-1,-1.464247E-1,1.6954826E-1,4.1359205E-2,-1.5013319E-1,5.135861E-1,-1.3251299E-1,-4.513681E-1,2.6067974E-2,1.1515388E-1,-4.6009246E-2,-1.0106047E-1,1.20175675E-1,5.9986535E-2,1.8678612E-1,-2.0386325E-1,-1.7076163E-1,1.6956404E-1,-1.5002744E-1,-1.07303396E-1,9.442485E-2,9.465324E-2,-1.8349104E-1,2.1432881E-1,1.7777272E-2,-1.18243985E-1,2.4519188E-2,-1.13851465E-1,-4.1546497E-2,-1.1925628E-1,-1.843374E-2,-2.4105513E-2,1.0716349E-1,3.2198664E-2,-1.0856892E-1],"categories":[],"categories_nodes":[],"categories_segments":[],"categories_sizes":[],"default_left":[0,0,0,0,0,0,0,0,0,0,0,0,0,0,0,0,0,0,0,0,0,0,0,0,0,0,0,0,0,0,0,0,0,0,0,0,0,0,0],"id":30,"left_children":[1,3,5,7,9,11,13,15,-1,17,-1,19,21,-1,23,25,27,-1,-1,29,-1,-1,31,-1,-1,-1,33,-1,35,-1,-1,-1,37,-1,-1,-1,-1,-1,-1],"loss_changes":[1.381684E-1,3.0617285E-1,3.573132E-1,6.1831844E-1,1.28838E0,7.288592E-1,2.4536076E-1,3.173518E-1,0E0,3.6270022E-2,0E0,2.9203057E-2,1.0012463E0,0E0,4.8928612E-1,4.0916386E-1,1.0801854E0,0E0,0E0,2.0417117E-1,0E0,0E0,1.8503967E-1,0E0,0E0,0E0,2.1516281E-1,0E0,5.7315296E-1,0E0,0E0,0E0,3.5361883E-1,0E0,0E0,0E0,0E0,0E0,0E0],"parents":[2147483647,0,0,1,1,2,2,3,3,4,4,5,5,6,6,7,7,9,9,11,11,12,12,14,14,15,15,16,16,19,19,22,22,26,26,28,28,32,32],"right_children":[2,4,6,8,10,12,14,16,-1,18,-1,20,22,-1,24,26,28,-1,-1,30,-1,-1,32,-1,-1,-1,34,-1,36,-1,-1,-1,38,-1,-1,-1,-1,-1,-1],"split_conditions":[4.7738692E-1,4.0201005E-1,4.2E1,3.919598E-1,4.4E1,5.879397E-1,5.7788944E-1,3.6E1,-1.5013319E-1,3.9E1,-1.3251299E-1,5.276382E-1,6.5829146E-1,1.1515388E-1,6.532663E-1,7E0,3.9E1,5.9986535E-2,1.8678612E-1,5.125628E-1,-1.7076163E-1,1.6956404E-1,2.6E1,-1.07303396E-1,9.442485E-2,9.465324E-2,6.532663E-2,2.1432881E-1,3.2160804E-1,-1.18243985E-1,2.4519188E-2,-1.13851465E-1,3.6E1,-1.1925628E-1,-1.843374E-2,-2.4105513E-2,1.0716349E-1,3.2198664E-2,-1.0856892E-1],"split_indices":[4,4,2,4,2,4,4,2,0,2,0,4,4,0,4,2,2,0,0,4,0,0,2,0,0,0,4,0,4,0,0,0,2,0,0,0,0,0,0],"split_type":[0,0,0,0,0,0,0,0,0,0,0,0,0,0,0,0,0,0,0,0,0,0,0,0,0,0,0,0,0,0,0,0,0,0,0,0,0,0,0],"sum_hessian":[4.887715E1,3.231507E1,1.6562084E1,2.7473091E1,4.841977E0,1.2632816E1,3.9292674E0,2.618987E1,1.283221E0,3.7012444E0,1.1407329E0,3.9799943E0,8.652822E0,1.5788896E0,2.350378E0,9.229727E0,1.6960144E1,1.6858538E0,2.0153904E0,2.164252E0,1.8157423E0,1.5863246E0,7.0664973E0,1.2655642E0,1.0848137E0,1.057574E0,8.1721525E0,1.6143795E0,1.5345765E1,1.0707477E0,1.0935043E0,1.4663235E0,5.6001735E0,2.1480217E0,6.024131E0,1.249639E1,2.849374E0,4.27734E0,1.3228334E0],"tree_param":{"num_deleted":"0","num_feature":"8","num_nodes":"39","size_leaf_vector":"1"}},{"base_weights":[4.581372E-3,1.643404E-1,-1.806376E-2,-3.5882376E-2,3.122115E-1,-1.0690906E-1,-1.8144537E-3,1.4591211E-1,1.677762E-3,3.3483046E-1,-2.8553447E-2,1.498411E-1,5.8988496E-3,-1.358423E-1,-4.2642155E-3,7.382878E-2,-5.427741E-2,1.4416543E-1,-2.1397118E-2,-1.2193645E-1,7.169334E-3],"categories":[],"categories_nodes":[],"categories_segments":[],"categories_sizes":[],"default_left":[0,0,0,0,0,0,0,0,0,0,0,0,0,0,0,0,0,0,0,0,0],"id":31,"left_children":[1,3,5,-1,7,-1,9,-1,-1,11,13,-1,-1,-1,15,17,19,-1,-1,-1,-1],"loss_changes":[1.8132368E-1,2.9848617E-1,2.4166873E-1,0E0,2.3046803E-1,0E0,3.9721367E-1,0E0,0E0,1.586867E-1,4.1868788E-1,0E0,0E0,0E0,1.5873814E-1,9.723866E-1,6.9047457E-1,0E0,0E0,0E0,0E0],"parents":[2147483647,0,0,1,1,2,2,4,4,6,6,9,9,10,10,14,14,15,15,16,16],"right_children":[2,4,6,-1,8,-1,10,-1,-1,12,14,-1,-1,-1,16,18,20,-1,-1,-1,-1],"split_conditions":[8.5427135E-2,2.6E1,9E0,-3.5882376E-2,4.7E1,-1.0690906E-1,2.1E1,1.4591211E-1,1.677762E-3,3.919598E-1,4E2,1.498411E-1,5.8988496E-3,-1.358423E-1,3.517588E-1,3.9E1,3.9698493E-1,1.4416543E-1,-2.1397118E-2,-1.2193645E-1,7.169334E-3],"split_indices":[4,2,2,0,2,0,2,0,0,4,3,0,0,0,4,2,4,0,0,0,0],"split_type":[0,0,0,0,0,0,0,0,0,0,0,0,0,0,0,0,0,0,0,0,0],"sum_hessian":[4.8299805E1,5.2195086E0,4.3080296E1,1.8528061E0,3.3667026E0,1.0151225E0,4.2065174E1,1.7732395E0,1.593463E0,2.247455E0,3.981772E1,1.0921513E0,1.1553036E0,1.2008278E0,3.861689E1,1.4890291E1,2.37266E1,3.3086545E0,1.1581636E1,3.547212E0,2.0179388E1],"tree_param":{"num_deleted":"0","num_feature":"8","num_nodes":"21","size_leaf_vector":"1"}},{"base_weights":[3.7240672E-3,1.0803643E-1,-2.3480982E-2,2.1883706E-2,1.0349037E-1,-1.4595833E-1,3.9716237E-3,1.1478223E-1,-8.184719E-2,1.020415E-1,-2.6392935E-2,-1.1191434E-2,9.6976325E-2,-2.7823675E-1,1.4992393E-2,-7.3622294E-2,1.4889655E-1,-2.104186E-2,-1.9647668E-1,2.2848131E-1,-3.9500795E-2,1.113348E-1,-5.1822394E-2,7.9121836E-2,-9.103661E-2,1.1659309E-1,1.7368495E-2,-2.4059108E-2,7.514493E-2],"categories":[],"categories_nodes":[],"categories_segments":[],"categories_sizes":[],"default_left":[0,0,0,0,0,0,0,0,0,0,0,0,0,0,0,0,0,0,0,0,0,0,0,0,0,0,0,0,0],"id":32,"left_children":[1,3,5,7,-1,-1,9,11,-1,-1,13,15,-1,17,19,-1,21,23,-1,25,27,-1,-1,-1,-1,-1,-1,-1,-1],"loss_changes":[1.416619E-1,2.0309895E-1,5.066638E-1,2.6773974E-1,0E0,0E0,4.0171546E-1,1.9453579E-1,0E0,0E0,3.8163605E-1,2.426902E-1,0E0,4.8637092E-1,3.8192382E-1,0E0,3.4201342E-1,4.0986297E-1,0E0,1.5960631E-1,3.3149943E-1,0E0,0E0,0E0,0E0,0E0,0E0,0E0,0E0],"parents":[2147483647,0,0,1,1,2,2,3,3,6,6,7,7,10,10,11,11,13,13,14,14,16,16,17,17,19,19,20,20],"right_children":[2,4,6,8,-1,-1,10,12,-1,-1,14,16,-1,18,20,-1,22,24,-1,26,28,-1,-1,-1,-1,-1,-1,-1,-1],"split_conditions":[1.8592964E-1,1.356784E-1,2.0603015E-1,1.2060302E-1,1.0349037E-1,-1.4595833E-1,2.4120604E-1,6.532663E-2,-8.184719E-2,1.020415E-1,2.8140703E-1,2.6E1,9.6976325E-2,2.713568E-1,3.517588E-1,-7.3622294E-2,4.7E1,4.2E1,-1.9647668E-1,3.9E1,4.7E1,1.113348E-1,-5.1822394E-2,7.9121836E-2,-9.103661E-2,1.1659309E-1,1.7368495E-2,-2.4059108E-2,7.514493E-2],"split_indices":[4,4,4,4,0,0,4,4,0,0,4,2,0,4,4,0,2,2,0,2,2,0,0,0,0,0,0,0,0],"split_type":[0,0,0,0,0,0,0,0,0,0,0,0,0,0,0,0,0,0,0,0,0,0,0,0,0,0,0,0,0],"sum_hessian":[4.8025295E1,9.319672E0,3.8705624E1,7.6355906E0,1.684081E0,1.2303686E0,3.7475254E1,6.2697463E0,1.3658442E0,2.2594137E0,3.521584E1,4.498033E0,1.7717135E0,4.162504E0,3.1053335E1,1.6098267E0,2.8882062E0,3.1010303E0,1.061474E0,5.66533E0,2.5388004E1,1.6171124E0,1.271094E0,1.576966E0,1.5240644E0,2.2626565E0,3.4026737E0,2.2897957E1,2.4900475E0],"tree_param":{"num_deleted":"0","num_feature":"8","num_nodes":"29","size_leaf_vector":"1"}},{"base_weights":[3.313333E-3,1.2744044E-1,-1.4070855E-2,-4.8450615E-2,2.4855399E-1,-2.1580957E-1,5.878449E-3,-8.252317E-2,7.0686266E-2,1.2154106E-1,5.509907E-3,5.7750307E-3,-1.2657756E-1,1.6172045E-1,-9.81577E-3,1.08502544E-1,-5.7409454E-2,-3.1289656E-2,7.231699E-2,-1.4292338E-1,-2.3226308E-4,6.309576E-2,-8.630895E-3],"categories":[],"categories_nodes":[],"categories_segments":[],"categories_sizes":[],"default_left":[0,0,0,0,0,0,0,0,0,0,0,0,0,0,0,0,0,0,0,0,0,0,0],"id":33,"left_children":[1,3,5,7,9,11,13,-1,-1,-1,-1,-1,-1,15,17,-1,-1,19,-1,-1,21,-1,-1],"loss_changes":[1.06557965E-1,1.4121643E-1,1.7628351E-1,2.778765E-1,1.2787187E-1,1.9900426E-1,1.0075808E-1,0E0,0E0,0E0,0E0,0E0,0E0,3.3516318E-1,2.1107157E-1,0E0,0E0,4.932282E-1,0E0,0E0,2.1250148E-1,0E0,0E0],"parents":[2147483647,0,0,1,1,2,2,3,3,4,4,5,5,6,6,13,13,14,14,17,17,20,20],"right_children":[2,4,6,8,10,12,14,-1,-1,-1,-1,-1,-1,16,18,-1,-1,20,-1,-1,22,-1,-1],"split_conditions":[8.5427135E-2,4E2,4E2,2.0100502E-2,4.7E1,1.6E1,2.4E1,-8.252317E-2,7.0686266E-2,1.2154106E-1,5.509907E-3,5.7750307E-3,-1.2657756E-1,6.5829146E-1,8.743719E-1,1.08502544E-1,-5.7409454E-2,2.8E1,7.231699E-2,-1.4292338E-1,3.2E1,6.309576E-2,-8.630895E-3],"split_indices":[4,1,3,4,2,2,2,0,0,0,0,0,0,4,4,0,0,2,0,0,2,0,0],"split_type":[0,0,0,0,0,0,0,0,0,0,0,0,0,0,0,0,0,0,0,0,0,0,0],"sum_hessian":[4.7550552E1,5.0637054E0,4.2486847E1,2.3095474E0,2.754158E0,2.9398196E0,3.9547028E1,1.3022779E0,1.0072695E0,1.186812E0,1.567346E0,1.7970368E0,1.1427829E0,2.7669578E0,3.678007E1,1.7510167E0,1.0159411E0,3.468631E1,2.093762E0,1.3270481E0,3.335926E1,3.221414E0,3.0137848E1],"tree_param":{"num_deleted":"0","num_feature":"8","num_nodes":"23","size_leaf_vector":"1"}},{"base_weights":[2.6813857E-3,6.7464314E-2,-7.7582845E-3,-2.109032E-1,1.2983952E-2,-1.3373841E-1,3.690975E-2,1.7795014E-1,-4.650804E-3,4.3927968E-2,-2.6601484E-2,1.4615057E-2,1.01052195E-1,-1.1021576E-1,1.4591684E-2,5.989448E-2,-5.676356E-2,9.695891E-2,-7.525123E-3,-7.390426E-3,5.7907946E-2],"categories":[],"categories_nodes":[],"categories_segments":[],"categories_sizes":[],"default_left":[0,0,0,0,0,0,0,0,0,0,0,0,0,0,0,0,0,0,0,0,0],"id":34,"left_children":[1,-1,3,5,7,-1,9,11,13,-1,-1,15,-1,-1,17,-1,-1,-1,19,-1,-1],"loss_changes":[1.1397504E-1,0E0,2.0152764E-1,2.7424866E-1,1.2809767E-1,0E0,5.5325244E-2,1.0538727E-1,2.8803292E-1,0E0,0E0,1.5624855E-1,0E0,0E0,2.7148435E-1,0E0,0E0,0E0,1.3432567E-1,0E0,0E0],"parents":[2147483647,0,0,2,2,3,3,4,4,6,6,7,7,8,8,11,11,14,14,18,18],"right_children":[2,-1,4,6,8,-1,10,12,14,-1,-1,16,-1,-1,18,-1,-1,-1,20,-1,-1],"split_conditions":[7E0,6.7464314E-2,2E1,9.045226E-2,8.5427135E-2,-1.3373841E-1,1.4E1,3.517588E-2,4E2,4.3927968E-2,-2.6601484E-2,4.3E1,1.01052195E-1,-1.1021576E-1,2.4E1,5.989448E-2,-5.676356E-2,9.695891E-2,8.743719E-1,-7.390426E-3,5.7907946E-2],"split_indices":[2,0,2,4,4,0,2,4,3,0,0,2,0,0,2,0,0,0,4,0,0],"split_type":[0,0,0,0,0,0,0,0,0,0,0,0,0,0,0,0,0,0,0,0,0],"sum_hessian":[4.738159E1,1.2044688E0,4.6177124E1,3.4287622E0,4.274836E1,1.3501221E0,2.07864E0,3.2504842E0,3.9497875E1,1.0216721E0,1.056968E0,2.1412842E0,1.1092E0,1.0783199E0,3.8419556E1,1.1331325E0,1.0081518E0,1.6589137E0,3.6760643E1,3.4679226E1,2.0814185E0],"tree_param":{"num_deleted":"0","num_feature":"8","num_nodes":"21","size_leaf_vector":"1"}},{"base_weights":[3.6416352E-3,1.413191E-2,-7.1265556E-2,2.0588047E-3,7.253405E-2,1.574562E-2,-8.0632344E-2,5.9025805E-4,8.273173E-2,2.9141922E-2,-1.4296551E-1,-8.432695E-3,4.046958E-2,2.5530225E-2,-1.3329083E-1],"categories":[],"categories_nodes":[],"categories_segments":[],"categories_sizes":[],"default_left":[0,0,0,0,0,0,0,0,0,0,0,0,0,0,0],"id":35,"left_children":[1,3,-1,5,-1,7,-1,9,-1,11,13,-1,-1,-1,-1],"loss_changes":[1.2526183E-1,1.289964E-1,0E0,1.7382586E-1,0E0,1.7518437E-1,0E0,1.8060516E-1,0E0,2.2621825E-1,5.402283E-1,0E0,0E0,0E0,0E0],"parents":[2147483647,0,0,1,1,3,3,5,5,7,7,9,9,10,10],"right_children":[2,4,-1,6,-1,8,-1,10,-1,12,14,-1,-1,-1,-1],"split_conditions":[9.1457283E-1,8.743719E-1,-7.1265556E-2,8.1407034E-1,7.253405E-2,7.5376886E-1,-8.0632344E-2,5.7788944E-1,8.273173E-2,4.5E1,3.5E1,-8.432695E-3,4.046958E-2,2.5530225E-2,-1.3329083E-1],"split_indices":[4,4,0,4,0,4,0,4,0,2,2,0,0,0,0],"split_type":[0,0,0,0,0,0,0,0,0,0,0,0,0,0,0],"sum_hessian":[4.718016E1,4.6115845E1,1.064317E0,4.4751534E1,1.3643107E0,4.349532E1,1.2562145E0,4.2046932E1,1.4483868E0,3.5736362E1,6.3105702E0,2.3661516E1,1.2074845E1,4.0004387E0,2.3101315E0],"tree_param":{"num_deleted":"0","num_feature":"8","num_nodes":"15","size_leaf_vector":"1"}},{"base_weights":[9.248977E-4,1.3375508E-2,-5.632537E-2,-9.802581E-4,1.8924947E-1,1.9122683E-2,-1.0879684E-1,1.258545E-1,-3.6972765E-2,1.3333745E-3,1.1044497E-1,2.1321177E-2,-1.3227825E-1,-1.16317E-3,5.8243494E-2,5.4216016E-2,-1.4058903E-1],"categories":[],"categories_nodes":[],"categories_segments":[],"categories_sizes":[],"default_left":[0,0,0,0,0,0,0,0,0,0,0,0,0,0,0,0,0],"id":36,"left_children":[1,3,-1,5,7,9,-1,-1,-1,11,-1,13,15,-1,-1,-1,-1],"loss_changes":[1.1550867E-1,1.1647186E-1,0E0,3.2376975E-1,3.0217454E-1,2.6172546E-1,0E0,0E0,0E0,1.1281581E-1,0E0,1.6052912E-1,6.635613E-1,0E0,0E0,0E0,0E0],"parents":[2147483647,0,0,1,1,3,3,4,4,5,5,9,9,11,11,12,12],"right_children":[2,4,-1,6,8,10,-1,-1,-1,12,-1,14,16,-1,-1,-1,-1],"split_conditions":[8.894472E-1,7.9396987E-1,-5.632537E-2,7.1859294E-1,3.2E1,6.934673E-1,-1.0879684E-1,1.258545E-1,-3.6972765E-2,5.7788944E-1,1.1044497E-1,5.0753766E-1,3.5E1,-1.16317E-3,5.8243494E-2,5.4216016E-2,-1.4058903E-1],"split_indices":[4,4,0,4,2,4,0,0,0,4,0,4,2,0,0,0,0],"split_type":[0,0,0,0,0,0,0,0,0,0,0,0,0,0,0,0,0],"sum_hessian":[4.7101753E1,4.5057545E1,2.0442085E0,4.2576637E1,2.4809048E0,4.123198E1,1.3446594E0,1.2311943E0,1.2497104E0,4.018751E1,1.0444672E0,3.5688995E1,4.4985175E0,3.2000725E1,3.68827E0,2.5698252E0,1.9286921E0],"tree_param":{"num_deleted":"0","num_feature":"8","num_nodes":"17","size_leaf_vector":"1"}},{"base_weights":[4.91279E-4,-5.293384E-2,3.3243377E-2,8.3038524E-2,-9.995357E-2,-6.810849E-2,5.5492215E-2,-3.1086546E-1,1.3350135E-2,2.142805E-1,-1.1041062E-3,-6.861187E-2,-1.7381841E-1,4.2525464E-1,-1.3370907E-1,1.9294454E-1,4.4712342E-2,-2.309761E-1,7.4613705E-2,-1.02081105E-1,5.703269E-2,1.2527773E-2,1.9230624E-1,-1.6211276E-1,3.509529E-2,-9.7914025E-2,1.9804838E-1,-5.711522E-3,-1.7440233E-1,2.1990603E-1,-3.0652935E-2,1.6576533E-1,-5.06546E-2,1.4245695E-1,-1.5010956E-2,9.521321E-2,-9.286855E-2,-1.4504513E-1,1.4356449E-2],"categories":[],"categories_nodes":[],"categories_segments":[],"categories_sizes":[],"default_left":[0,0,0,0,0,0,0,0,0,0,0,0,0,0,0,0,0,0,0,0,0,0,0,0,0,0,0,0,0,0,0,0,0,0,0,0,0,0,0],"id":37,"left_children":[1,3,5,-1,7,-1,9,11,13,15,17,19,-1,21,23,-1,25,27,29,-1,-1,-1,-1,-1,31,-1,33,35,-1,-1,37,-1,-1,-1,-1,-1,-1,-1,-1],"loss_changes":[8.576282E-2,3.1652233E-1,1.8850003E-1,0E0,4.1137472E-1,0E0,2.5894746E-1,3.5032642E-1,7.864387E-1,5.21726E-1,4.0394932E-1,3.659783E-1,0E0,2.552263E-1,6.804729E-1,0E0,4.344719E-1,4.504405E-1,1.2332036E0,0E0,0E0,0E0,0E0,0E0,9.110347E-1,0E0,3.8232893E-1,5.4092896E-1,0E0,0E0,5.9268653E-1,0E0,0E0,0E0,0E0,0E0,0E0,0E0,0E0],"parents":[2147483647,0,0,1,1,2,2,4,4,6,6,7,7,8,8,9,9,10,10,11,11,13,13,14,14,16,16,17,17,18,18,24,24,26,26,27,27,30,30],"right_children":[2,4,6,-1,8,-1,10,12,14,16,18,20,-1,22,24,-1,26,28,30,-1,-1,-1,-1,-1,32,-1,34,36,-1,-1,38,-1,-1,-1,-1,-1,-1,-1,-1],"split_conditions":[3.5E1,3.0150754E-2,4.0201005E-2,8.3038524E-2,3.3668342E-1,-6.810849E-2,2.4120604E-1,2.4E1,4.522613E-1,4.3E1,3.1658292E-1,1.3E1,-1.7381841E-1,4.0201005E-1,5.879397E-1,1.9294454E-1,4.5E1,2.964824E-1,3.3668342E-1,-1.02081105E-1,5.703269E-2,1.2527773E-2,1.9230624E-1,-1.6211276E-1,6.5829146E-1,-9.7914025E-2,5E1,4.4E1,-1.7440233E-1,2.1990603E-1,3.7185928E-1,1.6576533E-1,-5.06546E-2,1.4245695E-1,-1.5010956E-2,9.521321E-2,-9.286855E-2,-1.4504513E-1,1.4356449E-2],"split_indices":[2,4,4,0,4,0,4,2,4,2,4,2,0,4,4,0,2,4,4,0,0,0,0,0,4,0,2,2,0,0,4,0,0,0,0,0,0,0,0],"split_type":[0,0,0,0,0,0,0,0,0,0,0,0,0,0,0,0,0,0,0,0,0,0,0,0,0,0,0,0,0,0,0,0,0,0,0,0,0,0,0],"sum_hessian":[4.700769E1,1.7631327E1,2.9376364E1,1.5905696E0,1.6040758E1,1.5885944E0,2.778777E1,4.9964147E0,1.1044343E1,6.569649E0,2.1218119E1,3.2867677E0,1.7096468E0,2.4079862E0,8.636357E0,1.0701611E0,5.499488E0,4.749279E0,1.646884E1,1.4495394E0,1.8372282E0,1.2967415E0,1.1112448E0,1.8876418E0,6.7487154E0,1.2780118E0,4.2214766E0,3.5093014E0,1.2399776E0,1.4480884E0,1.5020752E1,1.4246645E0,5.324051E0,1.5632005E0,2.6582758E0,1.6792301E0,1.8300712E0,1.4572058E0,1.3563546E1],"tree_param":{"num_deleted":"0","num_feature":"8","num_nodes":"39","size_leaf_vector":"1"}},{"base_weights":[2.2481661E-3,6.1524883E-2,-7.262413E-3,-1.6392389E-1,1.912872E-2,-1.1627517E-1,-1.0392597E-2,9.5580705E-2,2.9782471E-3,1.710568E-1,-9.190066E-2,-7.3415525E-2,2.0892324E-2,1.4245851E-1,-3.7255432E-2,7.587409E-2,3.4736758E-3,-3.998024E-3,7.8979716E-2],"categories":[],"categories_nodes":[],"categories_segments":[],"categories_sizes":[],"default_left":[0,0,0,0,0,0,0,0,0,0,0,0,0,0,0,0,0,0,0],"id":38,"left_children":[1,-1,3,5,7,-1,9,-1,11,13,-1,-1,15,-1,-1,-1,17,-1,-1],"loss_changes":[9.27503E-2,0E0,1.9396245E-1,2.280605E-1,1.944333E-1,0E0,3.227871E-1,0E0,1.7966832E-1,3.9650643E-1,0E0,0E0,1.5110913E-1,0E0,0E0,0E0,1.60611E-1,0E0,0E0],"parents":[2147483647,0,0,2,2,3,3,4,4,6,6,8,8,9,9,12,12,16,16],"right_children":[2,-1,4,6,8,-1,10,-1,12,14,-1,-1,16,-1,-1,-1,18,-1,-1],"split_conditions":[7E0,6.1524883E-2,2.6E1,1.356784E-1,2.7E1,-1.1627517E-1,6.5829146E-1,9.5580705E-2,4.0201005E-2,1.9E1,-9.190066E-2,-7.3415525E-2,1.1557789E-1,1.4245851E-1,-3.7255432E-2,7.587409E-2,9.045226E-1,-3.998024E-3,7.8979716E-2],"split_indices":[2,0,2,4,2,0,4,0,4,2,0,0,4,0,0,0,4,0,0],"split_type":[0,0,0,0,0,0,0,0,0,0,0,0,0,0,0,0,0,0,0],"sum_hessian":[4.630809E1,1.153048E0,4.515504E1,5.7587814E0,3.939626E1,1.7235299E0,4.035251E0,1.057639E0,3.833862E1,2.7631156E0,1.2721356E0,1.7318449E0,3.6606777E1,1.0619651E0,1.7011505E0,1.6121938E0,3.4994583E1,3.3760063E1,1.2345183E0],"tree_param":{"num_deleted":"0","num_feature":"8","num_nodes":"19","size_leaf_vector":"1"}},{"base_weights":[4.3164375E-3,1.2875578E-1,-1.2270659E-2,-5.2235224E-3,2.204162E-1,-1.0284535E-1,2.3380361E-2,1.0851186E-1,2.1604055E-3,-2.6859233E-2,-1.134408E-1,2.1607213E-1,-2.6946943E-2,-1.4315732E-1,1.04716346E-1,3.7621564E-1,4.9245443E-2,-6.481372E-2,2.3864876E-1,2.4846442E-2,-1.3568383E-1,-8.075705E-2,9.651639E-2,3.2437034E-2,1.4327812E-1,-8.5330606E-2,9.364265E-2,-4.495672E-1,3.1816877E-2,1.2298406E-1,-5.46318E-3,7.117034E-2,-7.644687E-2,5.1833358E-2,-7.3293254E-2,-1.6364438E-2,-2.0670366E-1,9.734299E-2,-1.911648E-2],"categories":[],"categories_nodes":[],"categories_segments":[],"categories_sizes":[],"default_left":[0,0,0,0,0,0,0,0,0,0,0,0,0,0,0,0,0,0,0,0,0,0,0,0,0,0,0,0,0,0,0,0,0,0,0,0,0,0,0],"id":39,"left_children":[1,3,5,-1,7,9,11,-1,-1,13,-1,15,17,19,21,23,25,27,29,31,-1,33,-1,-1,-1,-1,-1,35,37,-1,-1,-1,-1,-1,-1,-1,-1,-1,-1],"loss_changes":[9.8543204E-2,7.9029135E-2,1.3920172E-1,0E0,1.0350937E-1,2.440108E-1,3.0852154E-1,0E0,0E0,1.7717105E-1,0E0,1.5713158E-1,2.7332214E-1,3.253529E-1,2.4937087E-1,3.5443425E-2,4.7221574E-1,8.7781566E-1,1.576284E-1,3.495199E-1,0E0,1.9944793E-1,0E0,0E0,0E0,0E0,0E0,4.096461E-1,5.658312E-1,0E0,0E0,0E0,0E0,0E0,0E0,0E0,0E0,0E0,0E0],"parents":[2147483647,0,0,1,1,2,2,4,4,5,5,6,6,9,9,11,11,12,12,13,13,14,14,15,15,16,16,17,17,18,18,19,19,21,21,27,27,28,28],"right_children":[2,4,6,-1,8,10,12,-1,-1,14,-1,16,18,20,22,24,26,28,30,32,-1,34,-1,-1,-1,-1,-1,36,38,-1,-1,-1,-1,-1,-1,-1,-1,-1,-1],"split_conditions":[8.5427135E-2,4E2,2.8140703E-1,-5.2235224E-3,4.7E1,2.6633167E-1,3.517588E-1,1.0851186E-1,2.1604055E-3,2.0603015E-1,-1.134408E-1,3.9E1,4.7E1,1.8592964E-1,4.8E1,3.4E1,4.4E1,4.0201005E-1,4.5728642E-1,5E1,-1.3568383E-1,2.4120604E-1,9.651639E-2,3.2437034E-2,1.4327812E-1,-8.5330606E-2,9.364265E-2,3.8190955E-1,4.7738692E-1,1.2298406E-1,-5.46318E-3,7.117034E-2,-7.644687E-2,5.1833358E-2,-7.3293254E-2,-1.6364438E-2,-2.0670366E-1,9.734299E-2,-1.911648E-2],"split_indices":[4,1,4,0,2,4,4,0,0,4,0,2,2,4,2,2,2,4,4,2,0,4,0,0,0,0,0,4,4,0,0,0,0,0,0,0,0,0,0],"split_type":[0,0,0,0,0,0,0,0,0,0,0,0,0,0,0,0,0,0,0,0,0,0,0,0,0,0,0,0,0,0,0,0,0,0,0,0,0,0,0],"sum_hessian":[4.597635E1,4.6122236E0,4.1364124E1,2.0897758E0,2.5224478E0,1.1150494E1,3.021363E1,1.0982419E0,1.4242059E0,9.598632E0,1.5518614E0,5.5749774E0,2.4638655E1,5.0483932E0,4.5502386E0,2.2040725E0,3.3709052E0,2.222582E1,2.4128332E0,3.866581E0,1.1818126E0,2.7918823E0,1.7583562E0,1.1718024E0,1.0322701E0,1.4493694E0,1.9215356E0,3.728328E0,1.8497494E1,1.0899525E0,1.3228806E0,2.283878E0,1.5827028E0,1.0726707E0,1.7192116E0,1.870433E0,1.8578949E0,3.9626253E0,1.4534867E1],"tree_param":{"num_deleted":"0","num_feature":"8","num_nodes":"39","size_leaf_vector":"1"}},{"base_weights":[4.7251293E-3,-1.0343817E-2,1.4193664E-1,2.9853307E-2,-1.8528348E-1,-1.7639284E-1,1.5586025E-1,1.6289915E-1,-1.276182E-2,-1.5961169E-1,-3.498814E-2,3.0762013E-2,-1.05962984E-1,-4.7168754E-2,3.5375202E-1,-2.9378757E-1,3.993945E-2,1.8306713E-1,-2.7215067E-1,4.1339897E-2,-6.166601E-2,1.7769767E-1,1.1809551E-1,-1.913075E-2,-1.1062352E-1,1.5490437E-1,-4.1794293E-2,-3.7242994E-2,1.02878466E-1,-1.2301452E-1,-1.1448717E-2,-3.1219328E-2,7.842962E-2,-2.2279328E-2,8.2521334E-2,-1.2819277E-1,2.3257015E-2],"categories":[],"categories_nodes":[],"categories_segments":[],"categories_sizes":[],"default_left":[0,0,0,0,0,0,0,0,0,0,0,0,0,0,0,0,0,0,0,0,0,0,0,0,0,0,0,0,0,0,0,0,0,0,0,0,0],"id":40,"left_children":[1,3,5,7,9,11,-1,13,15,-1,17,-1,-1,19,21,23,25,27,29,-1,-1,-1,31,-1,-1,33,35,-1,-1,-1,-1,-1,-1,-1,-1,-1,-1],"loss_changes":[9.745736E-2,3.0624232E-1,6.520032E-1,2.0411551E-1,4.0502098E-1,1.9779047E-1,0E0,3.6618543E-1,4.2519027E-1,0E0,3.98441E-1,0E0,0E0,1.7574804E-1,1.9346112E-1,5.4558754E-2,2.3564017E-1,2.4441524E-1,1.0152024E-1,0E0,0E0,0E0,1.4203605E-1,0E0,0E0,3.0535597E-1,7.2503376E-1,0E0,0E0,0E0,0E0,0E0,0E0,0E0,0E0,0E0,0E0],"parents":[2147483647,0,0,1,1,2,2,3,3,4,4,5,5,7,7,8,8,10,10,13,13,14,14,15,15,16,16,17,17,18,18,22,22,25,25,26,26],"right_children":[2,4,6,8,10,12,-1,14,16,-1,18,-1,-1,20,22,24,26,28,30,-1,-1,-1,32,-1,-1,34,36,-1,-1,-1,-1,-1,-1,-1,-1,-1,-1],"split_conditions":[5.1E1,6E2,6E2,2.4120604E-1,2.160804E-1,5.6E1,1.5586025E-1,3.6E1,2.8140703E-1,-1.5961169E-1,6.3316584E-1,3.0762013E-2,-1.05962984E-1,1.7E1,4.4E1,3.7E1,4.2211056E-1,3.9698493E-1,8.0904526E-1,4.1339897E-2,-6.166601E-2,1.7769767E-1,1.4572865E-1,-1.913075E-2,-1.1062352E-1,3.8E1,4.723618E-1,-3.7242994E-2,1.02878466E-1,-1.2301452E-1,-1.1448717E-2,-3.1219328E-2,7.842962E-2,-2.2279328E-2,8.2521334E-2,-1.2819277E-1,2.3257015E-2],"split_indices":[2,1,1,4,4,2,0,2,4,0,4,0,0,2,2,2,4,4,4,0,0,0,4,0,0,2,4,0,0,0,0,0,0,0,0,0,0],"split_type":[0,0,0,0,0,0,0,0,0,0,0,0,0,0,0,0,0,0,0,0,0,0,0,0,0,0,0,0,0,0,0,0,0,0,0,0,0],"sum_hessian":[4.542468E1,4.1762787E1,3.6618903E0,3.4634033E1,7.1287556E0,2.2759933E0,1.3858969E0,7.717421E0,2.6916613E1,1.3875349E0,5.741221E0,1.0459938E0,1.2299997E0,4.0321584E0,3.6852627E0,3.528193E0,2.3388418E1,3.1099353E0,2.6312854E0,1.9199388E0,2.1122196E0,1.0791957E0,2.606067E0,1.3220427E0,2.2061503E0,9.346543E0,1.4041876E1,1.140886E0,1.9690492E0,1.1821631E0,1.4491223E0,1.1294684E0,1.4765985E0,3.346485E0,6.0000577E0,2.7087247E0,1.1333152E1],"tree_param":{"num_deleted":"0","num_feature":"8","num_nodes":"37","size_leaf_vector":"1"}},{"base_weights":[1.1712691E-3,1.1768078E-1,-1.4348018E-2,-3.7788711E-3,1.9926627E-1,-1.7226578E-1,2.7798845E-3,9.5050864E-2,5.648845E-3,-6.667086E-2,-2.1181064E-2,8.520022E-2,-1.539307E-2,-8.846326E-2,5.567968E-3,2.1599378E-1,-2.6791463E-2,1.0982768E-1,-1.2713668E-2,-9.2998035E-2,3.477083E-4],"categories":[],"categories_nodes":[],"categories_segments":[],"categories_sizes":[],"default_left":[0,0,0,0,0,0,0,0,0,0,0,0,0,0,0,0,0,0,0,0,0],"id":41,"left_children":[1,3,5,-1,7,9,11,-1,-1,-1,-1,-1,13,-1,15,17,19,-1,-1,-1,-1],"loss_changes":[8.497004E-2,6.1208986E-2,1.1282666E-1,0E0,6.733729E-2,5.036898E-3,2.0090693E-1,0E0,0E0,0E0,0E0,0E0,2.1881212E-1,0E0,2.4728258E-1,2.0311472E-1,2.5071824E-1,0E0,0E0,0E0,0E0],"parents":[2147483647,0,0,1,1,2,2,4,4,5,5,6,6,12,12,14,14,15,15,16,16],"right_children":[2,4,6,-1,8,10,12,-1,-1,-1,-1,-1,14,-1,16,18,20,-1,-1,-1,-1],"split_conditions":[8.5427135E-2,4E2,1.4572865E-1,-3.7788711E-3,4.7E1,4.4E1,1.959799E-1,9.5050864E-2,5.648845E-3,-6.667086E-2,-2.1181064E-2,8.520022E-2,2.2613065E-1,-8.846326E-2,2.713568E-1,4.5E1,3.0150753E-1,1.0982768E-1,-1.2713668E-2,-9.2998035E-2,3.477083E-4],"split_indices":[4,1,4,0,2,2,4,0,0,0,0,0,4,0,4,2,4,0,0,0,0],"split_type":[0,0,0,0,0,0,0,0,0,0,0,0,0,0,0,0,0,0,0,0,0],"sum_hessian":[4.5059124E1,4.52268E0,4.0536446E1,2.0672572E0,2.4554226E0,3.0801468E0,3.74563E1,1.0290008E0,1.4264219E0,1.2699162E0,1.8102307E0,1.3856794E0,3.6070618E1,1.6048205E0,3.4465797E1,3.8373802E0,3.0628418E1,2.1635664E0,1.6738136E0,1.8448715E0,2.8783546E1],"tree_param":{"num_deleted":"0","num_feature":"8","num_nodes":"21","size_leaf_vector":"1"}},{"base_weights":[1.1532361E-3,-1.2967338E-2,1.3255848E-1,1.6695539E-2,-2.0201616E-1,-1.3739708E-1,1.36789E-1,2.1549702E-1,-2.8203566E-2,-8.013622E-3,-1.2191502E-1,2.7237862E-2,-8.617716E-2,-2.6218418E-2,3.3520535E-1,-1.4016828E-1,5.910564E-3,7.4235976E-2,-8.4332794E-2,7.9364225E-2,4.8296878E-1,-1.6259372E-2,9.5232785E-2,5.0116513E-2,-1.3472945E-2,1.8411964E-1,3.3768438E-2,5.843656E-2,-1.4447856E-2],"categories":[],"categories_nodes":[],"categories_segments":[],"categories_sizes":[],"default_left":[0,0,0,0,0,0,0,0,0,0,0,0,0,0,0,0,0,0,0,0,0,0,0,0,0,0,0,0,0],"id":42,"left_children":[1,3,5,7,9,11,-1,13,15,17,-1,-1,-1,-1,19,-1,21,-1,-1,23,25,27,-1,-1,-1,-1,-1,-1,-1],"loss_changes":[8.686968E-2,2.4085256E-1,4.591812E-1,3.410597E-1,2.27489E-1,1.3701373E-1,0E0,2.8419295E-1,4.745161E-1,3.4903163E-1,0E0,0E0,0E0,0E0,1.5996754E-1,0E0,2.1384679E-1,0E0,0E0,4.1470945E-2,8.2443E-2,2.05693E-1,0E0,0E0,0E0,0E0,0E0,0E0,0E0],"parents":[2147483647,0,0,1,1,2,2,3,3,4,4,5,5,7,7,8,8,9,9,14,14,16,16,19,19,20,20,21,21],"right_children":[2,4,6,8,10,12,-1,14,16,18,-1,-1,-1,-1,20,-1,22,-1,-1,24,26,28,-1,-1,-1,-1,-1,-1,-1],"split_conditions":[5.1E1,6E2,6E2,1.959799E-1,4E1,5.6E1,1.36789E-1,2.0100502E-2,2.2613065E-1,6.834171E-1,-1.2191502E-1,2.7237862E-2,-8.617716E-2,-2.6218418E-2,3.3E1,-1.4016828E-1,9.0954775E-1,7.4235976E-2,-8.4332794E-2,8.5427135E-2,4.6E1,2.4E1,9.5232785E-2,5.0116513E-2,-1.3472945E-2,1.8411964E-1,3.3768438E-2,5.843656E-2,-1.4447856E-2],"split_indices":[2,3,1,4,2,2,0,4,4,4,0,0,0,0,2,0,4,0,0,4,2,2,0,0,0,0,0,0,0],"split_type":[0,0,0,0,0,0,0,0,0,0,0,0,0,0,0,0,0,0,0,0,0,0,0,0,0,0,0,0,0],"sum_hessian":[4.489057E1,4.1348637E1,3.5419333E0,3.6528748E1,4.819889E0,2.2439754E0,1.2979579E0,6.0299816E0,3.0498766E1,3.005771E0,1.8141185E0,1.0457599E0,1.1982154E0,1.7845541E0,4.2454276E0,1.2836112E0,2.9215155E1,1.6015238E0,1.404247E0,2.117039E0,2.1283886E0,2.8159046E1,1.0561082E0,1.0393798E0,1.0776591E0,1.0875459E0,1.0408429E0,3.0269406E0,2.5132105E1],"tree_param":{"num_deleted":"0","num_feature":"8","num_nodes":"29","size_leaf_vector":"1"}},{"base_weights":[4.951434E-3,1.7090002E-2,-5.372845E-2,-3.5734964E-3,2.1977289E-1,4.111268E-2,-8.064681E-2,1.0043966E-1,1.2143389E-2,1.2305804E-3,1.3006814E-1,-1.064241E-1,-2.1707712E-2,-7.019827E-2,1.07069105E-1,-1.0675489E-1,1.05343044E-1,3.0426227E-4,-1.3842966E-1,-6.1886613E-3,1.2741148E-1,8.172349E-2,2.1647068E-3],"categories":[],"categories_nodes":[],"categories_segments":[],"categories_sizes":[],"default_left":[0,0,0,0,0,0,0,0,0,0,0,0,0,0,0,0,0,0,0,0,0,0,0],"id":43,"left_children":[1,3,-1,5,7,9,11,-1,-1,13,-1,-1,15,17,19,-1,21,-1,-1,-1,-1,-1,-1],"loss_changes":[1.0493014E-1,1.8376483E-1,0E0,1.4325626E-1,7.014039E-2,4.123906E-1,2.3866138E-1,0E0,0E0,1.961458E-1,0E0,0E0,6.155296E-1,4.3234563E-1,4.3262717E-1,0E0,1.7241184E-1,0E0,0E0,0E0,0E0,0E0,0E0],"parents":[2147483647,0,0,1,1,3,3,4,4,5,5,6,6,9,9,12,12,13,13,14,14,16,16],"right_children":[2,4,-1,6,8,10,12,-1,-1,14,-1,-1,16,18,20,-1,22,-1,-1,-1,-1,-1,-1],"split_conditions":[8.894472E-1,7.5376886E-1,-5.372845E-2,4.2211056E-1,3.2E1,3.9698493E-1,2.8E1,1.0043966E-1,1.2143389E-2,4.5E1,1.3006814E-1,-1.064241E-1,4.723618E-1,3.8190955E-1,3.1658292E-1,-1.0675489E-1,3.4E1,3.0426227E-4,-1.3842966E-1,-6.1886613E-3,1.2741148E-1,8.172349E-2,2.1647068E-3],"split_indices":[4,4,0,4,2,4,2,0,0,2,0,0,4,4,4,0,2,0,0,0,0,0,0],"split_type":[0,0,0,0,0,0,0,0,0,0,0,0,0,0,0,0,0,0,0,0,0,0,0],"sum_hessian":[4.4598373E1,4.2689945E1,1.9084252E0,3.963185E1,3.058094E0,2.538216E1,1.4249692E1,1.334587E0,1.7235069E0,2.3951273E1,1.4308877E0,1.6336095E0,1.2616083E1,1.4501301E1,9.449971E0,2.9794142E0,9.636668E0,1.311205E1,1.3892506E0,7.407155E0,2.0428166E0,2.9085536E0,6.7281146E0],"tree_param":{"num_deleted":"0","num_feature":"8","num_nodes":"23","size_leaf_vector":"1"}},{"base_weights":[4.2048125E-3,3.619584E-2,-5.3952046E-2,-3.7786195E-3,2.8200358E-1,-1.359624E-1,1.8837337E-1,-5.293329E-2,1.5232874E-1,-8.69584E-3,1.2153855E-1,-3.5666052E-1,-9.784137E-3,8.235374E-2,-3.932027E-3,5.2368525E-2,-2.1498902E-1,-7.22072E-2,1.63724E-1,-1.7212194E-1,-1.5075219E-1,1.3267547E-1,-2.2680883E-1,-4.1485555E-2,2.191428E-1,-4.3585104E-1,-3.933868E-3,-5.89538E-2,6.597832E-2,-1.2014581E-1,5.404481E-2,-1.5021531E-2,1.24614336E-1,-1.11846134E-1,7.5605013E-3,-4.007517E-2,7.287727E-2,1.2559064E-1,-7.668554E-2,-1.15633095E-2,-2.1359701E-1,-1.231452E-1,7.573614E-2,2.83459E-2,2.1039604E-3,8.342365E-2,-7.263145E-2],"categories":[],"categories_nodes":[],"categories_segments":[],"categories_sizes":[],"default_left":[0,0,0,0,0,0,0,0,0,0,0,0,0,0,0,0,0,0,0,0,0,0,0,0,0,0,0,0,0,0,0,0,0,0,0,0,0,0,0,0,0,0,0,0,0,0,0],"id":44,"left_children":[1,3,5,7,9,11,13,15,17,-1,-1,19,21,-1,-1,23,25,27,-1,29,-1,31,33,35,37,39,41,-1,43,-1,-1,45,-1,-1,-1,-1,-1,-1,-1,-1,-1,-1,-1,-1,-1,-1,-1],"loss_changes":[8.653174E-2,2.9512146E-1,3.5419828E-1,2.1315026E-1,1.7253366E-1,3.5669273E-1,8.34319E-2,3.7079138E-1,6.275747E-1,0E0,0E0,3.937733E-2,3.1630883E-1,0E0,0E0,2.2156835E-1,3.9422673E-1,1.0094917E-1,0E0,3.605842E-1,0E0,2.6594567E-1,1.5796949E-1,2.8200245E-1,5.850679E-1,4.2692578E-1,6.6154855E-1,0E0,4.673237E-3,0E0,0E0,4.0347683E-1,0E0,0E0,0E0,0E0,0E0,0E0,0E0,0E0,0E0,0E0,0E0,0E0,0E0,0E0,0E0],"parents":[2147483647,0,0,1,1,2,2,3,3,4,4,5,5,6,6,7,7,8,8,11,11,12,12,15,15,16,16,17,17,19,19,21,21,22,22,23,23,24,24,25,25,26,26,28,28,31,31],"right_children":[2,4,6,8,10,12,14,16,18,-1,-1,20,22,-1,-1,24,26,28,-1,30,-1,32,34,36,38,40,42,-1,44,-1,-1,46,-1,-1,-1,-1,-1,-1,-1,-1,-1,-1,-1,-1,-1,-1,-1],"split_conditions":[4.7738692E-1,4.2713568E-1,4.2E1,4.8E1,3.9E1,5.879397E-1,6E2,4.2E1,2.160804E-1,-8.69584E-3,1.2153855E-1,3.9E1,8.1407034E-1,8.235374E-2,-3.932027E-3,3.6E1,4.5E1,5.1E1,1.63724E-1,3.5E1,-1.5075219E-1,7.5376886E-1,9.0954775E-1,3.3668342E-1,3.7688443E-1,2.8643215E-1,3.115578E-1,-5.89538E-2,5.6E1,-1.2014581E-1,5.404481E-2,6.5829146E-1,1.24614336E-1,-1.11846134E-1,7.5605013E-3,-4.007517E-2,7.287727E-2,1.2559064E-1,-7.668554E-2,-1.15633095E-2,-2.1359701E-1,-1.231452E-1,7.573614E-2,2.83459E-2,2.1039604E-3,8.342365E-2,-7.263145E-2],"split_indices":[4,4,2,2,2,4,3,2,4,0,0,2,4,0,0,2,2,2,0,2,0,4,4,4,4,4,4,0,2,0,0,4,0,0,0,0,0,0,0,0,0,0,0,0,0,0,0],"split_type":[0,0,0,0,0,0,0,0,0,0,0,0,0,0,0,0,0,0,0,0,0,0,0,0,0,0,0,0,0,0,0,0,0,0,0,0,0,0,0,0,0,0,0,0,0,0,0],"sum_hessian":[4.446037E1,2.8926207E1,1.5534162E1,2.5726986E1,3.1992207E0,1.1934192E1,3.59997E0,2.0068718E1,5.658267E0,1.124225E0,2.0749958E0,3.6766796E0,8.257512E0,2.2678947E0,1.3320755E0,1.2574689E1,7.494029E0,4.122111E0,1.536156E0,2.5854676E0,1.091212E0,5.219792E0,3.0377202E0,8.527174E0,4.047515E0,3.1414764E0,4.352553E0,1.9478341E0,2.1742768E0,1.4855645E0,1.0999031E0,4.0505066E0,1.1692854E0,1.6198282E0,1.417892E0,6.8419175E0,1.6852565E0,2.9332116E0,1.1143036E0,1.7554011E0,1.3860753E0,1.4508821E0,2.9016707E0,1.0595858E0,1.114691E0,1.6701925E0,2.380314E0],"tree_param":{"num_deleted":"0","num_feature":"8","num_nodes":"47","size_leaf_vector":"1"}},{"base_weights":[1.8410807E-3,9.2454076E-2,-2.0620817E-2,-2.1997891E-2,2.2837375E-1,-1.0503273E-1,-9.4460364E-4,1.18553154E-1,-5.2524548E-2,1.5834247E-1,-6.0328577E-2,7.5371355E-2,-2.2762168E-2,-6.5361536E-3,7.2771035E-2,-1.2892945E-1,2.7090965E-2,-1.9984095E-1,8.6403E-2,2.6773176E-1,-3.3574354E-2,1.8652245E-2,-1.12286866E-1,-1.2191921E-2,1.2083331E-1,-5.8718037E-2,2.6301516E-3],"categories":[],"categories_nodes":[],"categories_segments":[],"categories_sizes":[],"default_left":[0,0,0,0,0,0,0,0,0,0,0,0,0,0,0,0,0,0,0,0,0,0,0,0,0,0,0],"id":45,"left_children":[1,3,5,7,9,-1,11,13,-1,-1,-1,-1,15,-1,-1,17,19,21,-1,23,25,-1,-1,-1,-1,-1,-1],"loss_changes":[9.327315E-2,1.4657989E-1,2.3818511E-1,1.4667012E-1,6.523658E-1,0E0,2.0225032E-1,6.8762496E-2,0E0,0E0,0E0,0E0,1.8234968E-1,0E0,0E0,3.8193417E-1,3.56745E-1,4.7884494E-1,0E0,2.2074375E-1,1.3843867E-1,0E0,0E0,0E0,0E0,0E0,0E0],"parents":[2147483647,0,0,1,1,2,2,3,3,4,4,6,6,7,7,12,12,15,15,16,16,17,17,19,19,20,20],"right_children":[2,4,6,8,10,-1,12,14,-1,-1,-1,-1,16,-1,-1,18,20,22,-1,24,26,-1,-1,-1,-1,-1,-1],"split_conditions":[1.8592964E-1,9.045226E-2,2.0603015E-1,4E2,5E1,-1.0503273E-1,2.4120604E-1,2.6E1,-5.2524548E-2,1.5834247E-1,-6.0328577E-2,7.5371355E-2,3.7185928E-1,-6.5361536E-3,7.2771035E-2,4.8E1,4.2211056E-1,3.9E1,8.6403E-2,3.8E1,4.723618E-1,1.8652245E-2,-1.12286866E-1,-1.2191921E-2,1.2083331E-1,-5.8718037E-2,2.6301516E-3],"split_indices":[4,4,4,3,2,0,4,2,0,0,0,0,4,0,0,2,4,2,0,2,4,0,0,0,0,0,0],"split_type":[0,0,0,0,0,0,0,0,0,0,0,0,0,0,0,0,0,0,0,0,0,0,0,0,0,0,0],"sum_hessian":[4.3890125E1,8.099617E0,3.579051E1,4.852064E0,3.2475536E0,1.0705237E0,3.4719986E1,2.647177E0,2.204887E0,1.7785406E0,1.469013E0,1.9273183E0,3.2792667E1,1.6285709E0,1.0186062E0,9.971393E0,2.2821274E1,8.967012E0,1.0043803E0,3.907632E0,1.8913641E1,3.8412294E0,5.125783E0,1.4030031E0,2.5046291E0,3.1660945E0,1.5747547E1],"tree_param":{"num_deleted":"0","num_feature":"8","num_nodes":"27","size_leaf_vector":"1"}},{"base_weights":[4.3664533E-3,1.2389607E-1,-1.1998779E-2,1.0564773E-2,6.697056E-2,-1.8020858E-1,4.439735E-3,4.250245E-2,-3.819169E-2,1.790254E-2,-9.617153E-2,7.140161E-2,-3.5271052E-2,3.754087E-1,-4.570498E-2,-3.1458202E-1,3.0960567E-2,-1.7481452E-2,1.9072981E-1,-1.531252E-1,1.2144177E-1,-1.6627723E-1,6.1215863E-2,2.8451154E-1,-3.3859394E-2,-7.639421E-2,6.0662042E-2,-2.7839253E-2,1.2166209E-1,1.753578E-1,4.2625475E-3,-8.702804E-2,5.314988E-3],"categories":[],"categories_nodes":[],"categories_segments":[],"categories_sizes":[],"default_left":[0,0,0,0,0,0,0,0,0,0,0,0,0,0,0,0,0,0,0,0,0,0,0,0,0,0,0,0,0,0,0,0,0],"id":46,"left_children":[1,3,5,7,-1,9,11,-1,-1,-1,-1,13,15,17,19,21,23,-1,-1,25,27,-1,-1,29,31,-1,-1,-1,-1,-1,-1,-1,-1],"loss_changes":[8.865246E-2,5.9049673E-2,1.11697555E-1,8.306506E-2,0E0,1.4016037E-1,1.0226516E-1,0E0,0E0,0E0,0E0,5.2607447E-1,4.5772472E-1,4.9815327E-1,2.1989107E-1,7.012134E-1,3.463105E-1,0E0,0E0,3.1365073E-1,3.3854306E-1,0E0,0E0,3.385461E-1,2.3255314E-1,0E0,0E0,0E0,0E0,0E0,0E0,0E0,0E0],"parents":[2147483647,0,0,1,1,2,2,3,3,5,5,6,6,11,11,12,12,13,13,14,14,15,15,16,16,19,19,20,20,23,23,24,24],"right_children":[2,4,6,8,-1,10,12,-1,-1,-1,-1,14,16,18,20,22,24,-1,-1,26,28,-1,-1,30,32,-1,-1,-1,-1,-1,-1,-1,-1],"split_conditions":[8.5427135E-2,3.6E1,4E2,1.7E1,6.697056E-2,2.562814E-1,3.517588E-1,4.250245E-2,-3.819169E-2,1.790254E-2,-9.617153E-2,3.9E1,4.0201005E-1,2.8643215E-1,4.8E1,4.6E1,4.5728642E-1,-1.7481452E-2,1.9072981E-1,3.2160804E-1,2.160804E-1,-1.6627723E-1,6.1215863E-2,3.5E1,5.0753766E-1,-7.639421E-2,6.0662042E-2,-2.7839253E-2,1.2166209E-1,1.753578E-1,4.2625475E-3,-8.702804E-2,5.314988E-3],"split_indices":[4,2,3,2,0,4,4,0,0,0,0,2,4,4,2,2,4,0,0,4,4,0,0,2,4,0,0,0,0,0,0,0,0],"split_type":[0,0,0,0,0,0,0,0,0,0,0,0,0,0,0,0,0,0,0,0,0,0,0,0,0,0,0,0,0,0,0,0,0],"sum_hessian":[4.3560364E1,4.454508E0,3.9105854E1,2.5974972E0,1.8570106E0,2.594511E0,3.6511345E1,1.3172464E0,1.2802508E0,1.1699291E0,1.424582E0,1.32949095E1,2.3216434E1,3.0837739E0,1.0211136E1,3.7312672E0,1.9485167E1,1.4480036E0,1.6357702E0,6.2672496E0,3.9438863E0,2.5049677E0,1.2262995E0,3.277109E0,1.620806E1,5.094928E0,1.1723216E0,2.6322572E0,1.311629E0,1.0022303E0,2.2748785E0,1.9409035E0,1.4267155E1],"tree_param":{"num_deleted":"0","num_feature":"8","num_nodes":"33","size_leaf_vector":"1"}},{"base_weights":[8.298946E-3,3.943038E-2,-4.768379E-2,2.319604E-3,2.605962E-1,-1.137726E-1,1.4899942E-1,3.3436205E-2,-2.2539826E-1,-1.135294E-2,1.1416887E-1,-2.9686522E-1,-1.1479085E-2,2.0710694E-2,8.469687E-2,-1.544052E-2,1.1290136E-1,-1.1258676E-1,3.4408735E-3,-3.1711787E-2,-1.2265757E-1,1.03662536E-1,-2.1846713E-1,8.088659E-2,-8.294068E-2,3.9282937E-2,-3.134442E-1,-7.0658787E-3,1.0676985E-1,-1.1329309E-1,4.8293965E-3,-3.2139577E-2,3.202441E-2,-1.3754511E-1,-1.5056503E-2,4.005192E-2,-8.90404E-2],"categories":[],"categories_nodes":[],"categories_segments":[],"categories_sizes":[],"default_left":[0,0,0,0,0,0,0,0,0,0,0,0,0,0,0,0,0,0,0,0,0,0,0,0,0,0,0,0,0,0,0,0,0,0,0,0,0],"id":47,"left_children":[1,3,5,7,9,11,13,15,17,-1,-1,19,21,23,-1,25,-1,-1,-1,-1,-1,27,29,-1,-1,31,33,35,-1,-1,-1,-1,-1,-1,-1,-1,-1],"loss_changes":[7.887474E-2,2.3690647E-1,2.280521E-1,1.9027108E-1,1.6294676E-1,2.348793E-1,7.141973E-2,4.0066358E-1,1.1896439E-1,0E0,0E0,5.3550303E-2,2.419731E-1,3.2466766E-1,0E0,