{"learner":{"attributes":{"scikit_learn":"{\"_estimator_type\": \"classifier\"}"},"feature_names":[],"feature_types":[],"gradient_booster":{"model":{"cats":{"enc":[],"feature_segments":[],"sorted_idx":[]},"gbtree_model_param":{"num_parallel_tree":"1","num_trees":"100"},"iteration_indptr":[0,1,2,3,4,5,6,7,8,9,10,11,12,13,14,15,16,17,18,19,20,21,22,23,24,25,26,27,28,29,30,31,32,33,34,35,36,37,38,39,40,41,42,43,44,45,46,47,48,49,50,51,52,53,54,55,56,57,58,59,60,61,62,63,64,65,66,67,68,69,70,71,72,73,74,75,76,77,78,79,80,81,82,83,84,85,86,87,88,89,90,91,92,93,94,95,96,97,98,99,100],"tree_info":[0,0,0,0,0,0,0,0,0,0,0,0,0,0,0,0,0,0,0,0,0,0,0,0,0,0,0,0,0,0,0,0,0,0,0,0,0,0,0,0,0,0,0,0,0,0,0,0,0,0,0,0,0,0,0,0,0,0,0,0,0,0,0,0,0,0,0,0,0,0,0,0,0,0,0,0,0,0,0,0,0,0,0,0,0,0,0,0,0,0,0,0,0,0,0,0,0,0,0,0],"trees":[{"base_weights":[5.755094E-8,1.7144746E0,-5.694829E-1,1.412068E0,5.7363904E-1,-8.5467684E-1,9.463446E-1,1.6741505E0,-8.296435E-3,1.1625136E0,-1.1206685E0,3.0140045E-1,1.4411881E0,5.53411E-1,1.0310646E0,-2.4192412E-1,1.9787043E-1,1.5004474E0,-1.4067969E-1,-1.4688929E0,-3.8800135E-1,9.908813E-1,-6.753171E-1,6.488992E-2,4.6665564E-1,-6.844552E-2,4.174495E-1,5.286076E-1,6.58385E-1,-7.70261E-1,-1.8021612E0,-1.271107E0,1.1174114E0,-7.619161E-3,4.6418807E-1,9.786854E-2,-4.1760823E-1,-1.21922076E-1,3.9787427E-1,-3.7801006E-1,2.7120711E-2,-5.6582835E-2,-5.577409E-1,2.7765915E-1,-4.8453656E-1,4.256438E-1,-2.4192412E-1,3.3156082E-1,-3.3511642E-1],"categories":[],"categories_nodes":[],"categories_segments":[],"categories_sizes":[],"default_left":[0,0,0,0,0,0,0,0,0,0,0,0,0,0,0,0,0,0,0,0,0,0,0,0,0,0,0,0,0,0,0,0,0,0,0,0,0,0,0,0,0,0,0,0,0,0,0,0,0],"id":0,"left_children":[1,3,5,7,-1,9,11,13,15,17,19,21,23,-1,25,-1,-1,27,-1,29,31,33,35,-1,-1,-1,-1,-1,37,39,41,43,45,47,-1,-1,-1,-1,-1,-1,-1,-1,-1,-1,-1,-1,-1,-1,-1],"loss_changes":[1.850158E2,1.2409973E-1,6.230245E1,8.389339E0,0E0,6.5821815E1,6.905792E0,1.8185806E-1,2.9304857E0,8.697548E0,2.6664719E1,8.2450285E0,1.4490337E0,0E0,3.154055E0,0E0,0E0,1.538084E0,0E0,1.5375275E1,4.8946457E1,3.9007392E0,4.222576E0,0E0,0E0,0E0,0E0,0E0,3.7390304E0,1.06518545E1,4.061981E0,1.887492E1,9.116787E0,5.5555983E0,0E0,0E0,0E0,0E0,0E0,0E0,0E0,0E0,0E0,0E0,0E0,0E0,0E0,0E0,0E0],"parents":[2147483647,0,0,1,1,2,2,3,3,5,5,6,6,7,7,8,8,9,9,10,10,11,11,12,12,14,14,17,17,19,19,20,20,21,21,22,22,28,28,29,29,30,30,31,31,32,32,33,33],"right_children":[2,4,6,8,-1,10,12,14,16,18,20,22,24,-1,26,-1,-1,28,-1,30,32,34,36,-1,-1,-1,-1,-1,38,40,42,44,46,48,-1,-1,-1,-1,-1,-1,-1,-1,-1,-1,-1,-1,-1,-1,-1],"split_conditions":[1.0072038E0,4.29875E1,4.00125E1,1.6E1,5.7363904E-1,4.75E1,4.1945E1,1.0035323E0,1.2535443E0,1.0919733E0,3.5495E1,6.25E1,1.0078814E0,5.53411E-1,8.292159E-1,-2.4192412E-1,1.9787043E-1,4.4E1,-1.4067969E-1,5.35E1,1.0362988E0,8.557107E-1,1.05E1,6.488992E-2,4.6665564E-1,-6.844552E-2,4.174495E-1,5.286076E-1,2.44775E1,3.02775E1,1.0130116E0,4.5E0,1.5135059E0,8.3556294E-1,4.6418807E-1,9.786854E-2,-4.1760823E-1,-1.21922076E-1,3.9787427E-1,-3.7801006E-1,2.7120711E-2,-5.6582835E-2,-5.577409E-1,2.7765915E-1,-4.8453656E-1,4.256438E-1,-2.4192412E-1,3.3156082E-1,-3.3511642E-1],"split_indices":[5,2,2,0,0,1,2,5,6,5,2,1,5,0,4,0,0,1,0,1,5,4,0,0,0,0,0,0,2,2,5,0,6,4,0,0,0,0,0,0,0,0,0,0,0,0,0,0,0],"split_type":[0,0,0,0,0,0,0,0,0,0,0,0,0,0,0,0,0,0,0,0,0,0,0,0,0,0,0,0,0,0,0,0,0,0,0,0,0,0,0,0,0,0,0,0,0,0,0,0,0],"sum_hessian":[1.8749467E2,4.6248684E1,1.4124599E2,2.149939E1,2.4749296E1,1.1924661E2,2.1999374E1,1.7999489E1,3.4999006E0,1.3499617E1,1.05746994E2,1.0249708E1,1.1749666E1,1.2749638E1,5.2498507E0,1.4999573E0,1.9999431E0,1.12496805E1,2.249936E0,7.099798E1,3.4749012E1,5.9998293E0,4.2498794E0,1.2499645E0,1.04997015E1,1.2499645E0,3.9998863E0,7.7497797E0,3.4999006E0,2.3999317E1,4.6998665E1,2.1999374E1,1.2749638E1,2.499929E0,3.4999006E0,1.9999431E0,2.249936E0,1.4999573E0,1.9999431E0,1.4999574E1,8.999744E0,1.7499503E0,4.5248714E1,2.7499218E0,1.9249453E1,1.12496805E1,1.4999573E0,1.2499645E0,1.2499645E0],"tree_param":{"num_deleted":"0","num_feature":"7","num_nodes":"49","size_leaf_vector":"1"}},{"base_weights":[1.0438246E-2,1.1078107E0,-5.1405406E-1,1.3330063E0,3.6932427E-1,-8.128136E-1,3.0375174E-1,1.4465771E0,9.924007E-1,4.5956537E-1,-2.472702E-1,6.625509E-1,-1.1410623E0,-6.852356E-2,1.1100427E0,4.409063E-1,1.39276E-1,4.6736106E-1,3.8899678E-1,-7.998956E-1,8.170508E-1,8.844193E-1,-2.0475432E-1,2.9565808E-1,-1.2088583E0,-6.652188E-1,3.3102906E-1,4.236789E-1,-2.0165195E-1,-2.0195691E-1,8.431092E-1,-4.890805E-2,-3.605781E-1,3.4375915E-1,1.7302374E-3,4.157141E-1,4.32381E-1,3.2509553E-1,-1.2611541E-1,-1.2830234E0,-2.78873E-1,2.3788321E-1,-1.0924668E0,3.7685812E-1,-1.0236509E-1,1.3837674E-1,-1.7579737E-1,-2.1314614E-1,3.4339723E-1,9.3384884E-2,-3.956638E-1,-3.2554343E-1,3.2406047E-1,3.634133E-1,-1.540506E-1,-3.8460523E-1,8.4659815E-2],"categories":[],"categories_nodes":[],"categories_segments":[],"categories_sizes":[],"default_left":[0,0,0,0,0,0,0,0,0,0,0,0,0,0,0,0,0,0,0,0,0,0,0,0,0,0,0,0,0,0,0,0,0,0,0,0,0,0,0,0,0,0,0,0,0,0,0,0,0,0,0,0,0,0,0,0,0],"id":1,"left_children":[1,3,5,7,9,11,13,15,17,-1,19,21,23,25,27,-1,-1,29,-1,31,33,35,-1,37,39,41,-1,-1,-1,-1,43,45,-1,-1,-1,-1,47,-1,-1,49,51,53,55,-1,-1,-1,-1,-1,-1,-1,-1,-1,-1,-1,-1,-1,-1],"loss_changes":[1.03246826E2,9.154594E0,2.9905006E1,2.6913452E-1,1.1087212E1,4.3944378E1,1.0043684E1,1.8371582E-2,1.6631718E0,0E0,6.901353E0,5.635969E0,7.498741E0,1.7279455E1,6.6303587E0,0E0,0E0,3.4711175E0,0E0,2.2048016E0,1.0938132E0,2.779683E0,0E0,2.7730165E0,4.484688E0,6.549845E0,0E0,0E0,0E0,0E0,3.139035E0,1.2721881E0,0E0,0E0,0E0,0E0,8.379032E0,0E0,0E0,4.111763E0,8.254523E0,5.0522146E0,3.2919083E0,0E0,0E0,0E0,0E0,0E0,0E0,0E0,0E0,0E0,0E0,0E0,0E0,0E0,0E0],"parents":[2147483647,0,0,1,1,2,2,3,3,4,4,5,5,6,6,7,7,8,8,10,10,11,11,12,12,13,13,14,14,17,17,19,19,20,20,21,21,23,23,24,24,25,25,30,30,31,31,36,36,39,39,40,40,41,41,42,42],"right_children":[2,4,6,8,10,12,14,16,18,-1,20,22,24,26,28,-1,-1,30,-1,32,34,36,-1,38,40,42,-1,-1,-1,-1,44,46,-1,-1,-1,-1,48,-1,-1,50,52,54,56,-1,-1,-1,-1,-1,-1,-1,-1,-1,-1,-1,-1,-1,-1],"split_conditions":[1.0114186E0,1.0072038E0,3.7255E1,1.0028658E0,8E0,4.9E1,1.0328037E0,9.698492E-1,4.23875E1,4.5956537E-1,4.24875E1,1.6407686E0,2.713568E-1,4.178E1,1.4224596E0,4.409063E-1,1.39276E-1,8.3090705E-1,3.8899678E-1,1.2615685E0,8.52801E-1,4.15E1,-2.0475432E-1,5.3E1,3.63025E1,7.5E0,3.3102906E-1,4.236789E-1,-2.0165195E-1,-2.0195691E-1,1.5E1,6.1E1,-3.605781E-1,3.4375915E-1,1.7302374E-3,4.157141E-1,2.44775E1,3.2509553E-1,-1.2611541E-1,1.0130116E0,1.0345297E0,1.3139993E0,1.0257859E0,3.7685812E-1,-1.0236509E-1,1.3837674E-1,-1.7579737E-1,-2.1314614E-1,3.4339723E-1,9.3384884E-2,-3.956638E-1,-3.2554343E-1,3.2406047E-1,3.634133E-1,-1.540506E-1,-3.8460523E-1,8.4659815E-2],"split_indices":[5,5,2,5,0,1,5,3,2,0,2,6,3,2,6,0,0,4,0,6,4,1,0,1,2,0,0,0,0,0,0,1,0,0,0,0,2,0,0,5,5,6,5,0,0,0,0,0,0,0,0,0,0,0,0,0,0],"split_type":[0,0,0,0,0,0,0,0,0,0,0,0,0,0,0,0,0,0,0,0,0,0,0,0,0,0,0,0,0,0,0,0,0,0,0,0,0,0,0,0,0,0,0,0,0,0,0,0,0,0,0,0,0,0,0,0,0],"sum_hessian":[1.7739452E2,5.7007675E1,1.2038684E2,4.3069057E1,1.3938617E1,8.817939E1,3.2207447E1,2.986415E1,1.3204907E1,4.316198E0,9.622419E0,1.5862861E1,7.231653E1,2.2660025E1,9.547422E0,2.8692972E1,1.171177E0,5.775121E0,7.4297867E0,6.4972887E0,3.12513E0,1.3910754E1,1.9521062E0,3.1072545E0,6.9209274E1,1.5301643E1,7.3583813E0,8.340634E0,1.2067878E0,1.2349473E0,4.5401735E0,2.6565506E0,3.8407383E0,1.9303505E0,1.1947795E0,5.6166325E0,8.294122E0,1.234889E0,1.8723654E0,6.3746002E1,5.4632754E0,5.0565352E0,1.0245108E1,3.3211117E0,1.219062E0,1.4348248E0,1.221726E0,3.1854644E0,5.1086574E0,1.2331519E0,6.2512848E1,3.5555182E0,1.907757E0,1.9360269E0,3.1205084E0,9.062843E0,1.182264E0],"tree_param":{"num_deleted":"0","num_feature":"7","num_nodes":"57","size_leaf_vector":"1"}},{"base_weights":[2.2615422E-2,9.495072E-1,-3.869527E-1,1.1224642E0,3.1776723E-1,-5.651853E-1,5.6951267E-1,8.786059E-1,3.8911268E-1,3.423792E-1,-5.646153E-2,2.3348854E-1,-8.754213E-1,1.0442553E0,1.9459794E-1,1.1214837E0,-2.1419793E-1,-6.313875E-1,5.756869E-1,3.2726395E-1,-2.5908064E-2,-1.1114849E0,-2.4434038E-1,6.644755E-2,1.1475003E0,-1.9983025E-1,3.1539822E-1,1.1635854E0,8.249374E-2,-2.3586726E-1,1.0693168E-1,9.443967E-2,-3.39892E-1,-7.7418946E-2,2.9356194E-1,-7.1193093E-1,5.4488325E-1,6.697851E-2,-1.1502497E0,-9.2256194E-1,8.6109984E-1,3.8127306E-1,7.611981E-2,2.5478724E-1,-7.1792686E-1,1.4927477E-1,3.9007154E-1,1.2685387E-1,-2.7143627E-1,-8.193833E-2,3.0749807E-1,-3.5416365E-2,-3.5325745E-1,1.5234786E-1,-3.3365065E-1,3.2841796E-1,-8.346111E-2,-3.4067395E-1,-1.15013365E-2],"categories":[],"categories_nodes":[],"categories_segments":[],"categories_sizes":[],"default_left":[0,0,0,0,0,0,0,0,0,0,0,0,0,0,0,0,0,0,0,0,0,0,0,0,0,0,0,0,0,0,0,0,0,0,0,0,0,0,0,0,0,0,0,0,0,0,0,0,0,0,0,0,0,0,0,0,0,0,0],"id":2,"left_children":[1,3,5,7,9,11,13,15,-1,-1,17,19,21,23,25,27,29,31,33,-1,35,37,39,-1,41,43,-1,45,-1,-1,-1,-1,-1,-1,-1,47,49,-1,51,53,55,-1,-1,-1,57,-1,-1,-1,-1,-1,-1,-1,-1,-1,-1,-1,-1,-1,-1],"loss_changes":[6.1452774E1,5.062969E0,1.9467417E1,5.013809E-1,3.7797942E0,2.3785185E1,3.0252924E0,5.331336E0,0E0,0E0,3.7223568E0,6.125394E0,9.971153E0,4.0628052E-1,4.0502105E0,2.4506378E-1,1.6928419E0,2.8800523E0,1.90672E0,0E0,9.011916E0,2.8312263E0,1.5788271E1,0E0,4.1309357E-1,5.296084E0,0E0,6.993847E-1,0E0,0E0,0E0,0E0,0E0,0E0,0E0,2.6664581E0,5.223707E0,0E0,1.2268143E0,4.057251E0,2.466308E0,0E0,0E0,0E0,1.7484386E0,0E0,0E0,0E0,0E0,0E0,0E0,0E0,0E0,0E0,0E0,0E0,0E0,0E0,0E0],"parents":[2147483647,0,0,1,1,2,2,3,3,4,4,5,5,6,6,7,7,10,10,11,11,12,12,13,13,14,14,15,15,16,16,17,17,18,18,20,20,21,21,22,22,24,24,25,25,27,27,35,35,36,36,38,38,39,39,40,40,44,44],"right_children":[2,4,6,8,10,12,14,16,-1,-1,18,20,22,24,26,28,30,32,34,-1,36,38,40,-1,42,44,-1,46,-1,-1,-1,-1,-1,-1,-1,48,50,-1,52,54,56,-1,-1,-1,58,-1,-1,-1,-1,-1,-1,-1,-1,-1,-1,-1,-1,-1,-1],"split_conditions":[1.0107772E0,1.0072038E0,3.943E1,4.29875E1,6.5E0,5.2E1,6.05E1,1.6E1,3.8911268E-1,3.423792E-1,4.111E1,4.15E1,3.63025E1,1.2577598E0,4.22225E1,4.27875E1,1.2535443E0,5.8E1,1.2440075E0,3.2726395E-1,2.73225E1,1.0130116E0,1.0362988E0,6.644755E-2,2E1,7E0,3.1539822E-1,8.292159E-1,8.249374E-2,-2.3586726E-1,1.0693168E-1,9.443967E-2,-3.39892E-1,-7.7418946E-2,2.9356194E-1,1.3293761E0,1.0462128E0,6.697851E-2,2.713568E-1,4.5E0,1.4135338E0,3.8127306E-1,7.611981E-2,2.5478724E-1,4.16675E1,1.4927477E-1,3.9007154E-1,1.2685387E-1,-2.7143627E-1,-8.193833E-2,3.0749807E-1,-3.5416365E-2,-3.5325745E-1,1.5234786E-1,-3.3365065E-1,3.2841796E-1,-8.346111E-2,-3.4067395E-1,-1.15013365E-2],"split_indices":[5,5,2,2,0,1,1,0,0,0,2,1,2,6,2,2,6,1,6,0,2,5,5,0,0,0,0,4,0,0,0,0,0,0,0,6,5,0,3,0,6,0,0,0,2,0,0,0,0,0,0,0,0,0,0,0,0,0,0],"split_type":[0,0,0,0,0,0,0,0,0,0,0,0,0,0,0,0,0,0,0,0,0,0,0,0,0,0,0,0,0,0,0,0,0,0,0,0,0,0,0,0,0,0,0,0,0,0,0,0,0,0,0,0,0,0,0,0,0,0,0],"sum_hessian":[1.599096E2,4.860149E1,1.1130812E2,3.7545536E1,1.1055952E1,9.4169235E1,1.7138885E1,1.8181528E1,1.9364008E1,2.8140173E0,8.241935E0,2.641462E1,6.7754616E1,6.7748246E0,1.036406E1,1.4853962E1,3.3275664E0,4.316956E0,3.924979E0,5.3907995E0,2.1023819E1,4.8755703E1,1.8998915E1,1.1060417E0,5.6687827E0,7.621817E0,2.742243E0,1.3793358E1,1.0606043E0,1.4730891E0,1.8544773E0,1.6246417E0,2.6923146E0,1.3957423E0,2.5292366E0,9.435822E0,1.1587998E1,1.2417147E0,4.751399E1,1.1877275E1,7.121639E0,4.61024E0,1.0585427E0,2.3083224E0,5.3134947E0,3.1385038E0,1.0654854E1,1.1974471E0,8.238375E0,4.44527E0,7.1427283E0,1.3603753E0,4.6153614E1,1.1937034E0,1.0683573E1,5.9422436E0,1.1793956E0,2.8753932E0,2.4381015E0],"tree_param":{"num_deleted":"0","num_feature":"7","num_nodes":"59","size_leaf_vector":"1"}},{"base_weights":[3.2579478E-2,9.8326313E-1,-2.502453E-1,3.3477312E-1,6.328519E-1,-4.1154373E-1,5.5515987E-1,1.6600351E-1,9.542451E-1,7.3602664E-1,-5.724751E-1,9.3478423E-1,2.0231985E-1,-1.9168511E-1,5.129635E-1,9.174113E-2,3.1914562E-1,1.0020156E0,-1.0092443E-1,-7.684718E-1,-1.7593883E-1,1.0548615E0,8.021694E-3,-5.988256E-1,7.105469E-1,2.761357E-1,-1.1230005E-1,8.854358E-2,1.1004629E0,-3.0948034E-1,-1.0468736E0,-6.6535884E-1,7.58331E-1,8.802932E-2,3.599055E-1,-3.0734366E-1,1.0575787E-1,7.1288735E-2,3.1848097E-1,3.784009E-1,9.712412E-2,-2.7468985E-1,1.5013688E-2,-6.0023483E-2,-3.251717E-1,9.3772516E-2,-2.9496124E-1,2.84562E-1,-1.2713715E-1,1.7834015E-1,-1.5544273E-1],"categories":[],"categories_nodes":[],"categories_segments":[],"categories_sizes":[],"default_left":[0,0,0,0,0,0,0,0,0,0,0,0,0,0,0,0,0,0,0,0,0,0,0,0,0,0,0,0,0,0,0,0,0,0,0,0,0,0,0,0,0,0,0,0,0,0,0,0,0,0,0],"id":3,"left_children":[1,3,5,-1,7,9,11,13,15,17,19,21,23,-1,25,-1,-1,27,-1,29,31,33,-1,35,37,-1,-1,-1,39,41,43,45,47,-1,-1,-1,-1,49,-1,-1,-1,-1,-1,-1,-1,-1,-1,-1,-1,-1,-1],"loss_changes":[3.845797E1,8.178196E-1,1.4561335E1,0E0,1.5391159E0,1.7503181E1,2.333694E0,1.9542042E0,1.3581419E-1,3.7069168E0,6.2130165E0,9.3094444E-1,4.9197E0,0E0,2.016491E0,0E0,0E0,3.5140228E-1,0E0,6.623089E0,1.3451672E1,5.018482E-1,0E0,2.3158083E0,1.5425556E0,0E0,0E0,0E0,6.115837E-1,4.828332E0,8.3114624E-1,6.248543E0,2.6957245E0,0E0,0E0,0E0,0E0,1.4268656E0,0E0,0E0,0E0,0E0,0E0,0E0,0E0,0E0,0E0,0E0,0E0,0E0,0E0],"parents":[2147483647,0,0,1,1,2,2,4,4,5,5,6,6,7,7,8,8,9,9,10,10,11,11,12,12,14,14,17,17,19,19,20,20,21,21,23,23,24,24,28,28,29,29,30,30,31,31,32,32,37,37],"right_children":[2,4,6,-1,8,10,12,14,16,18,20,22,24,-1,26,-1,-1,28,-1,30,32,34,-1,36,38,-1,-1,-1,40,42,44,46,48,-1,-1,-1,-1,50,-1,-1,-1,-1,-1,-1,-1,-1,-1,-1,-1,-1,-1],"split_conditions":[1.0072038E0,1.0028658E0,4.00125E1,3.3477312E-1,4.23875E1,4.75E1,5.728643E-1,8.3090705E-1,1.0037696E0,1.0919733E0,3.5495E1,2.05E1,7.2864324E-1,-1.9168511E-1,1.5E1,9.174113E-2,3.1914562E-1,2E0,-1.0092443E-1,5.35E1,1.0388799E0,1.0086572E0,8.021694E-3,4.24875E1,4.178E1,2.761357E-1,-1.1230005E-1,8.854358E-2,8.983269E-1,2.73225E1,1.0130116E0,6E0,1.5135059E0,8.802932E-2,3.599055E-1,-3.0734366E-1,1.0575787E-1,6.15E1,3.1848097E-1,3.784009E-1,9.712412E-2,-2.7468985E-1,1.5013688E-2,-6.0023483E-2,-3.251717E-1,9.3772516E-2,-2.9496124E-1,2.84562E-1,-1.2713715E-1,1.7834015E-1,-1.5544273E-1],"split_indices":[5,5,2,0,2,1,3,4,5,5,2,0,3,0,0,0,0,0,0,1,5,5,0,2,2,0,0,0,4,2,5,0,6,0,0,0,0,1,0,0,0,0,0,0,0,0,0,0,0,0,0],"split_type":[0,0,0,0,0,0,0,0,0,0,0,0,0,0,0,0,0,0,0,0,0,0,0,0,0,0,0,0,0,0,0,0,0,0,0,0,0,0,0,0,0,0,0,0,0,0,0,0,0,0,0],"sum_hessian":[1.4111676E2,3.178809E1,1.0932867E2,2.1474424E1,1.0313665E1,9.1494156E1,1.7834505E1,4.8235703E0,5.490095E0,1.0813271E1,8.0680885E1,7.79667E0,1.0037835E1,1.1993914E0,3.624179E0,1.3415927E0,4.148503E0,8.716946E0,2.0963244E0,5.336574E1,2.7315145E1,6.743274E0,1.0533956E0,3.8269482E0,6.210887E0,2.4579878E0,1.166191E0,1.5543592E0,7.1625867E0,2.0945404E1,3.2420338E1,1.8113937E1,9.201209E0,1.5611938E0,5.1820803E0,2.5908747E0,1.2360736E0,2.6281712E0,3.5827155E0,5.4167376E0,1.745849E0,7.2221866E0,1.3723218E1,1.6266797E0,3.079366E1,4.447285E0,1.3666652E1,8.096103E0,1.105106E0,1.3878093E0,1.240362E0],"tree_param":{"num_deleted":"0","num_feature":"7","num_nodes":"51","size_leaf_vector":"1"}},{"base_weights":[3.4745984E-2,7.040625E-1,-2.6430783E-1,1.0370215E0,3.6102894E-1,-3.9733756E-1,4.5142967E-1,9.159645E-2,3.196949E-1,-2.4332169E-1,3.2470784E-1,3.3645493E-1,-6.168908E-1,7.000174E-1,-9.291059E-2,2.6078093E-1,-4.8807925E-1,4.979384E-1,-5.76387E-1,-8.3908725E-1,-1.6755822E-1,3.7054524E-1,3.11015E-1,-4.4920173E-1,1.9760145E-1,2.032399E-1,-7.3632336E-1,2.991651E-1,1.9856797E-1,-1.8290758E-2,-2.4174114E-1,7.9081506E-2,-8.8306814E-1,-6.406958E-1,7.561091E-1,5.787451E-1,-4.3110535E-2,9.577169E-2,-2.9198563E-1,2.2284351E-1,-1.3438821E-1,5.0488017E-3,-2.6001266E-1,2.4698082E-1,-1.13987796E-1,5.4064557E-2,-2.7933648E-1,1.5296316E-1,-2.5207478E-1,2.8292683E-1,4.6986725E-2,1.1635236E-2,2.7078018E-1],"categories":[],"categories_nodes":[],"categories_segments":[],"categories_sizes":[],"default_left":[0,0,0,0,0,0,0,0,0,0,0,0,0,0,0,0,0,0,0,0,0,0,0,0,0,0,0,0,0,0,0,0,0,0,0,0,0,0,0,0,0,0,0,0,0,0,0,0,0,0,0,0,0],"id":4,"left_children":[1,3,5,7,9,11,13,-1,-1,15,-1,17,19,21,23,-1,25,27,29,31,33,35,-1,37,-1,39,41,-1,43,-1,-1,-1,45,47,49,51,-1,-1,-1,-1,-1,-1,-1,-1,-1,-1,-1,-1,-1,-1,-1,-1,-1],"loss_changes":[2.5226553E1,4.069401E0,8.481518E0,7.701683E-2,9.286203E0,1.2139095E1,1.9776466E0,0E0,0E0,3.7134178E0,0E0,2.8965716E0,5.5859356E0,7.0524645E-1,1.7188777E0,0E0,1.9586325E0,2.1304862E0,3.203218E-1,2.0819435E0,9.324465E0,7.812015E-1,0E0,2.0019953E0,0E0,1.5866882E0,7.974539E-1,0E0,4.283792E0,0E0,0E0,0E0,2.053011E0,3.6238794E0,6.717353E-1,8.113061E-1,0E0,0E0,0E0,0E0,0E0,0E0,0E0,0E0,0E0,0E0,0E0,0E0,0E0,0E0,0E0,0E0,0E0],"parents":[2147483647,0,0,1,1,2,2,3,3,4,4,5,5,6,6,9,9,11,11,12,12,13,13,14,14,16,16,17,17,18,18,19,19,20,20,21,21,23,23,25,25,26,26,28,28,32,32,33,33,34,34,35,35],"right_children":[2,4,6,8,10,12,14,-1,-1,16,-1,18,20,22,24,-1,26,28,30,32,34,36,-1,38,-1,40,42,-1,44,-1,-1,-1,46,48,50,52,-1,-1,-1,-1,-1,-1,-1,-1,-1,-1,-1,-1,-1,-1,-1,-1,-1],"split_conditions":[1.0114186E0,1.25E1,3.943E1,8.0290174E-1,4.4115E1,5.05E1,6.25E1,9.159645E-2,3.196949E-1,3.317E1,3.2470784E-1,1.6407686E0,3.5495E1,1.3113102E0,4.22225E1,2.6078093E-1,1.0027292E0,4.35E1,1.0740314E0,1.0130116E0,1.0434556E0,1.2693639E0,3.11015E-1,8E0,1.9760145E-1,4.18825E1,1.2192018E0,2.991651E-1,8.796481E-1,-1.8290758E-2,-2.4174114E-1,7.9081506E-2,2.713568E-1,5.55E1,1.4135338E0,4.12325E1,-4.3110535E-2,9.577169E-2,-2.9198563E-1,2.2284351E-1,-1.3438821E-1,5.0488017E-3,-2.6001266E-1,2.4698082E-1,-1.13987796E-1,5.4064557E-2,-2.7933648E-1,1.5296316E-1,-2.5207478E-1,2.8292683E-1,4.6986725E-2,1.1635236E-2,2.7078018E-1],"split_indices":[5,0,2,4,2,1,1,0,0,2,0,6,2,6,2,0,5,1,5,5,5,6,0,0,0,2,6,0,4,0,0,0,3,1,6,2,0,0,0,0,0,0,0,0,0,0,0,0,0,0,0,0,0],"split_type":[0,0,0,0,0,0,0,0,0,0,0,0,0,0,0,0,0,0,0,0,0,0,0,0,0,0,0,0,0,0,0,0,0,0,0,0,0,0,0,0,0,0,0,0,0,0,0,0,0,0,0,0,0],"sum_hessian":[1.241012E2,3.790691E1,8.619428E1,1.8209305E1,1.9697605E1,7.305994E1,1.3134344E1,1.1248393E0,1.7084465E1,1.107845E1,8.619155E0,1.670291E1,5.6357033E1,8.820315E0,4.3140283E0,1.5375724E0,9.540878E0,1.4578468E1,2.1244407E0,3.712914E1,1.9227892E1,5.5196576E0,3.3006575E0,3.199578E0,1.1144503E0,2.5687158E0,6.972162E0,4.5908976E0,9.987571E0,1.0442162E0,1.0802245E0,1.232563E0,3.5896576E1,1.2917442E1,6.310449E0,3.8396862E0,1.6799716E0,1.4558266E0,1.7437514E0,1.3278258E0,1.2408901E0,1.1574197E0,5.814742E0,4.5987434E0,5.3888273E0,1.4332225E0,3.4463356E1,1.6793954E0,1.1238048E1,4.3732643E0,1.9371846E0,1.8593565E0,1.9803295E0],"tree_param":{"num_deleted":"0","num_feature":"7","num_nodes":"53","size_leaf_vector":"1"}},{"base_weights":[4.3538164E-2,-1.07934885E-1,3.0986232E-1,8.4523576E-1,-1.8887259E-1,3.0778542E-1,-1.2170332E-3,-3.9825934E-1,1.7037089E-1,-4.537103E-2,-6.7126334E-1,5.154279E-1,-1.4487569E-1,-6.0010195E-1,2.5197768E-1,1.768889E-1,-7.6684976E-1,9.004229E-1,-1.9091254E-1,-4.538513E-1,6.605104E-1,8.9751974E-2,-2.8424442E-1,-5.7745848E-2,2.301349E-1,-2.475025E-1,1.7292389E-3,3.3537018E-1,1.2633786E-1,-2.0981497E-1,1.1291558E-1,-1.70947E-1,8.783707E-2,-3.6842115E-2,2.6426917E-1],"categories":[],"categories_nodes":[],"categories_segments":[],"categories_sizes":[],"default_left":[0,0,0,0,0,0,0,0,0,0,0,0,0,0,0,0,0,0,0,0,0,0,0,0,0,0,0,0,0,0,0,0,0,0,0],"id":5,"left_children":[1,3,-1,5,7,-1,-1,9,11,13,15,17,19,21,23,-1,25,27,29,31,33,-1,-1,-1,-1,-1,-1,-1,-1,-1,-1,-1,-1,-1,-1],"loss_changes":[1.6689217E1,7.6306243E0,0E0,1.1955009E0,6.843606E0,0E0,0E0,5.4809866E0,3.758971E0,4.4441314E0,4.330926E0,4.6289015E0,4.898443E0,3.2130208E0,4.1883335E0,0E0,1.3684769E0,6.531849E-1,2.1690438E0,1.374666E0,1.063045E0,0E0,0E0,0E0,0E0,0E0,0E0,0E0,0E0,0E0,0E0,0E0,0E0,0E0,0E0],"parents":[2147483647,0,0,1,1,3,3,4,4,7,7,8,8,9,9,10,10,11,11,12,12,13,13,14,14,16,16,17,17,18,18,19,19,20,20],"right_children":[2,4,-1,6,8,-1,-1,10,12,14,16,18,20,22,24,-1,26,28,30,32,34,-1,-1,-1,-1,-1,-1,-1,-1,-1,-1,-1,-1,-1,-1],"split_conditions":[4.32225E1,4.35E1,3.0986232E-1,1.0919733E0,3.7255E1,3.0778542E-1,-1.2170332E-3,5.35E1,1.1E1,2.73225E1,1.0072038E0,1.3139993E0,1.0234109E0,1.3589379E0,1.0498497E0,1.768889E-1,9.748744E-1,7E0,8.5714287E-1,8.711997E-1,1.25E1,8.9751974E-2,-2.8424442E-1,-5.7745848E-2,2.301349E-1,-2.475025E-1,1.7292389E-3,3.3537018E-1,1.2633786E-1,-2.0981497E-1,1.1291558E-1,-1.70947E-1,8.783707E-2,-3.6842115E-2,2.6426917E-1],"split_indices":[2,1,0,5,2,0,0,1,0,2,5,6,5,6,5,0,3,0,4,4,0,0,0,0,0,0,0,0,0,0,0,0,0,0,0],"split_type":[0,0,0,0,0,0,0,0,0,0,0,0,0,0,0,0,0,0,0,0,0,0,0,0,0,0,0,0,0,0,0,0,0,0,0],"sum_hessian":[1.09623116E2,9.584032E1,1.3782801E1,6.7621517E0,8.907816E1,5.4042153E0,1.357936E0,5.6208294E1,3.2869873E1,2.5025812E1,3.1182482E1,1.5389791E1,1.7480082E1,8.377902E0,1.6647911E1,1.8331126E0,2.934937E1,9.78283E0,5.606961E0,1.2948893E1,4.5311894E0,2.3731644E0,6.004737E0,9.273251E0,7.3746595E0,2.7231686E1,2.1176825E0,5.812892E0,3.9699383E0,2.8340032E0,2.7729576E0,1.141299E1,1.535903E0,1.0921485E0,3.4390411E0],"tree_param":{"num_deleted":"0","num_feature":"7","num_nodes":"35","size_leaf_vector":"1"}},{"base_weights":[4.6719562E-2,7.2133857E-1,-1.2373846E-1,4.7310096E-1,2.932703E-1,-2.4392148E-2,-7.7286255E-1,7.25488E-1,-2.3540428E-1,-1.8307854E-1,4.244277E-1,7.01583E-2,-3.0780542E-1,2.8398332E-1,2.3383734E-1,-1.9697306E-1,7.357592E-2,-3.8599792E-1,3.829741E-1,-1.12085596E-1,7.7428854E-1,-1.2362816E-1,1.7330681E-1,2.738301E-1,-6.057903E-1,7.08263E-1,6.967739E-2,5.515965E-1,-7.894203E-1,9.351036E-1,-1.8286142E-2,2.777489E-1,-1.33397E-1,-7.561567E-2,-2.7330658E-1,2.4301407E-1,3.788288E-2,-1.620916E-1,1.579523E-1,-1.28454445E-2,3.1741506E-1,-6.5063365E-2,-2.7557343E-1,3.693104E-1,1.6657035E-1],"categories":[],"categories_nodes":[],"categories_segments":[],"categories_sizes":[],"default_left":[0,0,0,0,0,0,0,0,0,0,0,0,0,0,0,0,0,0,0,0,0,0,0,0,0,0,0,0,0,0,0,0,0,0,0,0,0,0,0,0,0,0,0,0,0],"id":6,"left_children":[1,3,5,7,-1,9,11,13,15,17,19,-1,-1,-1,21,-1,-1,23,25,27,29,-1,-1,31,33,35,37,39,41,43,-1,-1,-1,-1,-1,-1,-1,-1,-1,-1,-1,-1,-1,-1,-1],"loss_changes":[1.1545268E1,8.2495403E-1,5.164798E0,2.35569E0,0E0,5.1162663E0,2.9507751E0,7.8472996E-1,9.635695E-1,6.2314653E0,3.6119976E0,0E0,0E0,0E0,1.1706831E0,0E0,0E0,5.892331E0,1.4261708E0,4.1604834E0,1.6008878E0,0E0,0E0,5.3562493E0,3.0020628E0,3.1202102E-1,2.6486847E0,1.4825073E0,1.344626E-1,4.0686798E-1,0E0,0E0,0E0,0E0,0E0,0E0,0E0,0E0,0E0,0E0,0E0,0E0,0E0,0E0,0E0],"parents":[2147483647,0,0,1,1,2,2,3,3,5,5,6,6,7,7,8,8,9,9,10,10,14,14,17,17,18,18,19,19,20,20,23,23,24,24,25,25,26,26,27,27,28,28,29,29],"right_children":[2,4,6,8,-1,10,12,14,16,18,20,-1,-1,-1,22,-1,-1,24,26,28,30,-1,-1,32,34,36,38,40,42,44,-1,-1,-1,-1,-1,-1,-1,-1,-1,-1,-1,-1,-1,-1,-1],"split_conditions":[1.0072038E0,4.29875E1,1.5343972E0,1.6E1,2.932703E-1,1.0462128E0,4.5E1,1.0035323E0,1.2535443E0,3.99E1,2.90275E1,7.01583E-2,-3.0780542E-1,2.8398332E-1,8.292159E-1,-1.9697306E-1,7.357592E-2,6E0,5.728643E-1,4.9E1,5.8E1,-1.2362816E-1,1.7330681E-1,1.0286529E0,5.6E1,2E1,7.2864324E-1,2.42975E1,1.5E0,5.2E1,-1.8286142E-2,2.777489E-1,-1.33397E-1,-7.561567E-2,-2.7330658E-1,2.4301407E-1,3.788288E-2,-1.620916E-1,1.579523E-1,-1.28454445E-2,3.1741506E-1,-6.5063365E-2,-2.7557343E-1,3.693104E-1,1.6657035E-1],"split_indices":[5,2,6,0,0,5,1,5,6,2,2,0,0,0,4,0,0,0,3,1,1,0,0,5,1,0,3,2,0,1,0,0,0,0,0,0,0,0,0,0,0,0,0,0,0],"split_type":[0,0,0,0,0,0,0,0,0,0,0,0,0,0,0,0,0,0,0,0,0,0,0,0,0,0,0,0,0,0,0,0,0,0,0,0,0,0,0,0,0,0,0,0,0],"sum_hessian":[9.8622505E1,1.9240988E1,7.9381516E1,1.1218639E1,8.022348E0,6.974487E1,9.636646E0,8.254289E0,2.9643514E0,5.196428E1,1.7780592E1,1.9516673E0,7.684979E0,5.055274E0,3.1990142E0,1.3848708E0,1.5794806E0,3.848589E1,1.347839E1,7.286436E0,1.0494156E1,1.0423956E0,2.1566186E0,9.555108E0,2.893078E1,5.9941354E0,7.4842544E0,3.774072E0,3.512364E0,8.699601E0,1.7945551E0,4.8580384E0,4.6970696E0,1.4246288E1,1.4684492E1,4.768335E0,1.2258005E0,3.1266575E0,4.357597E0,2.1574135E0,1.6166586E0,1.1396385E0,2.3727252E0,3.6305764E0,5.0690246E0],"tree_param":{"num_deleted":"0","num_feature":"7","num_nodes":"45","size_leaf_vector":"1"}},{"base_weights":[4.5751903E-2,-6.1876215E-2,2.736355E-1,6.9175315E-1,-1.2947056E-1,2.8974965E-1,-4.6149537E-2,2.2117882E-3,-5.955013E-1,6.8303806E-1,-1.6480392E-1,2.692185E-1,-7.980545E-1,3.035428E-1,2.3579107E-1,-2.8227293E-1,5.058722E-1,1.7401849E-1,-9.1590434E-2,-1.705173E-1,-9.145067E-1,2.2813039E-1,-1.3255155E-1,1.5960108E-1,-1.1422748E-1,-1.337712E-1,2.571681E-1,-2.0834069E-1,1.3684729E-1,-3.1084558E-1,-3.3941824E-2],"categories":[],"categories_nodes":[],"categories_segments":[],"categories_sizes":[],"default_left":[0,0,0,0,0,0,0,0,0,0,0,0,0,0,0,0,0,0,0,0,0,0,0,0,0,0,0,0,0,0,0],"id":7,"left_children":[1,3,-1,5,7,-1,-1,9,11,13,15,17,19,-1,21,23,25,-1,-1,27,29,-1,-1,-1,-1,-1,-1,-1,-1,-1,-1],"loss_changes":[8.4774885E0,4.2294216E0,0E0,1.7353551E0,4.629748E0,0E0,0E0,6.912481E0,3.1258197E0,1.5221877E0,3.989533E0,8.7392247E-1,8.46529E-1,0E0,2.6031172E0,3.5860517E0,2.9356391E0,0E0,0E0,1.4254034E0,9.8835945E-1,0E0,0E0,0E0,0E0,0E0,0E0,0E0,0E0,0E0,0E0],"parents":[2147483647,0,0,1,1,3,3,4,4,7,7,8,8,9,9,10,10,11,11,12,12,14,14,15,15,16,16,19,19,20,20],"right_children":[2,4,-1,6,8,-1,-1,10,12,14,16,18,20,-1,22,24,26,-1,-1,28,30,-1,-1,-1,-1,-1,-1,-1,-1,-1,-1],"split_conditions":[4.32225E1,4.4E1,2.736355E-1,1.0919733E0,1.4135338E0,2.8974965E-1,-4.6149537E-2,5E0,5.1758796E-1,1.3229227E0,1.0420432E0,5.3E1,4.9E1,3.035428E-1,5.7E1,1.0028658E0,3.1465E1,1.7401849E-1,-9.1590434E-2,2.52075E1,3.615E1,2.2813039E-1,-1.3255155E-1,1.5960108E-1,-1.1422748E-1,-1.337712E-1,2.571681E-1,-2.0834069E-1,1.3684729E-1,-3.1084558E-1,-3.3941824E-2],"split_indices":[2,1,0,5,6,0,0,0,3,6,5,1,1,0,1,5,2,0,0,2,2,0,0,0,0,0,0,0,0,0,0],"split_type":[0,0,0,0,0,0,0,0,0,0,0,0,0,0,0,0,0,0,0,0,0,0,0,0,0,0,0,0,0,0,0],"sum_hessian":[8.931063E1,8.026762E1,9.043013E0,5.8467355E0,7.442088E1,4.3081355E0,1.5385998E0,5.8801186E1,1.5619697E1,1.0974567E1,4.782662E1,2.9019327E0,1.2717764E1,5.5975237E0,5.377044E0,4.1191113E1,6.635506E0,1.8768307E0,1.025102E0,2.376352E0,1.0341412E1,2.9617558E0,2.4152882E0,3.9694939E0,3.722162E1,1.7165334E0,4.9189725E0,1.2353324E0,1.1410196E0,8.7241335E0,1.6172779E0],"tree_param":{"num_deleted":"0","num_feature":"7","num_nodes":"31","size_leaf_vector":"1"}},{"base_weights":[4.6657734E-2,-4.0828567E-2,2.527801E-1,3.0100582E-2,-6.1935246E-1,2.6718518E-1,-2.5719266E-2,3.67005E-2,-2.5238118E-1,-2.0086686E-1,1.6430143E-1,-3.822398E-3,-7.4031943E-1,3.1329457E-2,2.9415235E-1,-1.5080577E-1,5.1480114E-2,5.8090318E-2,-2.948372E-1,6.326476E-2,-1.17970765E-1],"categories":[],"categories_nodes":[],"categories_segments":[],"categories_sizes":[],"default_left":[0,0,0,0,0,0,0,0,0,0,0,0,0,0,0,0,0,0,0,0,0],"id":8,"left_children":[1,3,-1,5,7,-1,9,-1,-1,11,13,15,17,19,-1,-1,-1,-1,-1,-1,-1],"loss_changes":[5.793629E0,3.115507E0,0E0,3.2979333E0,1.4671919E0,0E0,2.1963153E0,0E0,0E0,3.6403332E0,3.412631E0,2.3711314E0,2.2656646E0,2.241422E0,0E0,0E0,0E0,0E0,0E0,0E0,0E0],"parents":[2147483647,0,0,1,1,3,3,4,4,6,6,9,9,10,10,11,11,12,12,13,13],"right_children":[2,4,-1,6,8,-1,10,-1,-1,12,14,16,18,20,-1,-1,-1,-1,-1,-1,-1],"split_conditions":[4.32225E1,1.5343972E0,2.527801E-1,4.35E1,4.5E1,2.6718518E-1,3.615E1,3.67005E-2,-2.5238118E-1,5.7E1,1.0424879E0,2.73225E1,1.0130116E0,1.6E1,2.9415235E-1,-1.5080577E-1,5.1480114E-2,5.8090318E-2,-2.948372E-1,6.326476E-2,-1.17970765E-1],"split_indices":[2,6,0,1,1,0,2,0,0,1,5,2,5,0,0,0,0,0,0,0,0],"split_type":[0,0,0,0,0,0,0,0,0,0,0,0,0,0,0,0,0,0,0,0,0],"sum_hessian":[8.170703E1,7.447031E1,7.236725E0,6.7181564E1,7.288736E0,3.1814375E0,6.400013E1,1.7819378E0,5.5067983E0,3.327371E1,3.0726421E1,2.5109215E1,8.164493E0,2.7314821E1,3.4116E0,6.0470824E0,1.9062132E1,1.7242842E0,6.4402084E0,1.9550158E1,7.764665E0],"tree_param":{"num_deleted":"0","num_feature":"7","num_nodes":"21","size_leaf_vector":"1"}},{"base_weights":[3.758229E-2,7.28926E-1,-4.62683E-2,8.4757835E-1,4.835012E-2,-1.3430178E-1,4.0577245E-1,6.553075E-2,2.8024426E-1,-4.553698E-1,6.5164216E-2,2.423255E-1,1.1135938E-1,3.128501E-1,-5.990533E-1,8.439492E-1,-2.8759051E-2,-8.399304E-2,2.0437233E-1,-9.437698E-2,2.090547E-1,-7.521233E-2,-8.25014E-1,3.349267E-1,1.3037956E-2,3.1146044E-1,-2.5522858E-1,4.5080093E-1,-4.9298897E-1,2.864333E-1,-1.5939309E-1,-2.698851E-1,1.2132333E-2,-1.0003091E-1,1.3868293E-1,-1.7487507E-1,6.5485485E-2,3.205272E-2,1.8964346E-1,-2.619982E-1,6.4173974E-2],"categories":[],"categories_nodes":[],"categories_segments":[],"categories_sizes":[],"default_left":[0,0,0,0,0,0,0,0,0,0,0,0,0,0,0,0,0,0,0,0,0,0,0,0,0,0,0,0,0,0,0,0,0,0,0,0,0,0,0,0,0],"id":9,"left_children":[1,3,5,7,-1,9,11,-1,-1,13,15,-1,17,19,21,23,25,27,-1,-1,-1,29,31,-1,-1,33,35,37,39,-1,-1,-1,-1,-1,-1,-1,-1,-1,-1,-1,-1],"loss_changes":[4.5259438E0,4.3209124E-1,2.8421488E0,1.6346312E-1,0E0,3.8327332E0,1.2908309E0,0E0,0E0,2.7129993E0,2.7674649E0,0E0,9.361014E-1,1.246119E0,2.2601523E0,8.39005E-1,2.7325988E0,1.7029068E0,0E0,0E0,0E0,3.8016286E0,9.148607E-1,0E0,0E0,1.5363516E0,3.420219E0,1.4802194E-1,1.3465558E0,0E0,0E0,0E0,0E0,0E0,0E0,0E0,0E0,0E0,0E0,0E0,0E0],"parents":[2147483647,0,0,1,1,2,2,3,3,5,5,6,6,9,9,10,10,12,12,13,13,14,14,15,15,16,16,17,17,21,21,22,22,25,25,26,26,27,27,28,28],"right_children":[2,4,6,8,-1,10,12,-1,-1,14,16,-1,18,20,22,24,26,28,-1,-1,-1,30,32,-1,-1,34,36,38,40,-1,-1,-1,-1,-1,-1,-1,-1,-1,-1,-1,-1],"split_conditions":[1.0028658E0,8.79397E-1,4.14E1,3.2663316E-1,4.835012E-2,8.574946E-1,1.35E1,6.553075E-2,2.8024426E-1,4.2713568E-1,8.6023885E-1,2.423255E-1,8.649516E-1,1.0162128E0,1.2743623E0,1.3521084E0,5.15E1,8.3971834E-1,2.0437233E-1,-9.437698E-2,2.090547E-1,8E0,9.698492E-1,3.349267E-1,1.3037956E-2,1.3023468E0,3.591E1,4.22225E1,4.32225E1,2.864333E-1,-1.5939309E-1,-2.698851E-1,1.2132333E-2,-1.0003091E-1,1.3868293E-1,-1.7487507E-1,6.5485485E-2,3.205272E-2,1.8964346E-1,-2.619982E-1,6.4173974E-2],"split_indices":[5,3,2,3,0,4,0,0,0,3,4,0,4,5,6,6,1,4,0,0,0,0,3,0,0,6,2,2,2,0,0,0,0,0,0,0,0,0,0,0,0],"split_type":[0,0,0,0,0,0,0,0,0,0,0,0,0,0,0,0,0,0,0,0,0,0,0,0,0,0,0,0,0,0,0,0,0,0,0,0,0,0,0,0,0],"sum_hessian":[7.6492676E1,7.441851E0,6.905083E1,5.747805E0,1.6940463E0,5.838369E1,1.0667137E1,1.1213841E0,4.626421E0,2.1880716E1,3.6502975E1,3.7725945E0,6.894542E0,3.2621124E0,1.8618603E1,3.069127E0,3.343385E1,5.769427E0,1.1251155E0,1.3071046E0,1.9550078E0,6.0125833E0,1.260602E1,1.9952896E0,1.0738376E0,1.3211402E1,2.0222446E1,2.4559143E0,3.3135126E0,1.5097673E0,4.5028157E0,1.1569267E1,1.0367525E0,2.2745273E0,1.0936874E1,1.1814999E1,8.407447E0,1.396436E0,1.0594783E0,2.001309E0,1.3122036E0],"tree_param":{"num_deleted":"0","num_feature":"7","num_nodes":"41","size_leaf_vector":"1"}},{"base_weights":[4.2919036E-2,3.5681033E-1,-1.056509E-1,7.8506446E-1,1.12525085E-2,-2.0043476E-1,3.8375846E-1,8.859305E-1,-5.2975933E-4,-2.4135149E-1,2.3150954E-1,5.265813E-3,-6.655485E-1,1.0286584E-1,2.5431192E-1,6.536962E-2,1.0027554E0,1.8488134E-1,-5.098076E-1,-2.2751102E-1,4.0600616E-1,-7.6293796E-1,6.403447E-2,1.9751565E-1,-1.4206554E-1,5.6375816E-2,3.3205026E-1,5.523171E-1,-1.631179E-1,-2.1480826E-1,-2.805222E-1,7.0468895E-2,-6.9893324E-1,9.690436E-1,-3.8006768E-1,-8.6621815E-1,4.6799175E-2,-4.7605774E-1,7.8852326E-2,2.4259296E-1,-2.664733E-2,9.368841E-2,-1.6174361E-1,2.0836556E-1,-2.9346952E-2,3.889187E-2,-2.565845E-1,9.034762E-2,4.6238735E-1,-2.2929509E-1,1.9494173E-1,-7.20381E-2,-2.7403152E-1,-9.5655825E-3,-2.014106E-1],"categories":[],"categories_nodes":[],"categories_segments":[],"categories_sizes":[],"default_left":[0,0,0,0,0,0,0,0,0,0,0,0,0,0,0,0,0,0,0,0,0,0,0,0,0,0,0,0,0,0,0,0,0,0,0,0,0,0,0,0,0,0,0,0,0,0,0,0,0,0,0,0,0,0,0],"id":10,"left_children":[1,3,5,7,9,11,13,15,-1,17,-1,19,21,23,-1,-1,25,27,29,31,33,35,-1,-1,37,-1,-1,39,-1,41,-1,43,45,47,49,51,-1,53,-1,-1,-1,-1,-1,-1,-1,-1,-1,-1,-1,-1,-1,-1,-1,-1,-1],"loss_changes":[3.4042928E0,3.457064E0,2.3856666E0,8.3046055E-1,2.8709567E0,4.055503E0,1.0098549E0,5.041332E-1,0E0,1.3818727E0,0E0,2.9241881E0,1.2752695E0,9.618476E-1,0E0,0E0,4.3683958E-1,1.6609704E0,6.9870114E-1,2.8367963E0,5.464032E0,1.2661691E0,0E0,0E0,8.353086E-1,0E0,0E0,7.0860267E-1,0E0,1.1141026E0,0E0,1.4403411E0,1.1183369E0,2.2074337E0,2.682384E0,1.0189724E-1,0E0,2.5909936E-1,0E0,0E0,0E0,0E0,0E0,0E0,0E0,0E0,0E0,0E0,0E0,0E0,0E0,0E0,0E0,0E0,0E0],"parents":[2147483647,0,0,1,1,2,2,3,3,4,4,5,5,6,6,7,7,9,9,11,11,12,12,13,13,16,16,17,17,18,18,19,19,20,20,21,21,24,24,27,27,29,29,31,31,32,32,33,33,34,34,35,35,37,37],"right_children":[2,4,6,8,10,12,14,16,-1,18,-1,20,22,24,-1,-1,26,28,30,32,34,36,-1,-1,38,-1,-1,40,-1,42,-1,44,46,48,50,52,-1,54,-1,-1,-1,-1,-1,-1,-1,-1,-1,-1,-1,-1,-1,-1,-1,-1,-1],"split_conditions":[1.0136142E0,1.2E1,3.943E1,1.3139993E0,4.4115E1,5.7E1,1.0257859E0,8.246542E-1,-5.2975933E-4,6.05E1,2.3150954E-1,3.21925E1,8.8435376E-1,7.5E0,2.5431192E-1,6.536962E-2,3.8693467E-1,1.0107772E0,7.839196E-1,5.15E1,1.3E1,1.45E1,6.403447E-2,1.9751565E-1,4.178E1,5.6375816E-2,3.3205026E-1,1.7E1,-1.631179E-1,1.0044209E0,-2.805222E-1,1.0328037E0,1.0218031E0,6.130653E-1,1.0368681E0,1.271973E0,4.6799175E-2,6.15E1,7.8852326E-2,2.4259296E-1,-2.664733E-2,9.368841E-2,-1.6174361E-1,2.0836556E-1,-2.9346952E-2,3.889187E-2,-2.565845E-1,9.034762E-2,4.6238735E-1,-2.2929509E-1,1.9494173E-1,-7.20381E-2,-2.7403152E-1,-9.5655825E-3,-2.014106E-1],"split_indices":[5,0,2,6,2,1,5,4,0,1,0,2,4,0,0,0,3,5,3,1,0,0,0,0,2,0,0,0,0,5,0,5,5,3,5,6,0,1,0,0,0,0,0,0,0,0,0,0,0,0,0,0,0,0,0],"split_type":[0,0,0,0,0,0,0,0,0,0,0,0,0,0,0,0,0,0,0,0,0,0,0,0,0,0,0,0,0,0,0,0,0,0,0,0,0,0,0,0,0,0,0,0,0,0,0,0,0,0,0,0,0,0,0],"sum_hessian":[7.119061E1,2.2420355E1,4.877026E1,9.444183E0,1.2976171E1,4.1352066E1,7.4181943E0,8.259435E0,1.1847489E0,1.025297E1,2.7232008E0,2.9357246E1,1.1994818E1,5.3816476E0,2.0365465E0,1.6558838E0,6.603551E0,4.0824704E0,6.1705E0,1.8843786E1,1.051346E1,1.0917262E1,1.0775553E0,1.1302133E0,4.2514343E0,1.0657004E0,5.537851E0,2.8747127E0,1.2077577E0,4.531912E0,1.638588E0,1.2066945E1,6.7768416E0,5.9901557E0,4.5233045E0,9.865801E0,1.051461E0,2.2334354E0,2.017999E0,1.8670266E0,1.007686E0,1.7404743E0,2.7914374E0,1.8987367E0,1.0168208E1,1.1028869E0,5.673955E0,3.4683862E0,2.5217693E0,3.482009E0,1.0412956E0,1.1186683E0,8.747133E0,1.0374163E0,1.196019E0],"tree_param":{"num_deleted":"0","num_feature":"7","num_nodes":"55","size_leaf_vector":"1"}},{"base_weights":[4.5035593E-2,-4.129498E-3,2.367435E-1,4.80539E-2,-4.6989977E-1,2.5767505E-1,-1.1764155E-1,-8.3421957E-4,-2.157664E-1,7.891783E-1,-2.4646722E-2,-2.0495078E-1,2.3629181E-1,1.4748621E-1,-1.5606344E-1,1.1807154E0,1.08497925E-1,-3.6575243E-1,2.4176766E-1,-4.6403915E-1,6.752751E-3,1.2741388E-1,3.9959934E-1,1.19423814E-1,-6.595466E-2,1.8679465E-1,-1.8175763E-1,2.281913E-1,-8.014543E-2,1.0861044E-1,-1.8028842E-1,-4.236747E-2,1.5631372E-1],"categories":[],"categories_nodes":[],"categories_segments":[],"categories_sizes":[],"default_left":[0,0,0,0,0,0,0,0,0,0,0,0,0,0,0,0,0,0,0,0,0,0,0,0,0,0,0,0,0,0,0,0,0],"id":11,"left_children":[1,3,-1,5,7,9,11,13,-1,15,17,19,-1,-1,-1,21,23,25,27,29,31,-1,-1,-1,-1,-1,-1,-1,-1,-1,-1,-1,-1],"loss_changes":[2.438126E0,1.5641563E0,0E0,2.0428371E0,7.5755095E-1,3.9049568E0,2.773548E0,1.0872706E0,0E0,2.2739816E0,1.7133558E0,1.6999109E0,0E0,0E0,0E0,7.7111244E-2,5.0516546E-1,2.3325748E0,3.0132651E0,1.7925973E0,1.4442072E0,0E0,0E0,0E0,0E0,0E0,0E0,0E0,0E0,0E0,0E0,0E0,0E0],"parents":[2147483647,0,0,1,1,3,3,4,4,5,5,6,6,7,7,9,9,10,10,11,11,15,15,16,16,17,17,18,18,19,19,20,20],"right_children":[2,4,-1,6,8,10,12,14,-1,16,18,20,-1,-1,-1,22,24,26,28,30,32,-1,-1,-1,-1,-1,-1,-1,-1,-1,-1,-1,-1],"split_conditions":[4.4115E1,1.5343972E0,2.367435E-1,9E0,4.9E1,1.0222913E0,1.055193E0,1.0919733E0,-2.157664E-1,6.25E1,2.90275E1,3.66775E1,2.3629181E-1,1.4748621E-1,-1.5606344E-1,4.7738692E-1,1.0114186E0,4.35E1,5.7E1,2.8285E1,1.025368E0,1.2741388E-1,3.9959934E-1,1.19423814E-1,-6.595466E-2,1.8679465E-1,-1.8175763E-1,2.281913E-1,-8.014543E-2,1.0861044E-1,-1.8028842E-1,-4.236747E-2,1.5631372E-1],"split_indices":[2,6,0,0,1,5,5,5,0,1,2,2,0,0,0,3,5,1,1,2,5,0,0,0,0,0,0,0,0,0,0,0,0],"split_type":[0,0,0,0,0,0,0,0,0,0,0,0,0,0,0,0,0,0,0,0,0,0,0,0,0,0,0,0,0,0,0,0,0],"sum_hessian":[6.555516E1,6.2425037E1,3.1301222E0,5.694224E1,5.482796E0,2.4893892E1,3.204835E1,2.2510636E0,3.2317326E0,8.013063E0,1.6880829E1,2.9934904E1,2.1134472E0,1.1829114E0,1.0681522E0,4.6206107E0,3.3924525E0,7.239197E0,9.641632E0,1.2925008E1,1.7009895E1,1.405305E0,3.2153058E0,1.689789E0,1.7026635E0,1.1034807E0,6.1357164E0,4.529229E0,5.112403E0,1.6039615E0,1.1321047E1,1.3772523E1,3.237372E0],"tree_param":{"num_deleted":"0","num_feature":"7","num_nodes":"33","size_leaf_vector":"1"}},{"base_weights":[5.1228903E-2,5.79338E-1,-4.6926755E-3,7.104879E-1,1.3205216E-2,2.0349522E-1,-3.5661004E-2,2.4488847E-1,4.8618075E-2,-5.5188954E-1,2.0395888E-2,-2.517251E-1,-1.6020177E-1,6.203506E-1,-3.6761407E-2,6.751373E-2,-1.5613912E-1,-1.8949134E-2,2.7414015E-1,-1.2437949E-1,3.172972E-1,2.1325566E-2,-1.23703495E-1,2.1450947E-1,3.0457364E-2],"categories":[],"categories_nodes":[],"categories_segments":[],"categories_sizes":[],"default_left":[0,0,0,0,0,0,0,0,0,0,0,0,0,0,0,0,0,0,0,0,0,0,0,0,0],"id":12,"left_children":[1,3,5,7,-1,-1,9,-1,-1,11,13,-1,15,17,19,-1,-1,-1,-1,21,23,-1,-1,-1,-1],"loss_changes":[1.8443044E0,3.88484E-1,1.2378452E0,1.4254403E-1,0E0,0E0,1.6271626E0,0E0,0E0,4.848727E-1,1.7831624E0,0E0,6.119073E-1,9.645616E-1,1.5227324E0,0E0,0E0,0E0,0E0,2.2271442E0,7.6558363E-1,0E0,0E0,0E0,0E0],"parents":[2147483647,0,0,1,1,2,2,3,3,6,6,9,9,10,10,12,12,13,13,14,14,19,19,20,20],"right_children":[2,4,6,8,-1,-1,10,-1,-1,12,14,-1,16,18,20,-1,-1,-1,-1,22,24,-1,-1,-1,-1],"split_conditions":[1.0028658E0,8.79397E-1,3.95E1,8.569097E-1,1.3205216E-2,2.0349522E-1,2.487E1,2.4488847E-1,4.8618075E-2,7.386935E-1,4.9E1,-2.517251E-1,4.75E1,1.0462128E0,4.12325E1,6.751373E-2,-1.5613912E-1,-1.8949134E-2,2.7414015E-1,5.8E1,1.3E1,2.1325566E-2,-1.23703495E-1,2.1450947E-1,3.0457364E-2],"split_indices":[5,3,1,4,0,0,2,0,0,3,1,0,1,5,2,0,0,0,0,1,0,0,0,0,0],"split_type":[0,0,0,0,0,0,0,0,0,0,0,0,0,0,0,0,0,0,0,0,0,0,0,0,0],"sum_hessian":[6.135752E1,4.978836E0,5.6378685E1,3.736259E0,1.2425772E0,1.5387087E0,5.4839977E1,2.7225716E0,1.0136874E0,4.5053153E0,5.033466E1,1.940368E0,2.5649471E0,3.521165E0,4.6813496E1,1.4208659E0,1.1440811E0,1.2933649E0,2.2278001E0,3.8046837E1,8.766662E0,2.3112034E1,1.49348E1,2.2694879E0,6.4971733E0],"tree_param":{"num_deleted":"0","num_feature":"7","num_nodes":"25","size_leaf_vector":"1"}},{"base_weights":[4.7944017E-2,1.2713091E-1,-2.7574262E-1,7.693771E-1,1.8488595E-2,2.3693182E-1,-4.2812604E-1,9.266739E-1,2.7786514E-1,-3.558098E-2,2.1184859E-1,1.6282381E-1,-5.919408E-2,3.5140503E-2,-5.7890314E-1,2.9749049E-2,3.359602E-1,1.0405011E-1,1.984005E-2,4.7842443E-2,-3.4604946E-1,-7.01244E-1,1.5855916E-2,-1.3215333E-1,2.5529325E-1,1.9955012E-1,-6.6429484E-1,-2.4134818E-1,-2.6334355E-2,1.04665756E-1,-8.606021E-2,-5.3566556E-2,1.1441245E-1,-1.3262367E-1,1.847037E-1,-2.7132306E-1,3.628378E-2],"categories":[],"categories_nodes":[],"categories_segments":[],"categories_sizes":[],"default_left":[0,0,0,0,0,0,0,0,0,0,0,0,0,0,0,0,0,0,0,0,0,0,0,0,0,0,0,0,0,0,0,0,0,0,0,0,0],"id":13,"left_children":[1,3,5,7,9,11,13,15,17,19,-1,-1,-1,-1,21,-1,-1,-1,-1,23,25,27,-1,29,31,33,35,-1,-1,-1,-1,-1,-1,-1,-1,-1,-1],"loss_changes":[1.5743465E0,3.4001923E0,1.04825E0,2.87992E-1,1.6194661E0,5.613495E-1,8.6517966E-1,6.7497826E-1,2.2897929E-2,1.0708413E0,0E0,0E0,0E0,0E0,6.37306E-1,0E0,0E0,0E0,0E0,1.2645806E0,1.6505743E0,3.459232E-1,0E0,1.4626483E0,9.2440915E-1,1.3374603E0,1.1940589E0,0E0,0E0,0E0,0E0,0E0,0E0,0E0,0E0,0E0,0E0],"parents":[2147483647,0,0,1,1,2,2,3,3,4,4,5,5,6,6,7,7,8,8,9,9,14,14,19,19,20,20,21,21,23,23,24,24,25,25,26,26],"right_children":[2,4,6,8,10,12,14,16,18,20,-1,-1,-1,-1,22,-1,-1,-1,-1,24,26,28,-1,30,32,34,36,-1,-1,-1,-1,-1,-1,-1,-1,-1,-1],"split_conditions":[1.4135338E0,4E0,5.1758796E-1,7.9899496E-1,4.4115E1,5.15E1,4.5E1,8.584281E-1,2.93625E1,6.25E1,2.1184859E-1,1.6282381E-1,-5.919408E-2,3.5140503E-2,3.615E1,2.9749049E-2,3.359602E-1,1.0405011E-1,1.984005E-2,3.63025E1,1.0084077E0,1.0855722E0,1.5855916E-2,1.0130116E0,1.0079819E0,1.2201934E0,8.9447236E-1,-2.4134818E-1,-2.6334355E-2,1.04665756E-1,-8.606021E-2,-5.3566556E-2,1.1441245E-1,-1.3262367E-1,1.847037E-1,-2.7132306E-1,3.628378E-2],"split_indices":[6,0,3,3,2,1,1,4,2,1,0,0,0,0,2,0,0,0,0,2,5,5,0,5,5,6,3,0,0,0,0,0,0,0,0,0,0],"split_type":[0,0,0,0,0,0,0,0,0,0,0,0,0,0,0,0,0,0,0,0,0,0,0,0,0,0,0,0,0,0,0,0,0,0,0,0,0],"sum_hessian":[5.9054108E1,4.7934597E1,1.1119508E1,6.0554805E0,4.187912E1,2.4206617E0,8.698846E0,3.9166846E0,2.1387956E0,3.9705463E1,2.173656E0,1.2737631E0,1.1468986E0,1.932694E0,6.766152E0,1.0277561E0,2.8889287E0,1.131986E0,1.0068096E0,3.1962883E1,7.74258E0,5.5762987E0,1.189853E0,1.7308252E1,1.4654631E1,2.989814E0,4.752766E0,4.5064373E0,1.0698615E0,3.9066381E0,1.3401614E1,3.2061243E0,1.1448506E1,1.1516792E0,1.8381348E0,3.5235531E0,1.229213E0],"tree_param":{"num_deleted":"0","num_feature":"7","num_nodes":"37","size_leaf_vector":"1"}},{"base_weights":[4.3174442E-2,3.4148248E-3,5.7102954E-1,4.558249E-2,-3.9287546E-1,2.0837481E-1,3.3107307E-2,2.390873E-1,-1.0251242E-1,6.036126E-3,-5.5039674E-1,7.172579E-1,-9.6259415E-3,-1.8548937E-1,6.218146E-1,-3.9299205E-2,-2.0616579E-1,1.0052217E0,-7.3785163E-3,-3.0070335E-1,2.5934094E-1,-2.9597563E-1,2.575112E-1,5.940963E-2,2.2579442E-1,1.3423441E-1,3.6572063E-1,-1.10742874E-1,1.12251155E-1,4.6710353E-2,-1.9262938E-1,2.192754E-1,-4.5628976E-2,1.5247408E-1,-1.1056293E-1,-1.5517625E-1,1.5685438E-1],"categories":[],"categories_nodes":[],"categories_segments":[],"categories_sizes":[],"default_left":[0,0,0,0,0,0,0,0,0,0,0,0,0,0,0,0,0,0,0,0,0,0,0,0,0,0,0,0,0,0,0,0,0,0,0,0,0],"id":14,"left_children":[1,3,5,7,9,-1,-1,11,13,-1,15,17,19,21,23,-1,-1,25,27,29,31,33,35,-1,-1,-1,-1,-1,-1,-1,-1,-1,-1,-1,-1,-1,-1],"loss_changes":[1.2030112E0,9.269356E-1,1.5190732E-1,1.459156E0,3.581835E-1,0E0,0E0,2.6237688E0,1.8618373E0,0E0,1.3363743E-1,1.5812356E0,1.2884854E0,1.3900199E0,2.9289842E-2,0E0,0E0,9.918308E-2,5.7120264E-1,1.3291479E0,1.7745421E0,1.4682766E0,1.4818795E0,0E0,0E0,0E0,0E0,0E0,0E0,0E0,0E0,0E0,0E0,0E0,0E0,0E0,0E0],"parents":[2147483647,0,0,1,1,2,2,3,3,4,4,7,7,8,8,10,10,11,11,12,12,13,13,14,14,17,17,18,18,19,19,20,20,21,21,22,22],"right_children":[2,4,6,8,10,-1,-1,12,14,-1,16,18,20,22,24,-1,-1,26,28,30,32,34,36,-1,-1,-1,-1,-1,-1,-1,-1,-1,-1,-1,-1,-1,-1],"split_conditions":[4.32225E1,1.5343972E0,8.539205E-1,9E0,4.5E1,2.0837481E-1,3.3107307E-2,1.0222913E0,1.0508287E0,6.036126E-3,6.9849247E-1,6.35E1,3.0715E1,8.737585E-1,1.15E1,-3.9299205E-2,-2.0616579E-1,6.130653E-1,6.5E1,4.9E1,5.7E1,5.05E1,1E1,5.940963E-2,2.2579442E-1,1.3423441E-1,3.6572063E-1,-1.10742874E-1,1.12251155E-1,4.6710353E-2,-1.9262938E-1,2.192754E-1,-4.5628976E-2,1.5247408E-1,-1.1056293E-1,-1.5517625E-1,1.5685438E-1],"split_indices":[2,6,4,0,1,0,0,5,5,0,3,1,2,4,0,0,0,3,1,1,1,1,0,0,0,0,0,0,0,0,0,0,0,0,0,0,0],"split_type":[0,0,0,0,0,0,0,0,0,0,0,0,0,0,0,0,0,0,0,0,0,0,0,0,0,0,0,0,0,0,0,0,0,0,0,0,0],"sum_hessian":[5.6413773E1,5.3398136E1,3.0156372E0,4.906256E1,4.335574E0,1.9775058E0,1.0381312E0,2.1003891E1,2.805867E1,1.437899E0,2.8976748E0,6.542175E0,1.4461717E1,2.5842175E1,2.2164948E0,1.1942841E0,1.7033908E0,4.4046135E0,2.1375616E0,6.8887167E0,7.5729995E0,2.094923E1,4.8929443E0,1.1158301E0,1.1006646E0,2.0777156E0,2.3268976E0,1.1139187E0,1.0236428E0,3.18058E0,3.7081368E0,3.166806E0,4.4061933E0,1.236959E0,1.9712273E1,1.0060167E0,3.8869278E0],"tree_param":{"num_deleted":"0","num_feature":"7","num_nodes":"37","size_leaf_vector":"1"}},{"base_weights":[4.7951553E-2,4.744667E-1,6.830011E-4,2.2345863E-1,2.844606E-2,5.4550007E-2,-2.8553477E-1,-1.06120385E-1,1.15159646E-1,-2.3884293E-2,4.99246E-1,-5.3079295E-1,2.7299154E-1,1.0625373E-1,-2.0900728E-1,-3.6410138E-2,6.393573E-1,-1.8258031E-2,-2.1598928E-1,1.967001E-1,-7.553779E-2,2.7841255E-1,1.5513713E-2,9.320874E-2,-4.6134695E-1,2.4067983E-1,5.193622E-2,-1.3169433E-1,3.502605E-2,2.5691658E-1,-5.3028498E-2,-2.1787715E-1,-1.685047E-2],"categories":[],"categories_nodes":[],"categories_segments":[],"categories_sizes":[],"default_left":[0,0,0,0,0,0,0,0,0,0,0,0,0,0,0,0,0,0,0,0,0,0,0,0,0,0,0,0,0,0,0,0,0],"id":15,"left_children":[1,3,5,-1,7,9,11,-1,-1,13,15,17,19,21,23,-1,25,-1,-1,-1,-1,-1,27,29,31,-1,-1,-1,-1,-1,-1,-1,-1],"loss_changes":[1.104764E0,6.381707E-1,7.9180425E-1,0E0,5.57307E-1,1.5191214E0,1.2592521E0,0E0,0E0,9.3014944E-1,6.4493394E-1,4.88891E-1,7.961906E-1,1.6852605E0,1.2551019E0,0E0,2.7751684E-1,0E0,0E0,0E0,0E0,0E0,1.042536E0,1.8128947E0,9.0697026E-1,0E0,0E0,0E0,0E0,0E0,0E0,0E0,0E0],"parents":[2147483647,0,0,1,1,2,2,4,4,5,5,6,6,9,9,10,10,11,11,12,12,13,13,14,14,16,16,22,22,23,23,24,24],"right_children":[2,4,6,-1,8,10,12,-1,-1,14,16,18,20,22,24,-1,26,-1,-1,-1,-1,-1,28,30,32,-1,-1,-1,-1,-1,-1,-1,-1],"split_conditions":[1.003709E0,1.6E1,6.25E1,2.2345863E-1,1.7E1,4.00125E1,4.23875E1,-1.06120385E-1,1.15159646E-1,5.5E1,1.2285124E0,6.5E0,5.728643E-1,2.4623115E-1,8.5E0,-3.6410138E-2,1.65E1,-1.8258031E-2,-2.1598928E-1,1.967001E-1,-7.553779E-2,2.7841255E-1,4.522613E-1,1.0220466E0,7.2864324E-1,2.4067983E-1,5.193622E-2,-1.3169433E-1,3.502605E-2,2.5691658E-1,-5.3028498E-2,-2.1787715E-1,-1.685047E-2],"split_indices":[5,0,1,0,0,2,2,0,0,1,6,0,3,3,0,0,0,0,0,0,0,0,3,5,3,0,0,0,0,0,0,0,0],"split_type":[0,0,0,0,0,0,0,0,0,0,0,0,0,0,0,0,0,0,0,0,0,0,0,0,0,0,0,0,0,0,0,0,0],"sum_hessian":[5.3813828E1,4.4672356E0,4.9346592E1,2.3640425E0,2.103193E0,4.221165E1,7.1349425E0,1.0157272E0,1.0874659E0,3.6687157E1,5.5244927E0,4.9923663E0,2.1425765E0,2.179307E1,1.4894087E1,1.0421493E0,4.4823437E0,1.8122227E0,3.1801436E0,1.0948229E0,1.0477537E0,1.2494978E0,2.0543571E1,7.064214E0,7.829873E0,2.7875967E0,1.694747E0,3.134744E0,1.7408829E1,1.2783334E0,5.7858806E0,4.2552857E0,3.5745876E0],"tree_param":{"num_deleted":"0","num_feature":"7","num_nodes":"33","size_leaf_vector":"1"}},{"base_weights":[4.5108933E-2,1.7530096E-1,1.152522E-2,-1.6377285E-1,4.232625E-2,1.8696497E-1,1.1059924E-3,-1.5519364E-1,1.0845948E-1,4.9212068E-1,-3.461255E-1,-1.2356677E-1,3.4450823E-1,3.8601435E-3,1.9664948E-1,4.624448E-2,-2.3276155E-1,1.0392188E-1,-8.648583E-2,2.5309876E-1,4.0514812E-2],"categories":[],"categories_nodes":[],"categories_segments":[],"categories_sizes":[],"default_left":[0,0,0,0,0,0,0,0,0,0,0,0,0,0,0,0,0,0,0,0,0],"id":16,"left_children":[1,-1,3,-1,5,-1,7,9,11,13,15,17,19,-1,-1,-1,-1,-1,-1,-1,-1],"loss_changes":[9.5120597E-1,0E0,8.956044E-1,0E0,1.1745944E0,0E0,8.026629E-1,2.578027E0,1.5954217E0,3.7133014E-1,3.4800453E0,1.2637072E0,1.3830864E0,0E0,0E0,0E0,0E0,0E0,0E0,0E0,0E0],"parents":[2147483647,0,0,2,2,4,4,6,6,7,7,8,8,9,9,10,10,11,11,12,12],"right_children":[2,-1,4,-1,6,-1,8,10,12,14,16,18,20,-1,-1,-1,-1,-1,-1,-1,-1],"split_conditions":[1.2045498E0,1.7530096E-1,1.2167323E0,-1.6377285E-1,1.0028658E0,1.8696497E-1,8.574946E-1,4.5728642E-1,6.7336684E-1,8.292159E-1,8.3824944E-1,4.5E0,8.663325E-1,3.8601435E-3,1.9664948E-1,4.624448E-2,-2.3276155E-1,1.0392188E-1,-8.648583E-2,2.5309876E-1,4.0514812E-2],"split_indices":[6,0,6,0,5,0,4,3,3,4,4,0,4,0,0,0,0,0,0,0,0],"split_type":[0,0,0,0,0,0,0,0,0,0,0,0,0,0,0,0,0,0,0,0,0],"sum_hessian":[5.1897816E1,2.0812588E0,4.981656E1,1.7327967E0,4.808376E1,2.25045E0,4.5833313E1,1.8480818E1,2.7352493E1,3.8501675E0,1.46306505E1,1.4034083E1,1.3318409E1,1.2530916E0,2.597076E0,7.0569077E0,7.573743E0,3.3559532E0,1.067813E1,3.041794E0,1.0276615E1],"tree_param":{"num_deleted":"0","num_feature":"7","num_nodes":"21","size_leaf_vector":"1"}},{"base_weights":[4.163574E-2,1.10214755E-1,-2.3500235E-1,5.7496935E-1,3.070845E-2,-4.314806E-1,1.12369075E-1,2.2764057E-1,3.0757288E-2,-7.004821E-2,2.2571519E-1,-5.4758805E-1,8.48737E-3,-8.115898E-2,3.802261E-1,7.046745E-2,-3.6497015E-1,-1.8791355E-1,3.5821575E-1,-1.7690904E-2,-1.9230843E-1,1.6553804E-1,3.084279E-3,5.233627E-1,-1.0936078E-1,-4.9196386E-1,4.4610735E-2,1.1918131E-1,-1.7093849E-1,5.173087E-1,3.3352714E-2,2.2663228E-1,3.17054E-2,-1.1866566E-1,1.15039036E-1,2.0551372E-2,-1.9579606E-1,1.9343665E-1,7.6797665E-3,9.435306E-2,-1.07987985E-1],"categories":[],"categories_nodes":[],"categories_segments":[],"categories_sizes":[],"default_left":[0,0,0,0,0,0,0,0,0,0,0,0,0,0,0,0,0,0,0,0,0,0,0,0,0,0,0,0,0,0,0,0,0,0,0,0,0,0,0,0,0],"id":17,"left_children":[1,3,5,7,9,11,13,-1,-1,15,17,19,-1,-1,21,23,25,27,29,-1,-1,-1,-1,31,33,35,-1,-1,-1,37,39,-1,-1,-1,-1,-1,-1,-1,-1,-1,-1],"loss_changes":[1.0041009E0,1.5342529E0,7.693632E-1,4.501593E-1,7.412301E-1,3.8666165E-1,5.7559335E-1,0E0,0E0,1.066139E0,7.696176E-1,2.1788645E-1,0E0,0E0,1.9284594E-1,1.5103842E0,6.122124E-1,1.0677106E0,5.0213647E-1,0E0,0E0,0E0,0E0,4.2847323E-1,2.0696476E0,6.623175E-1,0E0,0E0,0E0,4.0202534E-1,5.967361E-1,0E0,0E0,0E0,0E0,0E0,0E0,0E0,0E0,0E0,0E0],"parents":[2147483647,0,0,1,1,2,2,3,3,4,4,5,5,6,6,9,9,10,10,11,11,14,14,15,15,16,16,17,17,18,18,23,23,24,24,25,25,29,29,30,30],"right_children":[2,4,6,8,10,12,14,-1,-1,16,18,20,-1,-1,22,24,26,28,30,-1,-1,-1,-1,32,34,36,-1,-1,-1,38,40,-1,-1,-1,-1,-1,-1,-1,-1,-1,-1],"split_conditions":[1.4135338E0,4E0,5E0,7.9899496E-1,4.00125E1,8.94798E-1,1.4625453E0,2.2764057E-1,3.0757288E-2,5.8E1,1.2223375E0,5.678392E-1,8.48737E-3,-8.115898E-2,1.5216888E0,1.0171076E0,9.296482E-1,1.2045498E0,1.75E1,-1.7690904E-2,-1.9230843E-1,1.6553804E-1,3.084279E-3,1.2481556E0,1.3426543E0,1.2554841E0,4.4610735E-2,1.1918131E-1,-1.7093849E-1,8.190955E-1,6.3E1,2.2663228E-1,3.17054E-2,-1.1866566E-1,1.15039036E-1,2.0551372E-2,-1.9579606E-1,1.9343665E-1,7.6797665E-3,9.435306E-2,-1.07987985E-1],"split_indices":[6,0,0,3,2,4,6,0,0,1,6,3,0,0,6,5,3,6,0,0,0,0,0,6,6,6,0,0,0,3,1,0,0,0,0,0,0,0,0,0,0],"split_type":[0,0,0,0,0,0,0,0,0,0,0,0,0,0,0,0,0,0,0,0,0,0,0,0,0,0,0,0,0,0,0,0,0,0,0,0,0,0,0,0,0],"sum_hessian":[5.0561382E1,4.0999207E1,9.562175E0,5.078874E0,3.5920334E1,5.952964E0,3.6092114E0,3.2198753E0,1.8589988E0,2.4105976E1,1.1814357E1,4.6002502E0,1.3527136E0,1.4814764E0,2.127735E0,1.684245E1,7.263527E0,2.7649055E0,9.049452E0,1.0003413E0,3.5999088E0,1.1177896E0,1.0099454E0,4.243897E0,1.2598552E1,5.857626E0,1.4059012E0,1.0759102E0,1.6889952E0,5.6769347E0,3.3725169E0,2.208243E0,2.035654E0,8.095016E0,4.5035367E0,1.4330353E0,4.4245906E0,4.26093E0,1.4160048E0,2.0834963E0,1.2890204E0],"tree_param":{"num_deleted":"0","num_feature":"7","num_nodes":"41","size_leaf_vector":"1"}},{"base_weights":[3.774555E-2,-9.885894E-2,1.7138226E-1,2.5704575E-1,-2.322088E-1,4.8951194E-2,5.555453E-1,7.569242E-1,-3.8678694E-1,3.7124153E-2,-4.8302972E-1,2.4233603E-1,-1.5950516E-1,1.900757E-1,5.4363716E-2,5.095521E-2,2.658738E-1,5.709087E-2,-2.1396591E-1,-2.9678887E-1,2.6008457E-1,-7.673363E-1,-1.1813388E-2,4.9205783E-1,-5.9341267E-2,-4.0506047E-1,4.5090094E-1,8.199608E-2,-1.6421984E-1,-9.5337085E-2,5.529176E-1,-2.6831648E-1,-1.9022869E-2,1.686149E-1,-1.6453724E-1,5.942045E-1,-2.9749975E-3,2.3317145E-1,-1.7236772E-1,5.090315E-2,-5.940196E-1,-5.3975685E-3,2.002376E-1,3.4487616E-2,2.0068948E-1,6.106376E-2,2.3775768E-1,-3.5299588E-2,1.8208782E-1,-2.1234314E-1,-3.479714E-2],"categories":[],"categories_nodes":[],"categories_segments":[],"categories_sizes":[],"default_left":[0,0,0,0,0,0,0,0,0,0,0,0,0,0,0,0,0,0,0,0,0,0,0,0,0,0,0,0,0,0,0,0,0,0,0,0,0,0,0,0,0,0,0,0,0,0,0,0,0,0,0],"id":18,"left_children":[1,3,5,7,9,11,13,15,17,19,21,23,25,-1,-1,-1,-1,-1,-1,27,29,31,33,35,37,39,41,-1,-1,-1,43,-1,-1,-1,-1,45,-1,47,-1,-1,49,-1,-1,-1,-1,-1,-1,-1,-1,-1,-1],"loss_changes":[9.2471087E-1,1.2568238E0,1.1722487E0,2.6581657E0,1.2929884E0,8.6245024E-1,6.2408805E-2,1.8926E-1,8.655355E-1,8.239194E-1,1.3098023E0,8.577263E-1,1.747106E0,0E0,0E0,0E0,0E0,0E0,0E0,7.9010516E-1,1.2836294E0,4.9101925E-1,1.7618833E0,3.199352E-1,1.0191023E0,9.663502E-1,3.6410737E-1,0E0,0E0,0E0,1.624893E-1,0E0,0E0,0E0,0E0,2.342385E-1,0E0,6.5597785E-1,0E0,0E0,2.5625086E-1,0E0,0E0,0E0,0E0,0E0,0E0,0E0,0E0,0E0,0E0],"parents":[2147483647,0,0,1,1,2,2,3,3,4,4,5,5,6,6,7,7,8,8,9,9,10,10,11,11,12,12,19,19,20,20,21,21,22,22,23,23,24,24,25,25,26,26,30,30,35,35,37,37,40,40],"right_children":[2,4,6,8,10,12,14,16,18,20,22,24,26,-1,-1,-1,-1,-1,-1,28,30,32,34,36,38,40,42,-1,-1,-1,44,-1,-1,-1,-1,46,-1,48,-1,-1,50,-1,-1,-1,-1,-1,-1,-1,-1,-1,-1],"split_conditions":[3.5495E1,1.0222913E0,1.0362988E0,1.2E1,5.1E1,1.2656642E0,1.4135338E0,6.1809045E-1,5.2E1,2.44775E1,3.21925E1,1.55E1,4.1945E1,1.900757E-1,5.4363716E-2,5.095521E-2,2.658738E-1,5.709087E-2,-2.1396591E-1,4.05E1,1.0462128E0,1.0757848E0,3.3255E1,8.6358756E-1,7.9899496E-1,5.5E0,5.1758796E-1,8.199608E-2,-1.6421984E-1,-9.5337085E-2,8.7263614E-1,-2.6831648E-1,-1.9022869E-2,1.686149E-1,-1.6453724E-1,8.39691E-1,-2.9749975E-3,1.2440075E0,-1.7236772E-1,5.090315E-2,1.3348757E0,-5.3975685E-3,2.002376E-1,3.4487616E-2,2.0068948E-1,6.106376E-2,2.3775768E-1,-3.5299588E-2,1.8208782E-1,-2.1234314E-1,-3.479714E-2],"split_indices":[2,5,5,0,1,6,6,3,1,2,2,0,2,0,0,0,0,0,0,1,5,5,2,4,3,0,3,0,0,0,4,0,0,0,0,4,0,6,0,0,6,0,0,0,0,0,0,0,0,0,0],"split_type":[0,0,0,0,0,0,0,0,0,0,0,0,0,0,0,0,0,0,0,0,0,0,0,0,0,0,0,0,0,0,0,0,0,0,0,0,0,0,0,0,0,0,0,0,0,0,0,0,0,0,0],"sum_hessian":[4.8726078E1,2.4224178E1,2.4501902E1,6.34965E0,1.7874529E1,1.943536E1,5.066541E0,3.475546E0,2.874104E0,9.0300255E0,8.844503E0,9.997842E0,9.437518E0,3.6194015E0,1.4471397E0,1.045004E0,2.430542E0,1.1890478E0,1.6850563E0,3.4828558E0,5.5471697E0,5.1243377E0,3.7201657E0,5.1246753E0,4.873166E0,6.9700155E0,2.4675028E0,1.0358359E0,2.4470198E0,1.8369389E0,3.7102306E0,4.111654E0,1.0126836E0,1.7748642E0,1.9453014E0,4.1055117E0,1.0191638E0,3.4575741E0,1.415592E0,1.7498175E0,5.220198E0,1.0692568E0,1.398246E0,1.1941533E0,2.5160775E0,2.0647173E0,2.0407944E0,2.1369991E0,1.3205751E0,3.828234E0,1.3919643E0],"tree_param":{"num_deleted":"0","num_feature":"7","num_nodes":"51","size_leaf_vector":"1"}},{"base_weights":[3.5300322E-2,8.5916575E-3,1.688662E-1,1.669064E-1,-1.6942948E-2,-4.7063103E-1,3.0365981E-2,-2.1327336E-1,-3.2179948E-2,-5.0016314E-2,2.4534285E-1,1.4986846E-1,-1.7545097E-1,-4.5462508E-2,4.4852993E-1,1.1038401E-1,-4.6728358E-2,-8.136822E-2,7.732083E-2,7.105555E-2,-1.6177493E-1,-4.2733876E-3,1.6570409E-1],"categories":[],"categories_nodes":[],"categories_segments":[],"categories_sizes":[],"default_left":[0,0,0,0,0,0,0,0,0,0,0,0,0,0,0,0,0,0,0,0,0,0,0],"id":19,"left_children":[1,3,-1,-1,5,7,9,-1,-1,11,13,15,17,19,21,-1,-1,-1,-1,-1,-1,-1,-1],"loss_changes":[6.5280694E-1,6.449544E-1,0E0,0E0,9.669273E-1,2.9496235E-1,7.2305E-1,0E0,0E0,7.9774255E-1,6.918378E-1,8.839816E-1,8.733743E-1,9.058669E-1,3.3368003E-1,0E0,0E0,0E0,0E0,0E0,0E0,0E0,0E0],"parents":[2147483647,0,0,1,1,4,4,5,5,6,6,9,9,10,10,11,11,12,12,13,13,14,14],"right_children":[2,4,-1,-1,6,8,10,-1,-1,12,14,16,18,20,22,-1,-1,-1,-1,-1,-1,-1,-1],"split_conditions":[4.4115E1,3.95E1,1.688662E-1,1.669064E-1,2.487E1,7.386935E-1,8.744807E-1,-2.1327336E-1,-3.2179948E-2,8.463681E-1,3.21925E1,7.1356785E-1,1.0434556E0,5.15E1,1.0286529E0,1.1038401E-1,-4.6728358E-2,-8.136822E-2,7.732083E-2,7.105555E-2,-1.6177493E-1,-4.2733876E-3,1.6570409E-1],"split_indices":[2,1,0,0,2,3,4,0,0,4,2,3,5,1,5,0,0,0,0,0,0,0,0],"split_type":[0,0,0,0,0,0,0,0,0,0,0,0,0,0,0,0,0,0,0,0,0,0,0],"sum_hessian":[4.5670662E1,4.443734E1,1.2333196E0,1.0533271E0,4.3384014E1,3.2517743E0,4.013224E1,1.3816619E0,1.8701123E0,2.9768719E1,1.0363522E1,1.1402931E1,1.8365788E1,4.5819693E0,5.781552E0,6.535622E0,4.867309E0,1.5346581E1,3.0192056E0,3.2462938E0,1.3356757E0,1.2174482E0,4.5641036E0],"tree_param":{"num_deleted":"0","num_feature":"7","num_nodes":"23","size_leaf_vector":"1"}},{"base_weights":[3.0125262E-2,8.9230254E-2,-2.1139716E-1,2.0761155E-1,4.692737E-2,-3.2307392E-1,7.464958E-2,1.5648237E-1,1.8234333E-2,4.8936516E-2,-6.3575053E-1,1.408319E-1,-1.1703568E-2,-2.3307845E-1,1.2677737E-1,-5.8487795E-2,-2.1403459E-1,-3.3018586E-1,4.890958E-2,2.9467557E-2,-1.419229E-1,7.31036E-2,-1.7520775E-1,-3.2931313E-2,8.474545E-2],"categories":[],"categories_nodes":[],"categories_segments":[],"categories_sizes":[],"default_left":[0,0,0,0,0,0,0,0,0,0,0,0,0,0,0,0,0,0,0,0,0,0,0,0,0],"id":20,"left_children":[1,3,5,-1,7,9,-1,-1,11,13,15,-1,17,19,-1,-1,-1,21,23,-1,-1,-1,-1,-1,-1],"loss_changes":[6.686339E-1,9.1797274E-1,5.555969E-1,0E0,4.7945288E-1,9.471767E-1,0E0,0E0,4.767962E-1,5.753263E-1,9.903073E-3,0E0,6.666038E-1,3.0275545E-1,0E0,0E0,0E0,9.4589657E-1,1.1124761E0,0E0,0E0,0E0,0E0,0E0,0E0],"parents":[2147483647,0,0,1,1,2,2,4,4,5,5,8,8,9,9,10,10,12,12,13,13,17,17,18,18],"right_children":[2,4,6,-1,8,10,-1,-1,12,14,16,-1,18,20,-1,-1,-1,22,24,-1,-1,-1,-1,-1,-1],"split_conditions":[1.4135338E0,2E0,3.56375E1,2.0761155E-1,1.0000573E0,4.95E1,7.464958E-2,1.5648237E-1,4.75E1,2.52075E1,8.446526E-1,1.408319E-1,3.02775E1,1.0919733E0,1.2677737E-1,-5.8487795E-2,-2.1403459E-1,1.0167781E0,1.0242475E0,2.9467557E-2,-1.419229E-1,7.31036E-2,-1.7520775E-1,-3.2931313E-2,8.474545E-2],"split_indices":[6,0,2,0,5,1,0,0,1,2,4,0,2,5,0,0,0,5,5,0,0,0,0,0,0],"split_type":[0,0,0,0,0,0,0,0,0,0,0,0,0,0,0,0,0,0,0,0,0,0,0,0,0],"sum_hessian":[4.451752E1,3.6271713E1,8.245807E0,1.3713337E0,3.490038E1,6.875459E0,1.3703479E0,1.0101504E0,3.389023E1,3.52502E0,3.3504393E0,1.1952794E0,3.269495E1,2.2232482E0,1.3017716E0,1.027948E0,2.3224914E0,4.516464E0,2.8178486E1,1.182121E0,1.0411271E0,1.3973832E0,3.119081E0,1.7094967E1,1.1083519E1],"tree_param":{"num_deleted":"0","num_feature":"7","num_nodes":"25","size_leaf_vector":"1"}},{"base_weights":[2.7122675E-2,-7.672419E-2,1.3947822E-1,3.727727E-2,-6.433523E-1,6.34298E-2,1.8871151E-1,2.6930752E-1,-1.3143732E-1,-5.918095E-2,-2.1814652E-1,2.0012848E-1,-2.1580125E-1,6.362371E-1,-3.727882E-1,-1.8362468E-1,1.1891362E-3,3.833366E-1,-5.673649E-2,-6.1326003E-1,2.394139E-1,-9.687314E-4,8.132736E-1,-1.9212098E-1,3.9770823E-2,4.053255E-1,-1.6547354E-1,2.1436694E-1,1.5917817E-1,-2.912261E-1,1.1877971E-1,-2.2721566E-2,-2.373889E-1,-1.9073417E-2,1.6266756E-1,1.10496484E-1,3.668528E-1,2.0016247E-1,7.7935485E-3,2.8027592E-2,-1.9196612E-1,-1.47355E-2,1.8012813E-1,-1.3527228E-1,4.6708968E-2],"categories":[],"categories_nodes":[],"categories_segments":[],"categories_sizes":[],"default_left":[0,0,0,0,0,0,0,0,0,0,0,0,0,0,0,0,0,0,0,0,0,0,0,0,0,0,0,0,0,0,0,0,0,0,0,0,0,0,0,0,0,0,0,0,0],"id":21,"left_children":[1,3,5,7,9,11,-1,13,15,-1,-1,17,19,21,23,-1,25,27,29,31,33,-1,35,-1,-1,37,39,-1,41,43,-1,-1,-1,-1,-1,-1,-1,-1,-1,-1,-1,-1,-1,-1,-1],"loss_changes":[5.284509E-1,1.5552716E0,7.6683784E-1,8.4496164E-1,7.031679E-3,8.015421E-1,0E0,2.3657188E0,8.068491E-1,0E0,0E0,6.738444E-1,1.4152794E0,6.952958E-1,6.144865E-1,0E0,8.0184454E-1,4.9633014E-1,8.200969E-1,3.2512128E-1,4.0029436E-1,0E0,4.235859E-1,0E0,0E0,3.2790285E-1,1.095679E0,0E0,5.981497E-1,4.234771E-1,0E0,0E0,0E0,0E0,0E0,0E0,0E0,0E0,0E0,0E0,0E0,0E0,0E0,0E0,0E0],"parents":[2147483647,0,0,1,1,2,2,3,3,4,4,5,5,7,7,8,8,11,11,12,12,13,13,14,14,16,16,17,17,18,18,19,19,20,20,22,22,25,25,26,26,28,28,29,29],"right_children":[2,4,6,8,10,12,-1,14,16,-1,-1,18,20,22,24,-1,26,28,30,32,34,-1,36,-1,-1,38,40,-1,42,44,-1,-1,-1,-1,-1,-1,-1,-1,-1,-1,-1,-1,-1,-1,-1],"split_conditions":[3.615E1,5.7E1,1.0434556E0,1.0341898E0,1.0181537E0,1.2982457E0,1.8871151E-1,1.3E1,1.0414492E0,-5.918095E-2,-2.1814652E-1,1.6E1,3.943E1,6.130653E-1,1.6E1,-1.8362468E-1,1.3730756E0,6.05E1,4.27875E1,6E0,1.0222913E0,-9.687314E-4,3.17475E1,-1.9212098E-1,3.9770823E-2,5.7788944E-1,5.15E1,2.1436694E-1,8.743719E-1,1.017166E0,1.1877971E-1,-2.2721566E-2,-2.373889E-1,-1.9073417E-2,1.6266756E-1,1.10496484E-1,3.668528E-1,2.0016247E-1,7.7935485E-3,2.8027592E-2,-1.9196612E-1,-1.47355E-2,1.8012813E-1,-1.3527228E-1,4.6708968E-2],"split_indices":[2,1,5,5,5,6,0,0,5,0,0,0,2,3,0,0,6,1,2,0,5,0,2,0,0,3,1,0,3,5,0,0,0,0,0,0,0,0,0,0,0,0,0,0,0],"split_type":[0,0,0,0,0,0,0,0,0,0,0,0,0,0,0,0,0,0,0,0,0,0,0,0,0,0,0,0,0,0,0,0,0,0,0,0,0,0,0,0,0,0,0,0,0],"sum_hessian":[4.3374336E1,2.2705475E1,2.066886E1,1.9680178E1,3.0252964E0,1.8867537E1,1.8013237E0,8.0343895E0,1.1645789E1,1.0088989E0,2.0163975E0,1.285675E1,6.010786E0,5.11851E0,2.9158795E0,1.7367252E0,9.909063E0,7.216931E0,5.639819E0,3.0236132E0,2.987173E0,1.3226787E0,3.7958312E0,1.7316474E0,1.1842321E0,2.4751413E0,7.4339223E0,2.029856E0,5.1870747E0,3.9502E0,1.6896192E0,1.1069514E0,1.9166619E0,1.8880435E0,1.0991294E0,2.7296524E0,1.0661787E0,1.0153556E0,1.4597856E0,5.328891E0,2.1050317E0,4.127382E0,1.0596932E0,2.9037867E0,1.0464134E0],"tree_param":{"num_deleted":"0","num_feature":"7","num_nodes":"45","size_leaf_vector":"1"}},{"base_weights":[2.6968846E-2,1.6246022E-1,-6.7068554E-2,1.9615145E-1,7.157339E-2,-2.9853934E-1,3.0259091E-2,2.8285894E-1,-1.0296928E-1,4.187625E-2,-2.02902E-1,-3.3281294E-1,1.3503696E-1,-4.570799E-2,4.0176994E-1,2.733778E-1,-3.3050284E-1,-1.653477E-1,1.1856275E-1,7.688282E-2,-6.1561745E-1,2.2146994E-1,-2.937046E-1,2.1667658E-1,8.525192E-2,1.668602E-1,-3.5859622E-2,4.233454E-2,-4.8883995E-1,4.148833E-2,-1.3863268E-1,-2.2199488E-1,-5.182847E-2,1.3976748E-2,4.6242666E-1,-1.4821583E-1,1.5537044E-2,-1.3455123E-1,1.4854647E-1,4.527212E-3,-1.8658246E-1,1.5650141E-1,-5.7896253E-2,7.3492504E-3,2.031592E-1],"categories":[],"categories_nodes":[],"categories_segments":[],"categories_sizes":[],"default_left":[0,0,0,0,0,0,0,0,0,0,0,0,0,0,0,0,0,0,0,0,0,0,0,0,0,0,0,0,0,0,0,0,0,0,0,0,0,0,0,0,0,0,0,0,0],"id":22,"left_children":[1,3,5,-1,7,9,11,13,15,17,-1,19,21,-1,23,25,27,29,-1,-1,31,33,35,-1,37,-1,-1,-1,39,-1,-1,-1,-1,41,43,-1,-1,-1,-1,-1,-1,-1,-1,-1,-1],"loss_changes":[5.5110806E-1,7.420207E-1,5.8882314E-1,0E0,6.2023866E-1,1.0199115E0,7.687172E-1,4.5028883E-1,9.047685E-1,4.3125218E-1,0E0,9.1571146E-1,6.385535E-1,0E0,5.6528944E-1,5.255135E-1,5.4539996E-1,4.1127968E-1,0E0,0E0,5.7644963E-2,6.659834E-1,2.3507178E-1,0E0,1.150379E0,0E0,0E0,0E0,3.4477854E-1,0E0,0E0,0E0,0E0,9.6836835E-1,5.6578577E-1,0E0,0E0,0E0,0E0,0E0,0E0,0E0,0E0,0E0,0E0],"parents":[2147483647,0,0,1,1,2,2,4,4,5,5,6,6,7,7,8,8,9,9,11,11,12,12,14,14,15,15,16,16,17,17,20,20,21,21,22,22,24,24,28,28,33,33,34,34],"right_children":[2,4,6,-1,8,10,12,14,16,18,-1,20,22,-1,24,26,28,30,-1,-1,32,34,36,-1,38,-1,-1,-1,40,-1,-1,-1,-1,42,44,-1,-1,-1,-1,-1,-1,-1,-1,-1,-1],"split_conditions":[1.018587E0,5.2E1,2.90275E1,1.9615145E-1,5.678392E-1,4.9E1,1.0242475E0,1.2223375E0,1.231876E0,2.44775E1,-2.02902E-1,9E0,9.19598E-1,-4.570799E-2,1.2656642E0,1.5E1,1.0072038E0,4.4E1,1.1856275E-1,7.688282E-2,5.85E1,6.7839193E-1,3.5525E1,2.1667658E-1,1.2901698E0,1.668602E-1,-3.5859622E-2,4.233454E-2,8.3141816E-1,4.148833E-2,-1.3863268E-1,-2.2199488E-1,-5.182847E-2,6E0,8.586321E-1,-1.4821583E-1,1.5537044E-2,-1.3455123E-1,1.4854647E-1,4.527212E-3,-1.8658246E-1,1.5650141E-1,-5.7896253E-2,7.3492504E-3,2.031592E-1],"split_indices":[5,1,2,0,3,1,5,6,6,2,0,0,3,0,6,0,5,1,0,0,1,3,2,0,6,0,0,0,4,0,0,0,0,0,4,0,0,0,0,0,0,0,0,0,0],"split_type":[0,0,0,0,0,0,0,0,0,0,0,0,0,0,0,0,0,0,0,0,0,0,0,0,0,0,0,0,0,0,0,0,0,0,0,0,0,0,0,0,0,0,0,0,0],"sum_hessian":[4.139865E1,1.6662828E1,2.473582E1,1.6341026E0,1.5028726E1,6.7100916E0,1.802573E1,6.5180244E0,8.510701E0,3.9974053E0,2.7126863E0,3.5495627E0,1.4476168E1,1.3383429E0,5.1796813E0,3.130794E0,5.3799076E0,2.8550181E0,1.142387E0,1.1817508E0,2.367812E0,1.2449773E1,2.0263941E0,1.9367642E0,3.242917E0,1.578774E0,1.5520201E0,1.3795605E0,4.000347E0,1.6750829E0,1.1799352E0,1.324831E0,1.0429809E0,7.257867E0,5.191906E0,1.0104566E0,1.0159377E0,1.3677402E0,1.8751768E0,1.0210835E0,2.9792635E0,1.6615088E0,5.5963583E0,2.074977E0,3.116929E0],"tree_param":{"num_deleted":"0","num_feature":"7","num_nodes":"45","size_leaf_vector":"1"}},{"base_weights":[2.295544E-2,3.677727E-1,-1.1611161E-2,1.7131053E-1,1.2027531E-2,3.200613E-2,-2.3754844E-1,-3.9884355E-2,3.546957E-1,-4.4838914E-1,6.434121E-2,6.828607E-3,-1.7473614E-1,-2.8903175E-2,5.1860756E-1,-1.2478655E-2,-1.8251404E-1,-5.473195E-2,3.7988806E-1,2.0354144E-1,2.691196E-2,1.2072586E-2,-1.2970938E-1,1.8728255E-1,-2.03067E-2],"categories":[],"categories_nodes":[],"categories_segments":[],"categories_sizes":[],"default_left":[0,0,0,0,0,0,0,0,0,0,0,0,0,0,0,0,0,0,0,0,0,0,0,0,0],"id":23,"left_children":[1,3,5,-1,-1,7,9,11,13,15,-1,17,-1,-1,19,-1,-1,21,23,-1,-1,-1,-1,-1,-1],"loss_changes":[4.8936453E-1,2.2612733E-1,3.816895E-1,0E0,0E0,7.7270377E-1,6.9287694E-1,7.0451814E-1,4.978842E-1,2.7363217E-1,0E0,6.2794936E-1,0E0,0E0,2.5456738E-1,0E0,0E0,8.626324E-1,4.6563065E-1,0E0,0E0,0E0,0E0,0E0,0E0],"parents":[2147483647,0,0,1,1,2,2,5,5,6,6,7,7,8,8,9,9,11,11,14,14,17,17,18,18],"right_children":[2,4,6,-1,-1,8,10,12,14,16,-1,18,-1,-1,20,-1,-1,22,24,-1,-1,-1,-1,-1,-1],"split_conditions":[1.003709E0,1.6E1,6.25E1,1.7131053E-1,1.2027531E-2,3.943E1,4.23875E1,3.90475E1,1.2359159E0,6.5E0,6.434121E-2,3.7255E1,-1.7473614E-1,-2.8903175E-2,1.65E1,-1.2478655E-2,-1.8251404E-1,5.7E1,3.80875E1,2.0354144E-1,2.691196E-2,1.2072586E-2,-1.2970938E-1,1.8728255E-1,-2.03067E-2],"split_indices":[5,0,1,0,0,2,2,2,6,0,0,2,0,0,0,0,0,1,2,0,0,0,0,0,0],"split_type":[0,0,0,0,0,0,0,0,0,0,0,0,0,0,0,0,0,0,0,0,0,0,0,0,0],"sum_hessian":[3.9698696E1,2.738764E0,3.695993E1,1.2319328E0,1.5068312E0,3.1698805E1,5.2611275E0,2.6640167E1,5.0586367E0,3.593158E0,1.6679692E0,2.5437517E1,1.2026498E0,1.4582262E0,3.6004105E0,1.3699373E0,2.2232208E0,2.2566917E1,2.8706E0,2.1989238E0,1.4014865E0,1.8745815E1,3.8211017E0,1.6014075E0,1.2691926E0],"tree_param":{"num_deleted":"0","num_feature":"7","num_nodes":"25","size_leaf_vector":"1"}},{"base_weights":[1.9921212E-2,5.450268E-2,-3.024001E-1,4.4215202E-1,1.7981814E-2,-1.4919783E-1,2.5342403E-2,3.505249E-2,1.6264454E-1,-3.89283E-1,5.8565617E-2,-1.602559E-1,-1.0067232E-2,3.815944E-1,3.5083666E-3,1.72196E-1,4.272781E-3,1.5384148E-1,-1.3516927E-1,-2.5837671E-2,1.0741235E-1,-1.8458956E-1,1.5399099E-2],"categories":[],"categories_nodes":[],"categories_segments":[],"categories_sizes":[],"default_left":[0,0,0,0,0,0,0,0,0,0,0,0,0,0,0,0,0,0,0,0,0,0,0],"id":24,"left_children":[1,3,5,7,9,-1,-1,-1,-1,11,13,-1,-1,15,17,-1,-1,19,21,-1,-1,-1,-1],"loss_changes":[4.5868245E-1,5.112762E-1,3.4340918E-1,3.799671E-2,5.940222E-1,0E0,0E0,0E0,0E0,1.5024734E-1,5.730769E-1,0E0,0E0,3.235715E-1,6.1711985E-1,0E0,0E0,7.262989E-1,1.4115381E0,0E0,0E0,0E0,0E0],"parents":[2147483647,0,0,1,1,2,2,3,3,4,4,9,9,10,10,13,13,14,14,17,17,18,18],"right_children":[2,4,6,8,10,-1,-1,-1,-1,12,14,-1,-1,16,18,-1,-1,20,22,-1,-1,-1,-1],"split_conditions":[1.5343972E0,8.24252E-1,8.855472E-1,6.9849247E-1,8.305534E-1,-1.4919783E-1,2.5342403E-2,3.505249E-2,1.6264454E-1,4.14E1,1.0072038E0,-1.602559E-1,-1.0067232E-2,4.22225E1,5.5E1,1.72196E-1,4.272781E-3,3.02775E1,3.615E1,-2.5837671E-2,1.0741235E-1,-1.8458956E-1,1.5399099E-2],"split_indices":[6,4,4,3,4,0,0,0,0,2,5,0,0,2,1,0,0,2,2,0,0,0,0],"split_type":[0,0,0,0,0,0,0,0,0,0,0,0,0,0,0,0,0,0,0,0,0,0,0],"sum_hessian":[3.8672268E1,3.5675583E1,2.9966848E0,2.1153584E0,3.3560223E1,1.8028345E0,1.1938503E0,1.0071936E0,1.1081648E0,2.2626E0,3.1297623E1,1.2512342E0,1.0113659E0,3.6939318E0,2.7603691E1,2.0551136E0,1.6388184E0,1.3192764E1,1.4410928E1,6.3310285E0,6.8617353E0,3.3884418E0,1.1022486E1],"tree_param":{"num_deleted":"0","num_feature":"7","num_nodes":"23","size_leaf_vector":"1"}},{"base_weights":[1.3081649E-2,1.2731372E-1,-6.358049E-2,3.767759E-1,-4.3934982E-2,-3.9948714E-1,-2.9273375E-3,1.673995E-1,2.0035477E-1,2.4831665E-1,-2.7283582E-1,-2.0410612E-1,3.701828E-2,1.6132954E-1,-8.226847E-2,3.1518844E-1,-4.983061E-2,4.608648E-1,-2.7310042E-2,8.479155E-2,-1.8907805E-1,4.0514614E-2,-3.0164492E-1,-2.070807E-2,1.6079915E-1,1.8529402E-1,1.6770065E-2,-8.577997E-2,1.02270834E-1,3.4906888E-1,-2.9393265E-1,-4.3905395E-1,7.7440046E-2,-5.1778924E-2,1.6693987E-1,6.646617E-2,-1.5147561E-1,-1.6120307E-1,3.6501854E-3],"categories":[],"categories_nodes":[],"categories_segments":[],"categories_sizes":[],"default_left":[0,0,0,0,0,0,0,0,0,0,0,0,0,0,0,0,0,0,0,0,0,0,0,0,0,0,0,0,0,0,0,0,0,0,0,0,0,0,0],"id":25,"left_children":[1,3,5,7,9,11,13,15,-1,17,19,-1,-1,-1,21,23,-1,25,-1,27,-1,29,31,-1,-1,-1,-1,-1,-1,33,35,37,-1,-1,-1,-1,-1,-1,-1],"loss_changes":[3.4754917E-1,6.957993E-1,4.8500347E-1,2.8899544E-1,7.5835633E-1,6.188701E-1,9.545731E-1,3.066542E-1,0E0,4.0676525E-1,8.54349E-1,0E0,0E0,0E0,5.3402495E-1,3.6958933E-1,0E0,1.7339933E-1,0E0,4.7853178E-1,0E0,1.4753171E0,6.571547E-1,0E0,0E0,0E0,0E0,0E0,0E0,8.940701E-1,8.65153E-1,2.7471924E-1,0E0,0E0,0E0,0E0,0E0,0E0,0E0],"parents":[2147483647,0,0,1,1,2,2,3,3,4,4,5,5,6,6,7,7,9,9,10,10,14,14,15,15,17,17,19,19,21,21,22,22,29,29,30,30,31,31],"right_children":[2,4,6,8,10,12,14,16,-1,18,20,-1,-1,-1,22,24,-1,26,-1,28,-1,30,32,-1,-1,-1,-1,-1,-1,34,36,38,-1,-1,-1,-1,-1,-1,-1],"split_conditions":[1.018587E0,1.2E1,1.2677624E0,8.743719E-1,5.6281406E-1,3.67025E1,1.2867295E0,1.0130116E0,2.0035477E-1,6.1E1,1.0100495E0,-2.0410612E-1,3.701828E-2,1.6132954E-1,5.6E1,8.3824944E-1,-4.983061E-2,1.2656642E0,-2.7310042E-2,8.409438E-1,-1.8907805E-1,8.796481E-1,8.8034904E-1,-2.070807E-2,1.6079915E-1,1.8529402E-1,1.6770065E-2,-8.577997E-2,1.02270834E-1,3.02775E1,4.4E1,3.943E1,7.7440046E-2,-5.1778924E-2,1.6693987E-1,6.646617E-2,-1.5147561E-1,-1.6120307E-1,3.6501854E-3],"split_indices":[5,0,6,3,3,2,6,5,0,1,5,0,0,0,1,4,0,6,0,4,0,4,4,0,0,0,0,0,0,2,1,2,0,0,0,0,0,0,0],"split_type":[0,0,0,0,0,0,0,0,0,0,0,0,0,0,0,0,0,0,0,0,0,0,0,0,0,0,0,0,0,0,0,0,0,0,0,0,0,0,0],"sum_hessian":[3.7762573E1,1.4899918E1,2.2862654E1,5.576429E0,9.323488E0,2.642371E0,2.0220284E1,4.1595035E0,1.4169253E0,4.0578117E0,5.265677E0,1.5230824E0,1.1192886E0,1.8480873E0,1.8372196E1,2.9203029E0,1.2392008E0,2.274883E0,1.7829285E0,3.013368E0,2.252309E0,1.2302124E1,6.070072E0,1.3166587E0,1.6036441E0,1.261361E0,1.0135221E0,1.1836195E0,1.8297485E0,6.376019E0,5.926105E0,5.0468774E0,1.0231946E0,1.8615274E0,4.5144916E0,1.7065444E0,4.2195606E0,3.98743E0,1.0594474E0],"tree_param":{"num_deleted":"0","num_feature":"7","num_nodes":"39","size_leaf_vector":"1"}},{"base_weights":[1.4932821E-2,1.4520866E-1,-6.1167054E-2,1.7613024E-1,-8.46112E-2,-1.3400911E-1,2.1075726E-1,-5.144033E-1,1.3981164E-1,6.115019E-2,-3.4976524E-1,5.212853E-1,-6.936983E-2,4.607755E-3,-2.1926378E-1,3.4951335E-1,-1.6510017E-1,1.7044283E-1,-1.2277283E-1,-6.1345214E-1,-9.4851986E-2,3.669917E-2,1.890545E-1,2.0027809E-1,1.8295493E-2,-1.1771629E-1,1.9685654E-2,6.301871E-2,1.5417494E-1,-2.201745E-1,-3.0145666E-2,-1.6727118E-1,2.3066267E-1,-5.929306E-2,6.647277E-2,7.2512545E-2,-9.026172E-2,-5.3694984E-4,1.3297899E-1],"categories":[],"categories_nodes":[],"categories_segments":[],"categories_sizes":[],"default_left":[0,0,0,0,0,0,0,0,0,0,0,0,0,0,0,0,0,0,0,0,0,0,0,0,0,0,0,0,0,0,0,0,0,0,0,0,0,0,0],"id":26,"left_children":[1,3,5,-1,7,9,11,13,15,17,19,21,-1,-1,-1,23,25,27,-1,29,31,-1,-1,-1,33,-1,-1,35,-1,-1,-1,-1,37,-1,-1,-1,-1,-1,-1],"loss_changes":[3.7869042E-1,1.4766518E0,5.0858665E-1,0E0,1.0478281E0,8.5250115E-1,8.771082E-1,4.3376905E-1,5.329894E-1,6.463195E-1,5.8193886E-1,7.6918304E-2,0E0,0E0,0E0,4.8558933E-1,2.2020268E-1,3.294474E-1,0E0,2.0420885E-1,1.0361176E0,0E0,0E0,0E0,1.9053376E-1,0E0,0E0,6.3257086E-1,0E0,0E0,0E0,0E0,2.1054387E-1,0E0,0E0,0E0,0E0,0E0,0E0],"parents":[2147483647,0,0,1,1,2,2,4,4,5,5,6,6,7,7,8,8,9,9,10,10,11,11,15,15,16,16,17,17,19,19,20,20,24,24,27,27,32,32],"right_children":[2,4,6,-1,8,10,12,14,16,18,20,22,-1,-1,-1,24,26,28,-1,30,32,-1,-1,-1,34,-1,-1,36,-1,-1,-1,-1,38,-1,-1,-1,-1,-1,-1],"split_conditions":[7.5E0,1.3229227E0,8.442211E-1,1.7613024E-1,8.584281E-1,8.6023885E-1,1.4E1,1E0,7.889447E-1,7.889447E-1,1.15E1,1E1,-6.936983E-2,4.607755E-3,-2.1926378E-1,1.3993001E0,3.5E0,8.557107E-1,-1.2277283E-1,1.0498497E0,8.6924857E-1,3.669917E-2,1.890545E-1,2.0027809E-1,1.5003186E0,-1.1771629E-1,1.9685654E-2,8.499025E-1,1.5417494E-1,-2.201745E-1,-3.0145666E-2,-1.6727118E-1,3.91225E1,-5.929306E-2,6.647277E-2,7.2512545E-2,-9.026172E-2,-5.3694984E-4,1.3297899E-1],"split_indices":[0,6,3,0,4,4,0,0,3,3,0,0,0,0,0,6,0,4,0,5,4,0,0,0,6,0,0,4,0,0,0,0,2,0,0,0,0,0,0],"split_type":[0,0,0,0,0,0,0,0,0,0,0,0,0,0,0,0,0,0,0,0,0,0,0,0,0,0,0,0,0,0,0,0,0,0,0,0,0,0,0],"sum_hessian":[3.630173E1,1.30511875E1,2.3250542E1,3.9334438E0,9.117744E0,1.8738205E1,4.512337E0,2.6845148E0,6.4332294E0,1.021497E1,8.523235E0,2.544939E0,1.9673979E0,1.0482571E0,1.6362575E0,3.7250597E0,2.7081697E0,8.806498E0,1.4084721E0,3.4981608E0,5.025074E0,1.001005E0,1.543934E0,1.3821547E0,2.342905E0,1.011247E0,1.6969227E0,7.609911E0,1.196586E0,2.484083E0,1.0140779E0,1.780792E0,3.2442822E0,1.1495256E0,1.1933793E0,5.3289046E0,2.2810066E0,2.0234597E0,1.2208225E0],"tree_param":{"num_deleted":"0","num_feature":"7","num_nodes":"39","size_leaf_vector":"1"}},{"base_weights":[8.8421935E-3,-1.9281378E-2,1.125198E-1,1.2060722E-1,-9.1617E-2,5.5350345E-1,-7.830334E-2,1.1631568E-1,-1.3211145E-1,2.0169368E-1,4.340535E-2,-4.464502E-1,1.1877145E-1,-1.7806895E-1,2.0288554E-1,3.8974856E-3,-1.966912E-1,-6.1615773E-2,1.14145E-1,-3.1854127E-2,-3.7217015E-1,-1.0028427E-1,2.0053174E-1,3.1926002E-2,-1.0423354E-1,-1.1231778E-1,2.838391E-2,-4.07225E-2,-2.0315488E-1],"categories":[],"categories_nodes":[],"categories_segments":[],"categories_sizes":[],"default_left":[0,0,0,0,0,0,0,0,0,0,0,0,0,0,0,0,0,0,0,0,0,0,0,0,0,0,0,0,0],"id":27,"left_children":[1,3,-1,5,7,9,11,-1,13,-1,-1,15,17,19,21,-1,-1,23,-1,25,27,-1,-1,-1,-1,-1,-1,-1,-1],"loss_changes":[3.7777114E-1,3.5875377E-1,0E0,1.0890098E0,5.018939E-1,9.44438E-2,7.2026247E-1,0E0,3.7722087E-1,0E0,0E0,3.3689433E-1,3.4352002E-1,5.561805E-1,1.0087426E0,0E0,0E0,2.7107948E-1,0E0,5.773228E-1,5.2145815E-1,0E0,0E0,0E0,0E0,0E0,0E0,0E0,0E0],"parents":[2147483647,0,0,1,1,3,3,4,4,5,5,6,6,8,8,11,11,12,12,13,13,14,14,17,17,19,19,20,20],"right_children":[2,4,-1,6,8,10,12,-1,14,-1,-1,16,18,20,22,-1,-1,24,-1,26,28,-1,-1,-1,-1,-1,-1,-1,-1],"split_conditions":[4.32225E1,6.5E0,1.125198E-1,1.3229227E0,4.8E1,1.0286529E0,8.584281E-1,1.1631568E-1,9.1457283E-1,2.0169368E-1,4.340535E-2,1E0,3.1175E1,8.64512E-1,8.64512E-1,3.8974856E-3,-1.966912E-1,5E1,1.14145E-1,8.305534E-1,6.281407E-1,-1.0028427E-1,2.0053174E-1,3.1926002E-2,-1.0423354E-1,-1.1231778E-1,2.838391E-2,-4.07225E-2,-2.0315488E-1],"split_indices":[2,0,0,6,1,5,4,0,3,0,0,0,2,4,4,0,0,1,0,4,3,0,0,0,0,0,0,0,0],"split_type":[0,0,0,0,0,0,0,0,0,0,0,0,0,0,0,0,0,0,0,0,0,0,0,0,0,0,0,0,0],"sum_hessian":[3.4976364E1,3.336175E1,1.6146116E0,1.114374E1,2.2218012E1,2.9471266E0,8.196613E0,1.062811E0,2.1155201E1,1.7841136E0,1.163013E0,2.4166987E0,5.7799144E0,1.9015017E1,2.1401832E0,1.0495175E0,1.3671812E0,3.874173E0,1.9057416E0,1.1509281E1,7.5057354E0,1.1245837E0,1.0155995E0,2.8351192E0,1.0390539E0,2.5748537E0,8.934428E0,5.0422816E0,2.4634535E0],"tree_param":{"num_deleted":"0","num_feature":"7","num_nodes":"29","size_leaf_vector":"1"}},{"base_weights":[8.737581E-3,3.960269E-2,-2.7341005E-1,2.8323424E-1,-1.2411215E-2,-1.3634077E-1,2.14212E-2,4.7077903E-1,-3.8234487E-2,-5.2026782E-2,3.009253E-1,3.0475812E-2,1.6875726E-1,-1.864969E-1,6.7754425E-2,-2.3130355E-3,1.4288163E-1,-3.9599076E-2,-5.169685E-1,-1.4695798E-2,1.7096592E-1,6.632915E-2,-9.6448354E-2,-1.9387342E-1,-3.664753E-2,1.7548606E-2,-8.612101E-2],"categories":[],"categories_nodes":[],"categories_segments":[],"categories_sizes":[],"default_left":[0,0,0,0,0,0,0,0,0,0,0,0,0,0,0,0,0,0,0,0,0,0,0,0,0,0,0],"id":28,"left_children":[1,3,5,7,9,-1,-1,11,-1,13,15,-1,-1,17,19,-1,-1,21,23,25,-1,-1,-1,-1,-1,-1,-1],"loss_changes":[3.1403774E-1,4.1229433E-1,2.5469348E-1,5.0034773E-1,3.5751843E-1,0E0,0E0,8.3013296E-2,0E0,4.2017618E-1,1.7893854E-1,0E0,0E0,5.7113516E-1,5.9276664E-1,0E0,0E0,7.7065843E-1,1.0822594E-1,2.7793458E-1,0E0,0E0,0E0,0E0,0E0,0E0,0E0],"parents":[2147483647,0,0,1,1,2,2,3,3,4,4,7,7,9,9,10,10,13,13,14,14,17,17,18,18,19,19],"right_children":[2,4,6,8,10,-1,-1,12,-1,14,16,-1,-1,18,20,-1,-1,22,24,26,-1,-1,-1,-1,-1,-1,-1],"split_conditions":[1.5343972E0,4E0,8.855472E-1,1.4035088E0,1.9E1,-1.3634077E-1,2.14212E-2,8.584281E-1,-3.8234487E-2,3.615E1,4.924623E-1,3.0475812E-2,1.6875726E-1,1.3E1,1.0424879E0,-2.3130355E-3,1.4288163E-1,1.0341898E0,1.55E1,1.75E1,1.7096592E-1,6.632915E-2,-9.6448354E-2,-1.9387342E-1,-3.664753E-2,1.7548606E-2,-8.612101E-2],"split_indices":[6,0,4,6,0,0,0,4,0,2,3,0,0,0,5,0,0,5,0,0,0,0,0,0,0,0,0],"split_type":[0,0,0,0,0,0,0,0,0,0,0,0,0,0,0,0,0,0,0,0,0,0,0,0,0,0,0],"sum_hessian":[3.3817635E1,3.1257866E1,2.5597684E0,4.717216E0,2.6540651E1,1.469915E0,1.0898534E0,3.1379068E0,1.5793091E0,2.4302065E1,2.2385848E0,1.0439992E0,2.0939076E0,1.1186628E1,1.31154375E1,1.1574087E0,1.081176E0,8.519468E0,2.66716E0,1.2099439E1,1.0159984E0,4.538214E0,3.9812539E0,1.5294945E0,1.1376656E0,1.0155688E1,1.9437509E0],"tree_param":{"num_deleted":"0","num_feature":"7","num_nodes":"27","size_leaf_vector":"1"}},{"base_weights":[7.0507647E-3,-1.6678827E-2,9.673546E-2,1.3766871E-1,-8.256306E-2,1.4010514E-1,3.2499852E-3,-1.4420365E-1,2.3639023E-1,-1.0112292E-1,1.7343721E-1,-2.7562032E-2,-3.6672935E-1,-4.783645E-2,1.540039E-1,1.1905473E-1,1.5380737E-2,-1.18264146E-1,1.2071443E-1,1.1347074E-2,-5.850135E-1,-1.22620605E-1,8.037918E-2,8.782106E-3,-1.1234928E-1,7.744125E-2,-7.171731E-2,-2.0622514E-1,-6.604734E-2],"categories":[],"categories_nodes":[],"categories_segments":[],"categories_sizes":[],"default_left":[0,0,0,0,0,0,0,0,0,0,0,0,0,0,0,0,0,0,0,0,0,0,0,0,0,0,0,0,0],"id":29,"left_children":[1,3,-1,5,7,-1,9,11,13,-1,15,17,19,-1,-1,-1,21,23,-1,25,27,-1,-1,-1,-1,-1,-1,-1,-1],"loss_changes":[2.6068258E-1,3.4364888E-1,0E0,4.478349E-1,4.9661398E-1,0E0,5.3428066E-1,5.177436E-1,5.411118E-1,0E0,2.1059789E-1,6.100759E-1,5.7712245E-1,0E0,0E0,0E0,6.0590863E-1,4.90471E-1,0E0,2.786915E-1,1.3108134E-2,0E0,0E0,0E0,0E0,0E0,0E0,0E0,0E0],"parents":[2147483647,0,0,1,1,3,3,4,4,6,6,7,7,8,8,10,10,11,11,12,12,16,16,17,17,19,19,20,20],"right_children":[2,4,-1,6,8,-1,10,12,14,-1,16,18,20,-1,-1,-1,22,24,-1,26,28,-1,-1,-1,-1,-1,-1,-1,-1],"split_conditions":[4.32225E1,5.2E1,9.673546E-2,5.125628E-1,8.777499E-1,1.4010514E-1,6.7839193E-1,8.6124605E-1,1E1,-1.0112292E-1,4.65E1,8.574946E-1,1.0185156E0,-4.783645E-2,1.540039E-1,1.1905473E-1,2.73225E1,8.463681E-1,1.2071443E-1,1.4E1,3.76625E1,-1.22620605E-1,8.037918E-2,8.782106E-3,-1.1234928E-1,7.744125E-2,-7.171731E-2,-2.0622514E-1,-6.604734E-2],"split_indices":[2,1,0,3,4,0,3,4,0,0,1,4,5,0,0,0,2,4,0,0,2,0,0,0,0,0,0,0,0],"split_type":[0,0,0,0,0,0,0,0,0,0,0,0,0,0,0,0,0,0,0,0,0,0,0,0,0,0,0,0,0],"sum_hessian":[3.311186E1,3.1675806E1,1.4360522E0,9.150141E0,2.2525665E1,1.934919E0,7.215222E0,1.9336582E1,3.1890836E0,2.078396E0,5.136826E0,1.3423976E1,5.9126053E0,1.487419E0,1.7016644E0,1.5023946E0,3.6344314E0,1.1684013E1,1.7399625E0,2.511174E0,3.4014313E0,1.1256509E0,2.5087805E0,7.9767804E0,3.7072332E0,1.2491616E0,1.2620124E0,1.9656543E0,1.435777E0],"tree_param":{"num_deleted":"0","num_feature":"7","num_nodes":"29","size_leaf_vector":"1"}},{"base_weights":[6.485499E-3,3.54658E-2,-2.6100156E-1,-1.8754888E-2,2.1489406E-1,-1.16339445E-1,2.7562303E-3,1.0023456E-1,-6.649846E-2,3.8257462E-1,-2.7529828E-2,-1.888679E-1,1.1758422E-1,-2.2771256E-2,1.6333848E-1,-9.470282E-2,1.1395412E-1,1.810856E-1,-2.8554684E-1,-2.0741977E-2,1.6220023E-1,1.1026668E-1,-3.9921805E-2,-1.1646839E-1,-2.0019372E-3,7.266025E-2,-3.9871834E-2],"categories":[],"categories_nodes":[],"categories_segments":[],"categories_sizes":[],"default_left":[0,0,0,0,0,0,0,0,0,0,0,0,0,0,0,0,0,0,0,0,0,0,0,0,0,0,0],"id":30,"left_children":[1,3,5,7,9,-1,-1,-1,11,13,15,17,19,-1,-1,-1,-1,21,23,25,-1,-1,-1,-1,-1,-1,-1],"loss_changes":[2.6642004E-1,3.0379114E-1,1.1875881E-1,4.363483E-1,3.0445042E-1,0E0,0E0,0E0,5.287279E-1,3.635441E-1,5.76442E-1,5.485352E-1,5.727569E-1,0E0,0E0,0E0,0E0,2.5335252E-1,3.2387435E-1,2.7385518E-1,0E0,0E0,0E0,0E0,0E0,0E0,0E0],"parents":[2147483647,0,0,1,1,2,2,3,3,4,4,8,8,9,9,10,10,11,11,12,12,17,17,18,18,19,19],"right_children":[2,4,6,8,10,-1,-1,-1,12,14,16,18,20,-1,-1,-1,-1,22,24,26,-1,-1,-1,-1,-1,-1,-1],"split_conditions":[1.5343972E0,1.0462128E0,8.855472E-1,4.5E0,5.2E1,-1.16339445E-1,2.7562303E-3,1.0023456E-1,3.943E1,2.56775E1,3.56375E1,1.0114186E0,1.3113102E0,-2.2771256E-2,1.6333848E-1,-9.470282E-2,1.1395412E-1,5.8E1,1.3426543E0,4.0201005E-1,1.6220023E-1,1.1026668E-1,-3.9921805E-2,-1.1646839E-1,-2.0019372E-3,7.266025E-2,-3.9871834E-2],"split_indices":[6,5,4,0,1,0,0,0,2,2,2,5,6,0,0,0,0,1,6,3,0,0,0,0,0,0,0],"split_type":[0,0,0,0,0,0,0,0,0,0,0,0,0,0,0,0,0,0,0,0,0,0,0,0,0,0,0],"sum_hessian":[3.217443E1,2.9811934E1,2.3624973E0,2.3581432E1,6.2305017E0,1.311664E0,1.0508335E0,2.0955105E0,2.1485922E1,3.341275E0,2.889227E0,1.2890759E1,8.595161E0,1.0105196E0,2.3307552E0,1.824102E0,1.0651248E0,2.4898791E0,1.0400881E1,7.194054E0,1.4011072E0,1.4558084E0,1.0340707E0,7.315274E0,3.0856073E0,1.8044937E0,5.38956E0],"tree_param":{"num_deleted":"0","num_feature":"7","num_nodes":"27","size_leaf_vector":"1"}},{"base_weights":[1.4048682E-2,8.427748E-2,-1.0699668E-2,2.996652E-2,-2.1051255E-1,-1.6897142E-2,2.9338026E-1,4.7407288E-2,-3.7844294E-1,4.9702197E-2,-2.305362E-1,-1.839346E-2,1.307353E-1,-1.6635552E-1,1.9013146E-2,-1.9536272E-2,2.7031115E-1,-1.6605712E-1,2.0660926E-2,4.5694936E-2,-4.6245616E-2,1.4219776E-1,2.8894192E-3,-9.050603E-2,8.672772E-2],"categories":[],"categories_nodes":[],"categories_segments":[],"categories_sizes":[],"default_left":[0,0,0,0,0,0,0,0,0,0,0,0,0,0,0,0,0,0,0,0,0,0,0,0,0],"id":31,"left_children":[1,-1,3,5,7,9,11,-1,13,15,17,-1,-1,-1,-1,19,21,-1,23,-1,-1,-1,-1,-1,-1],"loss_changes":[2.149138E-1,0E0,2.5271577E-1,3.2680467E-1,3.848833E-1,3.398416E-1,2.2836915E-1,0E0,3.3877182E-1,2.8660005E-1,4.708396E-1,0E0,0E0,0E0,0E0,3.693456E-1,2.3260948E-1,0E0,4.4623423E-1,0E0,0E0,0E0,0E0,0E0,0E0],"parents":[2147483647,0,0,2,2,3,3,4,4,5,5,6,6,8,8,9,9,10,10,15,15,16,16,18,18],"right_children":[2,-1,4,6,8,10,12,-1,14,16,18,-1,-1,-1,-1,20,22,-1,24,-1,-1,-1,-1,-1,-1],"split_conditions":[1.0028658E0,8.427748E-2,6.25E1,4.09975E1,1.0084077E0,5.8E1,1.2359159E0,4.7407288E-2,6.5E1,3.5495E1,5.95E1,-1.839346E-2,1.307353E-1,-1.6635552E-1,1.9013146E-2,1.0341898E0,5.55E1,-1.6605712E-1,8.557107E-1,4.5694936E-2,-4.6245616E-2,1.4219776E-1,2.8894192E-3,-9.050603E-2,8.672772E-2],"split_indices":[5,0,1,2,5,1,6,0,1,2,1,0,0,0,0,5,1,0,4,0,0,0,0,0,0],"split_type":[0,0,0,0,0,0,0,0,0,0,0,0,0,0,0,0,0,0,0,0,0,0,0,0,0],"sum_hessian":[3.1084202E1,1.759475E0,2.9324728E1,2.5072056E1,4.2526717E0,2.2079727E1,2.9923277E0,1.3496797E0,2.9029918E0,1.7417418E1,4.6623106E0,1.0203503E0,1.9719774E0,1.8933651E0,1.0096266E0,1.395048E1,3.4669366E0,1.5131587E0,3.149152E0,6.069968E0,7.880512E0,1.4868761E0,1.9800605E0,1.374585E0,1.7745669E0],"tree_param":{"num_deleted":"0","num_feature":"7","num_nodes":"25","size_leaf_vector":"1"}},{"base_weights":[1.1983435E-2,-8.134121E-3,8.288492E-2,1.15710974E-1,-6.1234396E-2,1.4060469E-1,1.0320905E-2,-1.118977E-1,1.9781151E-1,-3.0324408E-1,1.753917E-1,-3.4119429E-3,-3.2672366E-1,-4.3088257E-2,1.2998267E-1,-1.4230339E-1,1.8674064E-3,-6.883017E-2,1.5830052E-1,1.487329E-1,-2.4474473E-1,-3.760246E-2,-4.9668697E-1,6.2312156E-2,-7.321047E-2,1.321714E-3,1.317557E-1,-1.2209832E-1,1.4282117E-2,5.801737E-2,-7.490361E-2,-1.9930352E-1,-4.5867853E-2],"categories":[],"categories_nodes":[],"categories_segments":[],"categories_sizes":[],"default_left":[0,0,0,0,0,0,0,0,0,0,0,0,0,0,0,0,0,0,0,0,0,0,0,0,0,0,0,0,0,0,0,0,0],"id":32,"left_children":[1,3,-1,5,7,-1,9,11,13,15,17,19,21,-1,-1,-1,-1,23,-1,25,27,29,31,-1,-1,-1,-1,-1,-1,-1,-1,-1,-1],"loss_changes":[1.6960861E-1,2.058269E-1,0E0,3.4540856E-1,3.0831897E-1,0E0,4.81399E-1,4.3883795E-1,3.780601E-1,1.7343158E-1,5.5711293E-1,5.3406566E-1,2.9207152E-1,0E0,0E0,0E0,0E0,2.66757E-1,0E0,3.726234E-1,2.8589892E-1,2.1597713E-1,1.2325865E-1,0E0,0E0,0E0,0E0,0E0,0E0,0E0,0E0,0E0,0E0],"parents":[2147483647,0,0,1,1,3,3,4,4,6,6,7,7,8,8,9,9,10,10,11,11,12,12,17,17,19,19,20,20,21,21,22,22],"right_children":[2,4,-1,6,8,-1,10,12,14,16,18,20,22,-1,-1,-1,-1,24,-1,26,28,30,32,-1,-1,-1,-1,-1,-1,-1,-1,-1,-1],"split_conditions":[4.32225E1,5.2E1,8.288492E-2,1.018587E0,8.777499E-1,1.4060469E-1,1.0462128E0,8.6124605E-1,1E1,1.3465058E0,2.90275E1,7.4371856E-1,1.0185156E0,-4.3088257E-2,1.2998267E-1,-1.4230339E-1,1.8674064E-3,1.0729723E0,1.5830052E-1,1.0257859E0,8.894472E-1,1.4E1,1.03187E0,6.2312156E-2,-7.321047E-2,1.321714E-3,1.317557E-1,-1.2209832E-1,1.4282117E-2,5.801737E-2,-7.490361E-2,-1.9930352E-1,-4.5867853E-2],"split_indices":[2,1,0,5,4,0,5,4,0,6,2,3,5,0,0,0,0,5,0,5,3,0,5,0,0,0,0,0,0,0,0,0,0],"split_type":[0,0,0,0,0,0,0,0,0,0,0,0,0,0,0,0,0,0,0,0,0,0,0,0,0,0,0,0,0,0,0,0,0],"sum_hessian":[3.0476273E1,2.9221275E1,1.2549967E0,8.415293E0,2.0805983E1,1.1423213E0,7.272971E0,1.7877586E1,2.9283972E0,2.2196038E0,5.053367E0,1.2553852E1,5.3237333E0,1.3544194E0,1.5739778E0,1.0862579E0,1.1333458E0,3.4595726E0,1.5937948E0,7.935028E0,4.618824E0,2.423094E0,2.9006393E0,1.2698197E0,2.1897528E0,5.979138E0,1.9558904E0,2.718159E0,1.900665E0,1.2019901E0,1.221104E0,1.3230401E0,1.577599E0],"tree_param":{"num_deleted":"0","num_feature":"7","num_nodes":"33","size_leaf_vector":"1"}},{"base_weights":[1.0886752E-2,2.3236495E-1,-1.3659988E-2,1.3190275E-1,-3.0578699E-2,-2.2304906E-1,3.8763195E-2,5.3943947E-2,-3.7485707E-1,2.4938546E-1,-2.7617928E-2,-2.5553083E-2,-1.6709848E-1,1.6739073E-1,-3.9260074E-2,-1.8005186E-1,1.1512566E-1,-1.2408204E-1,8.52389E-2,1.20743096E-1,-3.1742388E-1,-7.4790604E-2,3.3186424E-1,1.19219616E-1,-7.483546E-2,-1.3818295E-1,-9.728684E-3,-9.9880114E-2,4.8339684E-2,8.568316E-3,1.3862869E-1],"categories":[],"categories_nodes":[],"categories_segments":[],"categories_sizes":[],"default_left":[0,0,0,0,0,0,0,0,0,0,0,0,0,0,0,0,0,0,0,0,0,0,0,0,0,0,0,0,0,0,0],"id":33,"left_children":[1,3,5,-1,-1,7,9,-1,11,13,15,-1,-1,-1,17,19,21,-1,-1,23,25,27,29,-1,-1,-1,-1,-1,-1,-1,-1],"loss_changes":[1.7027429E-1,2.6119226E-1,3.2273906E-1,0E0,0E0,4.2686024E-1,3.387574E-1,0E0,1.9489574E-1,5.374461E-1,4.3303216E-1,0E0,0E0,0E0,5.9265995E-1,4.3307796E-1,4.527154E-1,0E0,0E0,4.8007458E-1,2.6393068E-1,4.4077432E-1,1.8583107E-1,0E0,0E0,0E0,0E0,0E0,0E0,0E0,0E0],"parents":[2147483647,0,0,1,1,2,2,5,5,6,6,8,8,9,9,10,10,14,14,15,15,16,16,19,19,20,20,21,21,22,22],"right_children":[2,4,6,-1,-1,8,10,-1,12,14,16,-1,-1,-1,18,20,22,-1,-1,24,26,28,30,-1,-1,-1,-1,-1,-1,-1,-1],"split_conditions":[4.6E1,1.0877322E0,3.02775E1,1.3190275E-1,-3.0578699E-2,1.0198934E0,6.5E0,5.3943947E-2,3.5E0,1.3224728E0,5.879397E-1,-2.5553083E-2,-1.6709848E-1,1.6739073E-1,8.584281E-1,8.499025E-1,8.574946E-1,-1.2408204E-1,8.52389E-2,4.1708544E-1,8.688162E-1,4.07475E1,1.0257859E0,1.19219616E-1,-7.483546E-2,-1.3818295E-1,-9.728684E-3,-9.9880114E-2,4.8339684E-2,8.568316E-3,1.3862869E-1],"split_indices":[1,5,2,0,0,5,0,0,0,6,3,0,0,0,4,4,4,0,0,3,4,2,5,0,0,0,0,0,0,0,0],"split_type":[0,0,0,0,0,0,0,0,0,0,0,0,0,0,0,0,0,0,0,0,0,0,0,0,0,0,0,0,0,0,0],"sum_hessian":[2.973634E1,2.1221912E0,2.761415E1,1.1153035E0,1.0068877E0,4.8775244E0,2.2736624E1,1.2844427E0,3.5930817E0,4.7879496E0,1.7948675E1,1.9536157E0,1.6394659E0,1.8630984E0,2.9248512E0,8.553328E0,9.395347E0,1.2263224E0,1.6985289E0,2.7195494E0,5.833778E0,5.356587E0,4.03876E0,1.5143512E0,1.2051982E0,3.47279E0,2.360988E0,2.3614876E0,2.9950993E0,1.5794954E0,2.4592648E0],"tree_param":{"num_deleted":"0","num_feature":"7","num_nodes":"31","size_leaf_vector":"1"}},{"base_weights":[1.0369981E-2,8.689165E-2,-9.943349E-3,-1.2975387E-1,2.1917976E-2,1.08223416E-1,-5.2762707E-3,1.3737877E-1,-6.908707E-2,3.1457493E-1,-7.579035E-2,-2.764088E-1,6.739468E-2,-2.600097E-2,1.4609508E-1,-7.9874784E-2,3.511758E-2,-1.1163501E-1,4.9372178E-2,5.4281157E-2,-7.045209E-2],"categories":[],"categories_nodes":[],"categories_segments":[],"categories_sizes":[],"default_left":[0,0,0,0,0,0,0,0,0,0,0,0,0,0,0,0,0,0,0,0,0],"id":34,"left_children":[1,-1,3,-1,5,-1,7,9,11,13,15,17,19,-1,-1,-1,-1,-1,-1,-1,-1],"loss_changes":[1.7237155E-1,0E0,3.974808E-1,0E0,2.5759292E-1,0E0,2.5229874E-1,3.4787184E-1,5.589379E-1,3.7970012E-1,2.0378926E-1,3.8944548E-1,4.6522987E-1,0E0,0E0,0E0,0E0,0E0,0E0,0E0,0E0],"parents":[2147483647,0,0,2,2,4,4,6,6,7,7,8,8,9,9,10,10,11,11,12,12],"right_children":[2,-1,4,-1,6,-1,8,10,12,14,16,18,20,-1,-1,-1,-1,-1,-1,-1,-1],"split_conditions":[1.2045498E0,8.689165E-2,1.2167323E0,-1.2975387E-1,1.0028658E0,1.08223416E-1,5.2E1,8.841334E-1,3.615E1,8.569097E-1,7.1859294E-1,9.1457283E-1,1.75E1,-2.600097E-2,1.4609508E-1,-7.9874784E-2,3.511758E-2,-1.1163501E-1,4.9372178E-2,5.4281157E-2,-7.045209E-2],"split_indices":[6,0,6,0,5,0,1,4,2,4,3,3,0,0,0,0,0,0,0,0,0],"split_type":[0,0,0,0,0,0,0,0,0,0,0,0,0,0,0,0,0,0,0,0,0],"sum_hessian":[2.8877518E1,1.059052E0,2.7818466E1,1.0687691E0,2.6749697E1,1.0761333E0,2.5673563E1,7.5784097E0,1.8095154E1,3.8786163E0,3.6997933E0,6.776346E0,1.1318808E1,1.3151594E0,2.563457E0,1.6699395E0,2.0298538E0,5.696238E0,1.0801079E0,8.51955E0,2.7992573E0],"tree_param":{"num_deleted":"0","num_feature":"7","num_nodes":"21","size_leaf_vector":"1"}},{"base_weights":[9.368634E-3,3.5483316E-2,-2.2311807E-1,1.4670937E-1,-3.660817E-2,6.1796186E-3,-1.04871E-1,4.066689E-1,-2.3074856E-3,-9.515762E-2,9.324377E-2,1.8509117E-1,-2.8945904E-2,1.5586874E-1,-1.5914316E-1,-2.1716313E-1,8.5928135E-2,-9.977192E-2,1.3145952E-1,7.351879E-2,-3.5796425E-1,5.2329596E-2,-3.209019E-1,-8.947651E-2,2.2000147E-1,-7.0345856E-2,2.7133435E-2,-1.8037733E-1,1.4489152E-2,-1.33880135E-2,-1.3575098E-1,1.14248574E-1,4.129668E-3],"categories":[],"categories_nodes":[],"categories_segments":[],"categories_sizes":[],"default_left":[0,0,0,0,0,0,0,0,0,0,0,0,0,0,0,0,0,0,0,0,0,0,0,0,0,0,0,0,0,0,0,0,0],"id":35,"left_children":[1,3,5,7,9,-1,-1,11,13,15,-1,-1,-1,17,19,21,23,25,-1,-1,27,-1,29,-1,31,-1,-1,-1,-1,-1,-1,-1,-1],"loss_changes":[1.8553315E-1,2.2317968E-1,1.02476105E-1,4.224894E-1,3.8110337E-1,0E0,0E0,4.796831E-1,2.2106732E-1,3.623178E-1,0E0,0E0,0E0,3.6446765E-1,4.4673693E-1,4.4502228E-1,4.2503634E-1,1.0184428E-1,0E0,0E0,3.6517662E-1,0E0,2.678836E-1,0E0,1.8541473E-1,0E0,0E0,0E0,0E0,0E0,0E0,0E0,0E0],"parents":[2147483647,0,0,1,1,2,2,3,3,4,4,7,7,8,8,9,9,13,13,14,14,15,15,16,16,17,17,20,20,22,22,24,24],"right_children":[2,4,6,8,10,-1,-1,12,14,16,-1,-1,-1,18,20,22,24,26,-1,-1,28,-1,30,-1,32,-1,-1,-1,-1,-1,-1,-1,-1],"split_conditions":[1.5343972E0,9E0,4.5E1,1.0222913E0,1.0424879E0,6.1796186E-3,-1.04871E-1,6.35E1,5.35E1,4.06775E1,9.324377E-2,1.8509117E-1,-2.8945904E-2,2.8155E1,1.3113102E0,1.0107772E0,1.2223375E0,8.91712E-1,1.3145952E-1,7.351879E-2,3.591E1,5.2329596E-2,3.27225E1,-8.947651E-2,8.471178E-1,-7.0345856E-2,2.7133435E-2,-1.8037733E-1,1.4489152E-2,-1.33880135E-2,-1.3575098E-1,1.14248574E-1,4.129668E-3],"split_indices":[6,0,1,5,5,0,0,1,1,2,0,0,0,2,6,5,6,4,0,0,2,0,2,0,4,0,0,0,0,0,0,0,0],"split_type":[0,0,0,0,0,0,0,0,0,0,0,0,0,0,0,0,0,0,0,0,0,0,0,0,0,0,0,0,0,0,0,0,0],"sum_hessian":[2.8254969E1,2.6163464E1,2.0915053E0,9.882007E0,1.6281458E1,1.0004303E0,1.091075E0,2.970669E0,6.9113374E0,1.4554711E1,1.7267458E0,1.9354954E0,1.0351737E0,3.4440324E0,3.467305E0,8.576867E0,5.977844E0,2.1467917E0,1.2972407E0,1.0665059E0,2.400799E0,1.6535522E0,6.923315E0,1.2296766E0,4.7481675E0,1.1205032E0,1.0262886E0,1.2013698E0,1.1994293E0,2.6658695E0,4.257446E0,2.1921306E0,2.556037E0],"tree_param":{"num_deleted":"0","num_feature":"7","num_nodes":"33","size_leaf_vector":"1"}},{"base_weights":[9.21856E-3,-1.7346134E-2,7.610502E-2,-1.0380777E-1,5.2996926E-2,9.973385E-2,-1.9013889E-1,-1.00015976E-1,1.9168203E-1,5.5452503E-2,-4.051942E-1,-2.277318E-1,6.268235E-2,1.3943815E-1,6.887944E-2,2.0147762E-1,-5.552994E-2,-8.77119E-3,-5.479748E-1,-3.6781445E-1,3.654783E-2,-1.898257E-1,2.783454E-1,1.1130235E-1,-9.782281E-3,-1.9151957E-1,-4.960706E-2,-1.5402266E-1,1.2039532E-2,-7.891436E-2,-9.855028E-4,1.3560839E-1,8.786542E-3],"categories":[],"categories_nodes":[],"categories_segments":[],"categories_sizes":[],"default_left":[0,0,0,0,0,0,0,0,0,0,0,0,0,0,0,0,0,0,0,0,0,0,0,0,0,0,0,0,0,0,0,0,0],"id":36,"left_children":[1,3,-1,5,7,-1,9,11,13,15,17,19,-1,-1,21,23,-1,-1,25,27,-1,29,31,-1,-1,-1,-1,-1,-1,-1,-1,-1,-1],"loss_changes":[1.8783768E-1,1.6615106E-1,0E0,5.222163E-1,3.4228992E-1,0E0,5.934175E-1,3.591679E-1,2.4736878E-1,2.454688E-1,2.9981625E-1,3.418163E-1,0E0,0E0,4.2784905E-1,1.7744713E-1,0E0,0E0,4.002118E-2,2.9257083E-1,0E0,4.954797E-2,1.6971743E-1,0E0,0E0,0E0,0E0,0E0,0E0,0E0,0E0,0E0,0E0],"parents":[2147483647,0,0,1,1,3,3,4,4,6,6,7,7,8,8,9,9,10,10,11,11,14,14,15,15,18,18,19,19,21,21,22,22],"right_children":[2,4,-1,6,8,-1,10,12,14,16,18,20,-1,-1,22,24,-1,-1,26,28,-1,30,32,-1,-1,-1,-1,-1,-1,-1,-1,-1,-1],"split_conditions":[1.9E1,8.574946E-1,7.610502E-2,3.6683416E-1,6.7336684E-1,9.973385E-2,8.384118E-1,3.863E1,8.6466163E-1,6.25E1,1.0103079E0,8.855472E-1,6.268235E-2,1.3943815E-1,1.3535353E0,7.035176E-1,-5.552994E-2,-8.77119E-3,7.487437E-1,1.055193E0,3.654783E-2,8.994975E-1,1.4303616E0,1.1130235E-1,-9.782281E-3,-1.9151957E-1,-4.960706E-2,-1.5402266E-1,1.2039532E-2,-7.891436E-2,-9.855028E-4,1.3560839E-1,8.786542E-3],"split_indices":[0,4,0,3,3,0,4,2,4,1,5,4,0,0,6,3,0,0,3,5,0,3,6,0,0,0,0,0,0,0,0,0,0],"split_type":[0,0,0,0,0,0,0,0,0,0,0,0,0,0,0,0,0,0,0,0,0,0,0,0,0,0,0,0,0,0,0,0,0],"sum_hessian":[2.7246605E1,2.5414042E1,1.8325644E0,1.11874E1,1.4226642E1,1.377203E0,9.810197E0,6.89649E0,7.330152E0,4.926417E0,4.8837795E0,5.06545E0,1.8310397E0,1.4098263E0,5.9203258E0,3.1665988E0,1.759818E0,1.6758512E0,3.2079284E0,3.5789754E0,1.4864749E0,2.6907835E0,3.2295423E0,1.497295E0,1.6693038E0,2.054006E0,1.1539223E0,2.4470959E0,1.1318797E0,1.6377765E0,1.053007E0,1.4225521E0,1.8069903E0],"tree_param":{"num_deleted":"0","num_feature":"7","num_nodes":"33","size_leaf_vector":"1"}},{"base_weights":[1.0580432E-2,8.446826E-2,-1.0255617E-2,-9.5413305E-2,2.5505837E-2,-3.8913425E-2,2.1466842E-1,6.244369E-2,-2.6049995E-1,3.183575E-1,-1.3880089E-2,1.6235833E-1,-9.237376E-2,-1.3048033E-1,-4.5632236E-2,1.54923E-1,5.9523672E-2,-1.5362411E-2,1.0406217E-1,4.858793E-2,-6.0963098E-2,-8.632065E-2,7.239894E-2,-4.147939E-2,6.7411244E-2],"categories":[],"categories_nodes":[],"categories_segments":[],"categories_sizes":[],"default_left":[0,0,0,0,0,0,0,0,0,0,0,0,0,0,0,0,0,0,0,0,0,0,0,0,0],"id":37,"left_children":[1,-1,3,-1,5,7,9,11,13,15,-1,17,19,-1,21,-1,23,-1,-1,-1,-1,-1,-1,-1,-1],"loss_changes":[1.5874694E-1,0E0,3.008792E-1,0E0,3.1001544E-1,4.5002738E-1,1.8903181E-1,2.3245844E-1,2.1458718E-1,2.1209988E-1,0E0,3.6874563E-1,2.0631945E-1,0E0,3.4176695E-1,0E0,1.3508423E-1,0E0,0E0,0E0,0E0,0E0,0E0,0E0,0E0],"parents":[2147483647,0,0,2,2,4,4,5,5,6,6,7,7,8,8,9,9,11,11,12,12,14,14,16,16],"right_children":[2,-1,4,-1,6,8,10,12,14,16,-1,18,20,-1,22,-1,24,-1,-1,-1,-1,-1,-1,-1,-1],"split_conditions":[1.2045498E0,8.446826E-2,1.223464E0,-9.5413305E-2,4.00125E1,5.7E1,1.8E1,8.796481E-1,6E1,5.7788944E-1,-1.3880089E-2,1.3433584E0,4.4E1,-1.3048033E-1,8.5714287E-1,1.54923E-1,1.2605197E0,-1.5362411E-2,1.0406217E-1,4.858793E-2,-6.0963098E-2,-8.632065E-2,7.239894E-2,-4.147939E-2,6.7411244E-2],"split_indices":[6,0,6,0,2,1,0,4,1,3,0,6,1,0,4,0,6,0,0,0,0,0,0,0,0],"split_type":[0,0,0,0,0,0,0,0,0,0,0,0,0,0,0,0,0,0,0,0,0,0,0,0,0],"sum_hessian":[2.660448E1,1.0061373E0,2.5598343E1,1.8429655E0,2.3755377E1,1.8313131E1,5.4422455E0,1.3058272E1,5.254859E0,3.7371392E0,1.7051064E0,7.9067683E0,5.1515045E0,2.3350315E0,2.9198277E0,1.5533881E0,2.183751E0,3.9997528E0,3.9070158E0,1.4235884E0,3.727916E0,1.582236E0,1.3375915E0,1.0679401E0,1.1158111E0],"tree_param":{"num_deleted":"0","num_feature":"7","num_nodes":"25","size_leaf_vector":"1"}},{"base_weights":[1.09388735E-2,3.815667E-2,-6.623688E-2,8.353749E-2,1.26113705E-2,-1.4078689E-1,6.2079888E-2,7.1570076E-2,-3.0801985E-1,-4.1636627E-2,3.3962986E-1,-4.4907543E-1,1.5535638E-2,5.0998777E-2,-2.327822E-1,1.4296545E-1,1.4176069E-1,-3.433041E-2,-1.7330664E-1,9.2903696E-2,-4.67242E-3,-1.0293453E-1,2.3541683E-2,9.0779655E-2,-3.0902253E-2],"categories":[],"categories_nodes":[],"categories_segments":[],"categories_sizes":[],"default_left":[0,0,0,0,0,0,0,0,0,0,0,0,0,0,0,0,0,0,0,0,0,0,0,0,0],"id":38,"left_children":[1,3,-1,-1,5,7,9,-1,11,13,15,17,-1,19,21,-1,23,-1,-1,-1,-1,-1,-1,-1,-1],"loss_changes":[1.7891403E-1,1.5021409E-1,0E0,0E0,1.8846089E-1,4.5927835E-1,5.496411E-1,0E0,2.5961426E-1,2.6743096E-1,7.250321E-2,8.23313E-2,0E0,1.8636525E-1,1.9489154E-1,0E0,1.7044243E-1,0E0,0E0,0E0,0E0,0E0,0E0,0E0,0E0],"parents":[2147483647,0,0,1,1,4,4,5,5,6,6,8,8,9,9,10,10,11,11,13,13,14,14,16,16],"right_children":[2,4,-1,-1,6,8,10,-1,12,14,16,18,-1,20,22,-1,24,-1,-1,-1,-1,-1,-1,-1,-1],"split_conditions":[1.5343972E0,4.75E1,-6.623688E-2,8.353749E-2,3.21925E1,1.0214994E0,1.0329905E0,7.1570076E-2,1.0716552E0,1.2982457E0,1.3451052E0,5.1E1,1.5535638E-2,8E0,3.99E1,1.4296545E-1,8.746867E-1,-3.433041E-2,-1.7330664E-1,9.2903696E-2,-4.67242E-3,-1.0293453E-1,2.3541683E-2,9.0779655E-2,-3.0902253E-2],"split_indices":[6,1,0,0,2,5,5,0,5,6,6,1,0,0,2,0,4,0,0,0,0,0,0,0,0],"split_type":[0,0,0,0,0,0,0,0,0,0,0,0,0,0,0,0,0,0,0,0,0,0,0,0,0],"sum_hessian":[2.6031183E1,2.4042587E1,1.9885966E0,1.3589103E0,2.2683676E1,5.081214E0,1.7602463E1,1.4241335E0,3.6570807E0,1.3432799E1,4.169663E0,2.4489174E0,1.2081631E0,9.54175E0,3.89105E0,1.6319607E0,2.5377023E0,1.2045478E0,1.2443696E0,1.205589E0,8.336161E0,2.7971573E0,1.0938928E0,1.3888298E0,1.1488724E0],"tree_param":{"num_deleted":"0","num_feature":"7","num_nodes":"25","size_leaf_vector":"1"}},{"base_weights":[1.1495808E-2,-8.615944E-3,7.5959906E-2,2.0970752E-2,-2.1865745E-1,6.2041227E-2,-2.3836574E-1,-1.5222715E-1,5.388586E-2,6.3540936E-3,1.11140914E-1,-1.2961699E-2,-9.263656E-2,4.4153575E-2,-8.816353E-2,-9.763389E-3,8.224926E-2],"categories":[],"categories_nodes":[],"categories_segments":[],"categories_sizes":[],"default_left":[0,0,0,0,0,0,0,0,0,0,0,0,0,0,0,0,0],"id":39,"left_children":[1,3,-1,5,7,9,11,-1,-1,13,-1,-1,-1,15,-1,-1,-1],"loss_changes":[1.3074766E-1,1.6232924E-1,0E0,2.6148725E-1,4.6165493E-1,3.54703E-1,3.301789E-2,0E0,0E0,2.2436458E-1,0E0,0E0,0E0,3.1611753E-1,0E0,0E0,0E0],"parents":[2147483647,0,0,1,1,3,3,4,4,5,5,6,6,9,9,13,13],"right_children":[2,4,-1,6,8,10,12,-1,-1,14,-1,-1,-1,16,-1,-1,-1],"split_conditions":[4.32225E1,4.21775E1,7.5959906E-2,6.25E1,1.2535443E0,4.00125E1,1.0107772E0,-1.5222715E-1,5.388586E-2,3.90475E1,1.11140914E-1,-1.2961699E-2,-9.263656E-2,3.615E1,-8.816353E-2,-9.763389E-3,8.224926E-2],"split_indices":[2,2,0,1,6,2,5,0,0,2,0,0,0,2,0,0,0],"split_type":[0,0,0,0,0,0,0,0,0,0,0,0,0,0,0,0,0],"sum_hessian":[2.544801E1,2.438346E1,1.0645514E0,2.2161871E1,2.2215886E0,1.9788746E1,2.3731248E0,1.1289836E0,1.0926049E0,1.7626806E1,2.1619396E0,1.0571109E0,1.3160139E0,1.6413296E1,1.2135098E0,1.2952671E1,3.4606252E0],"tree_param":{"num_deleted":"0","num_feature":"7","num_nodes":"17","size_leaf_vector":"1"}},{"base_weights":[6.838448E-3,7.159176E-2,-1.5701752E-2,-1.22230396E-1,6.4429596E-2,1.5631637E-1,-2.3483919E-1,-9.098038E-2,1.7058463E-1,-6.1015937E-2,1.09104626E-1,7.648523E-2,-5.0296503E-1,7.064283E-2,-2.2950749E-1,2.8015005E-3,3.0774722E-1,2.1517879E-1,-4.538387E-2,-4.4849385E-2,-1.695056E-1,5.32785E-2,-4.200188E-1,1.04850136E-1,-2.3595494E-1,4.4337842E-1,7.566416E-3,-1.5777817E-2,1.12018846E-1,-1.6329521E-1,-4.1431766E-2,-4.768097E-3,-1.0193003E-1,1.8564835E-1,1.8904129E-2],"categories":[],"categories_nodes":[],"categories_segments":[],"categories_sizes":[],"default_left":[0,0,0,0,0,0,0,0,0,0,0,0,0,0,0,0,0,0,0,0,0,0,0,0,0,0,0,0,0,0,0,0,0,0,0],"id":40,"left_children":[1,-1,3,5,7,9,11,13,15,-1,-1,17,19,-1,21,23,25,27,-1,-1,-1,-1,29,-1,31,33,-1,-1,-1,-1,-1,-1,-1,-1,-1],"loss_changes":[1.4007334E-1,0E0,2.1887447E-1,3.8037464E-1,2.5904986E-1,3.5402116E-1,7.231052E-1,3.5446465E-1,2.0898679E-1,0E0,0E0,1.7985927E-1,1.5080333E-2,0E0,4.7559816E-1,5.0550646E-1,1.8071544E-1,1.5991676E-1,0E0,0E0,0E0,0E0,5.8661044E-2,0E0,7.7376634E-2,1.8277991E-1,0E0,0E0,0E0,0E0,0E0,0E0,0E0,0E0,0E0],"parents":[2147483647,0,0,2,2,3,3,4,4,5,5,6,6,7,7,8,8,11,11,12,12,14,14,15,15,16,16,17,17,22,22,24,24,25,25],"right_children":[2,-1,4,6,8,10,12,14,16,-1,-1,18,20,-1,22,24,26,28,-1,-1,-1,-1,30,-1,32,34,-1,-1,-1,-1,-1,-1,-1,-1,-1],"split_conditions":[1.0028658E0,7.159176E-2,8.574946E-1,4.874372E-1,6.1809045E-1,8.341014E-1,8.3824944E-1,1.018587E0,3.17475E1,-6.1015937E-2,1.09104626E-1,1.3216374E0,1.2376395E0,7.064283E-2,4.5E0,4.75E1,1.3E1,1.2605197E0,-4.538387E-2,-4.4849385E-2,-1.695056E-1,5.32785E-2,1.339874E0,1.04850136E-1,2.84625E1,5.8E1,7.566416E-3,-1.5777817E-2,1.12018846E-1,-1.6329521E-1,-4.1431766E-2,-4.768097E-3,-1.0193003E-1,1.8564835E-1,1.8904129E-2],"split_indices":[5,0,4,3,3,4,4,5,2,0,0,6,6,0,0,1,0,6,0,0,0,0,6,0,2,1,0,0,0,0,0,0,0,0,0],"split_type":[0,0,0,0,0,0,0,0,0,0,0,0,0,0,0,0,0,0,0,0,0,0,0,0,0,0,0,0,0,0,0,0,0,0,0],"sum_hessian":[2.509198E1,1.3740581E0,2.3717922E1,9.956339E0,1.3761583E1,2.7545657E0,7.201773E0,5.643094E0,8.118489E0,1.0143071E0,1.7402585E0,3.6631653E0,3.5386078E0,1.4726813E0,4.170413E0,4.110624E0,4.007866E0,2.3111115E0,1.3520538E0,1.037578E0,2.50103E0,1.3510851E0,2.8193278E0,1.487208E0,2.623416E0,2.3232253E0,1.6846405E0,1.1063259E0,1.2047856E0,1.3106484E0,1.5086794E0,1.2104956E0,1.4129202E0,1.1608372E0,1.1623881E0],"tree_param":{"num_deleted":"0","num_feature":"7","num_nodes":"35","size_leaf_vector":"1"}},{"base_weights":[7.815313E-3,-1.9592184E-1,3.591597E-2,1.2568519E-2,-9.695361E-2,1.1047524E-1,-7.267072E-3,-4.8179355E-2,1.6057101E-1,-7.9876564E-2,7.3387824E-2,3.815135E-1,-5.999756E-2,4.1550387E-2,-1.9622935E-1,1.5470222E-1,2.104285E-2,7.703811E-2,-3.992396E-2,-8.541308E-2,5.6441028E-2],"categories":[],"categories_nodes":[],"categories_segments":[],"categories_sizes":[],"default_left":[0,0,0,0,0,0,0,0,0,0,0,0,0,0,0,0,0,0,0,0,0],"id":41,"left_children":[1,3,5,-1,-1,-1,7,9,11,13,-1,15,-1,17,19,-1,-1,-1,-1,-1,-1],